{"learner":{"attributes":{},"feature_names":[],"feature_types":[],"gradient_booster":{"model":{"gbtree_model_param":{"num_parallel_tree":"1","num_trees":"10"},"iteration_indptr":[0,1,2,3,4,5,6,7,8,9,10],"tree_info":[0,0,0,0,0,0,0,0,0,0],"trees":[{"base_weights":[-1.2192401E-8,-4.6465796E-1,3.3311978E-1,-1.3823067E0,-5.263444E-2,-4.929704E-1,6.1413044E-1,1.5755159E0,-1.7593671E0,6.3173336E-1,-7.803709E-1,1.576017E-1,-5.894737E-1,7.137573E-1,-5.714286E-1,5.6541073E-1,-3.6E-1,-5.9551406E-1,1.0370476E0,-5.714286E-1,9.467261E-1,1.2245101E0,-1.2890623E0,6.919583E-1,-5.775701E-1,8.1728494E-1,-1.2967116E0,5.345921E-1,-4.1538465E-1,-1.1598324E0,1.2547591E0,1.7731413E0,-5.04E-1,-5.934426E-1,-9.166272E-3,1.0766412E0,-5.5714285E-1,8.9402294E-1,-5.5789477E-1,-5.7272726E-1,4.8204306E-1,-5.661972E-1,4.8204306E-1,1.449321E0,-5.3513515E-1,-3.3333337E-1,5.79734E-1,-5.72093E-1,1.3617651E0,1.424881E0,-5.4146343E-1,9.640965E-1,-5.5200005E-1,-5.0769234E-1,1.592488E0,1.7737523E0,-4.5882356E-1,-4.9565217E-1,1.6362324E0,-5.4285717E-1,1.024595E0,1.7260519E0,-4.9565217E-1,-3E-1,5.764887E-1,-4.5000002E-1,1.7837026E0,1.079173E0,-5.3513515E-1,-4.2857146E-1,1.8004174E0,1.8753846E0,-3.818182E-1,1.9836408E-1,1.2702967E0,1.8699307E0,-4.1538465E-1,-3.3333337E-1,5.83092E-1,1.3181729E0,-1.4577941E0,1.3256512E0,-5.172414E-1,1.9177033E0,-3.6E-1,-5.0769234E-1,1.7295227E0,-5.7983196E-1,4.8204306E-1,1.3805835E0,-5.1428574E-1,-3E-1,1.9502122E0,-3.818182E-1,5.64802E-1,-5E-1,1.4277661E0,5.922196E-1,3.4300113E-1,-4.9565217E-1,1.4738258E0,1.5211402E0,-4.9565217E-1,4.6782422E-1,-4.7368425E-1],"categories":[],"categories_nodes":[],"categories_segments":[],"categories_sizes":[],"default_left":[0,0,0,0,0,0,0,0,0,0,0,0,0,0,0,0,0,0,0,0,0,0,0,0,0,0,0,0,0,0,0,0,0,0,0,0,0,0,0,0,0,0,0,0,0,0,0,0,0,0,0,0,0,0,0,0,0,0,0,0,0,0,0,0,0,0,0,0,0,0,0,0,0,0,0,0,0,0,0,0,0,0,0,0,0,0,0,0,0,0,0,0,0,0,0,0,0,0,0,0,0,0,0,0,0],"id":0,"left_children":[1,3,5,7,9,11,13,15,17,19,21,23,-1,25,-1,-1,-1,-1,27,-1,29,31,33,35,-1,37,39,-1,-1,41,43,45,-1,-1,47,49,-1,51,-1,-1,-1,-1,-1,53,-1,-1,-1,-1,55,57,-1,59,-1,-1,61,63,-1,-1,65,-1,67,69,-1,-1,-1,-1,71,73,-1,-1,75,77,-1,79,81,83,-1,-1,-1,85,87,89,-1,91,-1,-1,93,-1,-1,95,-1,-1,97,-1,-1,-1,99,-1,-1,-1,101,103,-1,-1,-1],"loss_changes":[1.9387042E2,1.9766733E2,1.6965051E2,1.8346878E2,1.8077023E2,1.7815808E2,1.3807278E2,1.8434723E1,9.304541E1,1.5129044E2,1.8094817E2,1.4571002E2,0E0,1.102879E2,0E0,0E0,0E0,0E0,2.3074345E1,0E0,1.0988347E2,6.0514294E1,1.2413367E2,1.03954185E2,0E0,1.0431177E2,4.9451E1,0E0,0E0,4.69833E1,8.905278E1,1.6324875E1,0E0,0E0,1.333867E2,9.3858696E1,0E0,9.49689E1,0E0,0E0,0E0,0E0,0E0,6.476941E1,0E0,0E0,0E0,0E0,3.81722E1,5.5850555E1,0E0,8.155023E1,0E0,0E0,6.02782E1,1.2799263E1,0E0,0E0,3.8275253E1,0E0,7.326672E1,3.254425E1,0E0,0E0,0E0,0E0,2.3115326E1,7.6714294E1,0E0,0E0,3.0322327E1,1.6881699E1,0E0,1.5530028E2,6.452588E1,2.0341858E1,0E0,0E0,0E0,6.467899E1,5.2358917E1,6.402728E1,0E0,1.3475739E1,0E0,0E0,2.279544E1,0E0,0E0,5.4605957E1,0E0,0E0,6.2408447E-2,0E0,0E0,0E0,5.3256104E1,0E0,0E0,0E0,5.4796875E1,4.3841553E1,0E0,0E0,0E0],"parents":[2147483647,0,0,1,1,2,2,3,3,4,4,5,5,6,6,7,7,8,8,9,9,10,10,11,11,13,13,18,18,20,20,21,21,22,22,23,23,25,25,26,26,29,29,30,30,31,31,34,34,35,35,37,37,43,43,48,48,49,49,51,51,54,54,55,55,58,58,60,60,61,61,66,66,67,67,70,70,71,71,73,73,74,74,75,75,79,79,80,80,81,81,83,83,86,86,89,89,92,92,96,96,100,100,101,101],"right_children":[2,4,6,8,10,12,14,16,18,20,22,24,-1,26,-1,-1,-1,-1,28,-1,30,32,34,36,-1,38,40,-1,-1,42,44,46,-1,-1,48,50,-1,52,-1,-1,-1,-1,-1,54,-1,-1,-1,-1,56,58,-1,60,-1,-1,62,64,-1,-1,66,-1,68,70,-1,-1,-1,-1,72,74,-1,-1,76,78,-1,80,82,84,-1,-1,-1,86,88,90,-1,92,-1,-1,94,-1,-1,96,-1,-1,98,-1,-1,-1,100,-1,-1,-1,102,104,-1,-1,-1],"split_conditions":[-5.3202047E-4,-2.572272E-3,3.0542543E-4,-1.8861828E-2,-2.0027065E-3,4.8780494E-6,6.4036665E-3,-5.451022E-4,1.3399301E-2,-4.149091E-3,-6.8742945E-3,2.8912965E-4,-5.894737E-1,2.3226812E-4,-5.714286E-1,5.6541073E-1,-3.6E-1,-5.9551406E-1,-2.8813202E-2,-5.714286E-1,-3.8060355E-3,8.541031E-3,-8.8803715E-4,-4.6121604E-5,-5.775701E-1,1.0341311E-2,-7.428365E-5,5.345921E-1,-4.1538465E-1,8.824577E-3,5.6430395E-4,-3.8838787E-3,-5.04E-1,-5.934426E-1,-2.51109E-4,2.8891463E-4,-5.5714285E-1,1.6499009E-2,-5.5789477E-1,-5.7272726E-1,4.8204306E-1,-5.661972E-1,4.8204306E-1,-1.6523568E-2,-5.3513515E-1,-3.3333337E-1,5.79734E-1,-5.72093E-1,1.8430687E-3,-1.3453118E-4,-5.4146343E-1,-4.7312602E-3,-5.5200005E-1,-5.0769234E-1,1.050467E-2,-7.621166E-4,-4.5882356E-1,-4.9565217E-1,9.537965E-5,-5.4285717E-1,6.4898087E-3,-4.582815E-3,-4.9565217E-1,-3E-1,5.764887E-1,-4.5000002E-1,4.8539258E-4,-1.0692198E-2,-5.3513515E-1,-4.2857146E-1,1.0660036E-3,1.1005978E-3,-3.818182E-1,-4.4502408E-4,9.2535745E-5,4.577375E-3,-4.1538465E-1,-3.3333337E-1,5.83092E-1,5.9810025E-3,4.6270215E-3,3.5262256E-4,-5.172414E-1,-1.2373835E-2,-3.6E-1,-5.0769234E-1,-2.840116E-3,-5.7983196E-1,4.8204306E-1,-1.1263376E-2,-5.1428574E-1,-3E-1,1.4820377E-2,-3.818182E-1,5.64802E-1,-5E-1,-9.259471E-3,5.922196E-1,3.4300113E-1,-4.9565217E-1,5.936698E-4,5.8472697E-3,-4.9565217E-1,4.6782422E-1,-4.7368425E-1],"split_indices":[44,753,5988,868,4225,71,4693,88,1684,2409,1300,437,0,3229,0,0,0,0,121,0,3792,848,112,3179,0,93,112,0,0,26,4049,238,0,0,921,636,0,969,0,0,0,0,0,2485,0,0,0,0,1500,5676,0,4152,0,0,5465,593,0,0,2909,0,272,228,0,0,0,0,5792,229,0,0,864,6079,0,3617,4741,2452,0,0,0,1152,4,3218,0,641,0,0,1984,0,0,1756,0,0,832,0,0,0,3048,0,0,0,5554,2498,0,0,0],"split_type":[0,0,0,0,0,0,0,0,0,0,0,0,0,0,0,0,0,0,0,0,0,0,0,0,0,0,0,0,0,0,0,0,0,0,0,0,0,0,0,0,0,0,0,0,0,0,0,0,0,0,0,0,0,0,0,0,0,0,0,0,0,0,0,0,0,0,0,0,0,0,0,0,0,0,0,0,0,0,0,0,0,0,0,0,0,0,0,0,0,0,0,0,0,0,0,0,0,0,0,0,0,0,0,0,0],"sum_hessian":[1.2505E3,5.2199347E2,7.2850653E2,1.610196E2,3.6097385E2,1.8472223E2,5.437843E2,1.7846405E1,1.431732E2,1.8609804E2,1.7487582E2,1.2872223E2,5.6E1,5.237843E2,2E1,1.6346405E1,1.5E0,1.3275E2,1.04232025E1,2E1,1.6609804E2,3.510621E1,1.397696E2,1.0297222E2,2.575E1,4.986977E2,2.5086601E1,8.1732025E0,2.25E0,2.0836601E1,1.4526144E2,2.9856209E1,5.25E0,9.05E1,4.9269608E1,8.997222E1,1.3E1,4.854477E2,1.325E1,2.1E1,4.0866013E0,1.675E1,4.0866013E0,1.3701144E2,8.25E0,1.25E0,2.8606209E1,2.05E1,2.8769608E1,8.072222E1,9.25E0,4.739477E2,1.15E1,5.5E0,1.3151144E2,2.5519608E1,3.25E0,4.75E0,7.597222E1,9.5E0,4.644477E2,1.2676144E2,4.75E0,1E0,2.4519608E1,3E0,7.297222E1,4.561977E2,8.25E0,2.5E0,1.2426144E2,7.122222E1,1.75E0,8.1702614E1,3.744951E2,1.2201144E2,2.25E0,1.25E0,6.997222E1,4.8866013E1,3.28366E1,3.682451E2,6.25E0,1.2051144E2,1.5E0,5.5E0,4.3366013E1,2.875E1,4.0866013E0,3.622451E2,6E0,1E0,1.1951144E2,1.75E0,4.1616013E1,5E0,3.572451E2,1.14674835E2,4.8366013E0,4.75E0,3.524951E2,3.477451E2,4.75E0,3.439951E2,3.75E0],"tree_param":{"num_deleted":"0","num_feature":"6144","num_nodes":"105","size_leaf_vector":"1"}},{"base_weights":[-1.2621117E-2,-3.6642122E-1,2.3719439E-1,-1.0671637E0,-5.2747175E-2,-6.208257E-2,6.914119E-1,1.208682E0,-1.3608959E0,4.6921903E-1,-6.0962325E-1,-1.3898659E0,1.3891408E-1,-4.8905924E-1,8.3250225E-1,4.4123012E-1,-3.0163023E-1,-4.615891E-1,7.89076E-1,-4.4528377E-1,7.1213275E-1,-1.3968314E0,1.7790124E-1,3.8774124E-1,-4.8640147E-1,3.2573512E-1,-1.3135389E0,-4.5711306E-1,9.434413E-1,4.205527E-1,-3.4020644E-1,-8.862437E-1,9.4731927E-1,-4.6217328E-1,3.6972475E-1,-4.4502404E-1,6.609933E-1,4.72099E-1,-5.036122E-1,3.6920613E-1,-4.8071003E-1,-4.8841575E-1,1.0181047E0,-4.4175956E-1,3.8537025E-1,1.10004E0,-4.2091626E-1,-4.24767E-1,1.0457895E0,5.841749E-1,-4.8798648E-1,-4.7670698E-1,1.0926172E0,1.2145945E0,-4.0430507E-1,1.2597451E0,-3.780109E-1,8.043972E-1,-4.3640915E-1,-4.427803E-1,1.1515852E0,-3.9249456E-1,1.3211007E0,1.3952552E0,-3.2847986E-1,-4.6071652E-1,8.907413E-1,9.2604136E-1,-4.9162224E-1,-4.0154076E-1,1.2092056E0,1.3808329E0,-3.857965E-1,4.4458127E-1,-2.7011916E-1,-4.300971E-1,9.6861243E-1,4.254621E-1,-4.32664E-1,1.2549771E0,-4.3099374E-1,1.4340047E0,-3.4815976E-1,-4.5495936E-1,1.0351877E0,-3.8480762E-1,1.301706E0,-3.1001845E-1,1.4800267E0,1.1321573E0,-5.935625E-1,-3.8245535E-1,1.3384997E0,5.103165E-1,1.5224578E0,1.224448E0,-4.9193084E-1,3.6920613E-1,-4.497076E-1,-4.1340613E-1,1.3719076E0,-3.244616E-1,3.6780256E-1,4.632001E-1,2.5229838E-1,1.2783737E0,-3.967861E-1,3.8774124E-1,-4.6588376E-1,1.3991398E0,-3.3321565E-1,1.3186411E0,-3.580395E-1,1.426594E0,-3.3033386E-1,-3.9052022E-1,4.067085E-1,4.3543145E-1,-3.212174E-1],"categories":[],"categories_nodes":[],"categories_segments":[],"categories_sizes":[],"default_left":[0,0,0,0,0,0,0,0,0,0,0,0,0,0,0,0,0,0,0,0,0,0,0,0,0,0,0,0,0,0,0,0,0,0,0,0,0,0,0,0,0,0,0,0,0,0,0,0,0,0,0,0,0,0,0,0,0,0,0,0,0,0,0,0,0,0,0,0,0,0,0,0,0,0,0,0,0,0,0,0,0,0,0,0,0,0,0,0,0,0,0,0,0,0,0,0,0,0,0,0,0,0,0,0,0,0,0,0,0,0,0,0,0,0,0,0,0,0,0],"id":1,"left_children":[1,3,5,7,9,11,13,15,17,19,21,23,25,-1,27,-1,-1,-1,29,-1,31,33,35,-1,-1,37,39,-1,41,-1,-1,43,45,-1,-1,-1,47,49,-1,-1,-1,-1,51,-1,-1,53,-1,-1,55,57,-1,-1,59,61,-1,63,-1,65,67,-1,69,-1,71,73,-1,-1,75,77,-1,-1,79,81,-1,-1,-1,-1,83,-1,-1,85,-1,87,-1,-1,89,-1,91,-1,93,95,97,-1,99,101,103,105,107,-1,-1,-1,109,-1,-1,-1,-1,111,-1,-1,-1,113,-1,115,-1,117,-1,-1,-1,-1,-1],"loss_changes":[1.0292691E2,1.0587761E2,9.283391E1,1.0123193E2,9.736188E1,1.1025468E2,9.0191315E1,1.1667997E1,5.1812836E1,8.31294E1,1.0069057E2,3.581672E1,9.786643E1,0E0,6.844037E1,0E0,0E0,0E0,1.4283129E1,0E0,5.891954E1,3.2564285E1,6.66944E1,0E0,0E0,9.437043E1,3.219069E1,0E0,4.877704E1,0E0,0E0,2.7771423E1,5.0062088E1,0E0,0E0,0E0,5.2728294E1,7.105437E1,0E0,0E0,0E0,0E0,4.8186386E1,0E0,0E0,3.738243E1,0E0,0E0,2.8561878E1,6.410702E1,0E0,0E0,3.6999207E1,3.4593307E1,0E0,1.765232E1,0E0,4.8582947E1,8.505275E1,0E0,3.4387238E1,0E0,2.0128418E1,1.0930557E1,0E0,0E0,4.2293945E1,3.0653738E1,0E0,0E0,2.8900024E1,1.7297806E1,0E0,0E0,0E0,0E0,3.7846664E1,0E0,0E0,2.7814453E1,0E0,1.4448608E1,0E0,0E0,3.4492508E1,0E0,2.227707E1,0E0,3.8354492E0,3.0946869E1,2.2803627E1,0E0,2.1349854E1,8.393603E0,2.7075195E-1,2.8041687E1,2.3967468E1,0E0,0E0,0E0,1.5908234E1,0E0,0E0,0E0,0E0,2.0323975E1,0E0,0E0,0E0,1.6017029E1,0E0,1.9808472E1,0E0,1.4496735E1,0E0,0E0,0E0,0E0,0E0],"parents":[2147483647,0,0,1,1,2,2,3,3,4,4,5,5,6,6,7,7,8,8,9,9,10,10,11,11,12,12,14,14,18,18,20,20,21,21,22,22,25,25,26,26,28,28,31,31,32,32,36,36,37,37,42,42,45,45,48,48,49,49,52,52,53,53,55,55,57,57,58,58,60,60,62,62,63,63,66,66,67,67,70,70,71,71,76,76,79,79,81,81,84,84,86,86,88,88,89,89,90,90,92,92,93,93,94,94,95,95,96,96,100,100,105,105,109,109,111,111,113,113],"right_children":[2,4,6,8,10,12,14,16,18,20,22,24,26,-1,28,-1,-1,-1,30,-1,32,34,36,-1,-1,38,40,-1,42,-1,-1,44,46,-1,-1,-1,48,50,-1,-1,-1,-1,52,-1,-1,54,-1,-1,56,58,-1,-1,60,62,-1,64,-1,66,68,-1,70,-1,72,74,-1,-1,76,78,-1,-1,80,82,-1,-1,-1,-1,84,-1,-1,86,-1,88,-1,-1,90,-1,92,-1,94,96,98,-1,100,102,104,106,108,-1,-1,-1,110,-1,-1,-1,-1,112,-1,-1,-1,114,-1,116,-1,118,-1,-1,-1,-1,-1],"split_conditions":[-5.3202047E-4,-2.572272E-3,-6.5149204E-3,-1.8861828E-2,-2.0027065E-3,6.2044524E-4,-9.406162E-3,-5.451022E-4,1.3399301E-2,-4.149091E-3,-9.247414E-5,-3.8108882E-3,2.795633E-4,-4.8905924E-1,-9.550889E-4,4.4123012E-1,-3.0163023E-1,-4.615891E-1,-2.8813202E-2,-4.4528377E-1,-3.8060355E-3,2.1073224E-3,-1.325439E-3,3.8774124E-1,-4.8640147E-1,1.4554922E-3,-2.9506416E-3,-4.5711306E-1,-4.685468E-3,4.205527E-1,-3.4020644E-1,8.824577E-3,5.6430395E-4,-4.6217328E-1,3.6972475E-1,-4.4502404E-1,1.7695295E-3,1.5323157E-3,-5.036122E-1,3.6920613E-1,-4.8071003E-1,-4.8841575E-1,-1.8181112E-3,-4.4175956E-1,3.8537025E-1,1.050467E-2,-4.2091626E-1,-4.24767E-1,-2.0261832E-5,2.3552601E-4,-4.8798648E-1,-4.7670698E-1,-4.5751588E-4,-1.6523568E-2,-4.0430507E-1,6.191865E-4,-3.780109E-1,-1.659825E-4,-9.8620265E-5,-4.427803E-1,-4.524513E-3,-3.9249456E-1,-2.142332E-3,3.8481524E-4,-3.2847986E-1,-4.6071652E-1,-3.2427144E-4,-1.0185106E-2,-4.9162224E-1,-4.0154076E-1,-3.8234575E-5,6.861476E-4,-3.857965E-1,4.4458127E-1,-2.7011916E-1,-4.300971E-1,-4.672604E-3,4.254621E-1,-4.32664E-1,-9.683589E-3,-4.3099374E-1,-4.582815E-3,-3.4815976E-1,-4.5495936E-1,2.3540657E-4,-3.8480762E-1,-6.077908E-3,-3.1001845E-1,-8.626532E-4,1.3609281E-4,-3.9465344E-3,-3.8245535E-1,-5.404779E-3,5.063454E-3,-5.083042E-3,3.6238097E-3,-1.5257549E-3,3.6920613E-1,-4.497076E-1,-4.1340613E-1,4.582798E-3,-3.244616E-1,3.6780256E-1,4.632001E-1,2.5229838E-1,8.9629355E-4,-3.967861E-1,3.8774124E-1,-4.6588376E-1,1.5452762E-4,-3.3321565E-1,-6.949445E-6,-3.580395E-1,3.2893824E-3,-3.3033386E-1,-3.9052022E-1,4.067085E-1,4.3543145E-1,-3.212174E-1],"split_indices":[44,753,4659,868,4225,1586,5100,88,1684,2409,5801,82,5364,0,2820,0,0,0,121,0,3792,2224,3196,0,0,573,2200,0,606,0,0,26,4049,0,0,0,2407,2529,0,0,0,0,5105,0,0,5465,0,0,4882,5579,0,0,3139,2485,0,5523,0,3535,2905,0,4152,0,4932,1592,0,0,1267,1882,0,0,5654,352,0,0,0,0,4932,0,0,3345,0,228,0,0,5083,0,5612,0,2406,1079,12,0,5348,0,1142,5400,164,0,0,0,5230,0,0,0,0,2745,0,0,0,3794,0,5583,0,1925,0,0,0,0,0],"split_type":[0,0,0,0,0,0,0,0,0,0,0,0,0,0,0,0,0,0,0,0,0,0,0,0,0,0,0,0,0,0,0,0,0,0,0,0,0,0,0,0,0,0,0,0,0,0,0,0,0,0,0,0,0,0,0,0,0,0,0,0,0,0,0,0,0,0,0,0,0,0,0,0,0,0,0,0,0,0,0,0,0,0,0,0,0,0,0,0,0,0,0,0,0,0,0,0,0,0,0,0,0,0,0,0,0,0,0,0,0,0,0,0,0,0,0,0,0,0,0],"sum_hessian":[1.1625491E3,4.8094547E2,6.8160364E2,1.4797336E2,3.329721E2,4.114011E2,2.7020255E2,1.6558975E1,1.3141438E2,1.7195457E2,1.6101753E2,5.3311382E1,3.5808972E2,1.4875485E1,2.5532706E2,1.51065445E1,1.4524307E0,1.2164273E2,9.7716465E0,1.8452257E1,1.535023E2,8.0138016E1,8.0879524E1,3.8709137E0,4.9440468E1,3.179671E2,4.0122627E1,1.0908519E1,2.4441855E2,7.6159787E0,2.1556683E0,1.9334278E1,1.3416803E2,7.637643E1,3.76159E0,1.7754063E1,6.312546E1,2.9704166E2,2.0925432E1,3.7580192E0,3.636461E1,6.309427E0,2.3810912E2,1.5476172E1,3.8581047E0,1.2648158E2,7.68645E0,9.448568E0,5.3676895E1,2.8266827E2,1.43734E1,6.051366E0,2.3205775E2,1.213081E2,5.1734824E0,4.9534313E1,4.14258E0,2.3267361E2,4.9994644E1,4.668676E0,2.2738907E2,4.4566045E0,1.16851494E2,4.7224056E1,2.3102565E0,7.682215E0,2.2499141E2,2.3544468E1,2.6450176E1,4.6400685E0,2.2274901E2,1.14694046E2,2.157454E0,4.584735E1,1.3767078E0,6.728871E0,2.1826253E2,1.982553E1,3.7189393E0,2.1947786E2,3.2711492E0,1.1277034E2,1.9237033E0,5.1263213E0,2.1313622E2,3.4901648E0,2.1598769E2,1.6720403E0,1.110983E2,2.0144768E2,1.1688538E1,2.5671782E0,2.1342052E2,5.2036014E0,1.058947E2,1.9084856E2,1.05991125E1,3.7580192E0,7.930518E0,2.1038103E0,2.1131671E2,1.4553676E0,3.7482338E0,1.014228E2,4.471896E0,1.8737952E2,3.4690404E0,3.8709137E0,6.728199E0,2.094556E2,1.8611104E0,1.84835E2,2.5445101E0,2.076054E2,1.8502042E0,2.1013498E0,1.8273366E2,2.0597508E2,1.6303015E0],"tree_param":{"num_deleted":"0","num_feature":"6144","num_nodes":"119","size_leaf_vector":"1"}},{"base_weights":[-2.3802761E-2,2.4362786E-2,-4.157262E-1,-4.730772E-2,8.35106E-1,-4.1009444E-1,7.971302E-3,1.1565307E0,-3.906645E-1,5.479575E-2,-4.1635653E-1,-3.1286958E-1,1.2521605E0,5.2057105E-1,-8.972646E-2,1.3141612E0,-2.4719907E-1,-4.0034002E-1,6.742786E-1,2.847051E-1,-3.537328E-1,1.9218986E-1,4.054414E-1,7.965751E-1,-3.859226E-1,-9.3346727E-1,4.9564186E-1,3.7541136E-1,-7.1038914E-1,-3.6730054E-1,8.880541E-1,3.0434123E-1,-4.1939208E-1,6.143786E-1,-4.063091E-1,6.856819E-1,-9.437708E-1,-1.2962204E0,-1.7004123E-1,-5.468983E-1,9.931685E-1,-8.416046E-1,7.426127E-1,8.682793E-1,-3.797866E-1,-3.983905E-1,3.2476255E-1,2.6629478E-1,-4.3408158E-1,-9.594758E-1,4.8973387E-1,3.2476255E-1,-3.9285272E-1,-3.4898013E-1,1.0590802E0,-4.054121E-1,3.1870863E-1,-3.7015665E-1,8.298576E-1,-3.8273123E-1,1.0201712E0,-4.2588875E-1,8.807609E-1,8.062872E-1,-3.9269713E-1,-3.511249E-1,1.1174554E0,9.3793064E-1,-6.782843E-1,-3.3192617E-1,1.1295886E0,3.7870908E-1,-2.7741492E-1,-3.8530535E-1,9.8400253E-1,-3.079478E-1,1.1608349E0,9.9729604E-1,-3.313676E-1,-3.9902672E-1,3.10498E-1,1.2047256E0,-3.000259E-1,-3.315851E-1,1.1491308E0,1.2004032E0,-2.9210684E-1,1.0565E0,-3.4889325E-1,-2.7134073E-1,1.2594328E0,1.242863E0,-3.4557283E-1,-2.9750997E-1,1.2363997E0,1.1037575E0,-3.4961033E-1,1.3070321E0,-2.4246545E-1,-2.4756259E-1,1.308845E0,-2.3967391E-1,3.7870884E-1,3.4431678E-1,-3.1395766E-1,4.053528E-1,1.3691893E-1,1.7607477E-1,4.079633E-1],"categories":[],"categories_nodes":[],"categories_segments":[],"categories_sizes":[],"default_left":[0,0,0,0,0,0,0,0,0,0,0,0,0,0,0,0,0,0,0,0,0,0,0,0,0,0,0,0,0,0,0,0,0,0,0,0,0,0,0,0,0,0,0,0,0,0,0,0,0,0,0,0,0,0,0,0,0,0,0,0,0,0,0,0,0,0,0,0,0,0,0,0,0,0,0,0,0,0,0,0,0,0,0,0,0,0,0,0,0,0,0,0,0,0,0,0,0,0,0,0,0,0,0,0,0,0,0,0,0],"id":2,"left_children":[1,3,-1,5,7,-1,9,11,-1,13,-1,-1,15,17,19,21,-1,-1,23,25,27,-1,-1,29,-1,31,33,35,37,-1,39,-1,-1,41,-1,43,45,47,49,51,53,55,57,59,-1,-1,-1,-1,-1,61,63,-1,-1,-1,65,-1,-1,-1,67,-1,69,-1,71,73,-1,-1,75,77,79,-1,81,-1,-1,-1,83,-1,85,87,-1,-1,-1,89,-1,-1,91,93,-1,95,-1,-1,97,99,-1,-1,101,103,-1,105,-1,-1,107,-1,-1,-1,-1,-1,-1,-1,-1],"loss_changes":[6.5882866E1,5.64321E1,0E0,6.512827E1,5.5695004E1,0E0,5.6136494E1,1.5839142E1,0E0,5.5975693E1,0E0,0E0,9.665108E0,5.704222E1,6.2867706E1,7.7075195E-1,0E0,0E0,4.478473E1,6.807355E1,9.722418E1,0E0,0E0,3.2958893E1,0E0,3.6872612E1,5.0242672E1,5.104093E1,7.914417E1,0E0,2.550821E1,0E0,0E0,4.0217888E1,0E0,3.6826885E1,2.0016386E1,4.082953E1,6.89988E1,1.6256668E1,2.3201904E1,1.8550774E1,3.4722458E1,3.1351105E1,0E0,0E0,0E0,0E0,0E0,5.225925E1,4.2241604E1,0E0,0E0,0E0,2.0896393E1,0E0,0E0,0E0,3.123935E1,0E0,2.1429047E1,0E0,9.894347E0,2.4346603E1,0E0,0E0,1.4880005E1,2.239679E1,1.6045408E1,0E0,1.4482155E1,0E0,0E0,0E0,2.1220253E1,0E0,1.3392853E1,2.3123459E1,0E0,0E0,0E0,1.04394E1,0E0,0E0,1.3095963E1,1.2474136E1,0E0,1.8836884E1,0E0,0E0,8.829529E0,8.2365265E0,0E0,0E0,8.442902E0,1.6722397E1,0E0,2.2966766E0,0E0,0E0,1.0885544E0,0E0,0E0,0E0,0E0,0E0,0E0,0E0,0E0],"parents":[2147483647,0,0,1,1,3,3,4,4,6,6,7,7,9,9,12,12,13,13,14,14,15,15,18,18,19,19,20,20,23,23,25,25,26,26,27,27,28,28,30,30,33,33,35,35,36,36,37,37,38,38,39,39,40,40,41,41,42,42,43,43,49,49,50,50,54,54,58,58,60,60,62,62,63,63,66,66,67,67,68,68,70,70,74,74,76,76,77,77,81,81,84,84,85,85,87,87,90,90,91,91,94,94,95,95,97,97,100,100],"right_children":[2,4,-1,6,8,-1,10,12,-1,14,-1,-1,16,18,20,22,-1,-1,24,26,28,-1,-1,30,-1,32,34,36,38,-1,40,-1,-1,42,-1,44,46,48,50,52,54,56,58,60,-1,-1,-1,-1,-1,62,64,-1,-1,-1,66,-1,-1,-1,68,-1,70,-1,72,74,-1,-1,76,78,80,-1,82,-1,-1,-1,84,-1,86,88,-1,-1,-1,90,-1,-1,92,94,-1,96,-1,-1,98,100,-1,-1,102,104,-1,106,-1,-1,108,-1,-1,-1,-1,-1,-1,-1,-1],"split_conditions":[3.76959E-3,3.344899E-3,-4.157262E-1,-5.0287317E-3,-3.2421702E-3,-4.1009444E-1,7.1385643E-3,4.7054132E-3,-3.906645E-1,1.4236894E-3,-4.1635653E-1,-3.1286958E-1,5.278058E-3,-3.5740293E-4,1.0733546E-4,6.964533E-4,-2.4719907E-1,-4.0034002E-1,2.787243E-4,-4.0085946E-4,-1.0571029E-2,1.9218986E-1,4.054414E-1,-1.3965291E-2,-3.859226E-1,-5.063784E-3,3.4035032E-3,-2.2614715E-3,-4.3692384E-4,-3.6730054E-1,-8.5357536E-4,3.0434123E-1,-4.1939208E-1,-8.6601026E-4,-4.063091E-1,2.8893258E-3,1.8775265E-3,-2.4126093E-3,3.3470456E-4,2.6142963E-3,-4.0802508E-4,-4.1438304E-3,-1.027341E-3,-3.4461796E-4,-3.797866E-1,-3.983905E-1,3.2476255E-1,2.6629478E-1,-4.3408158E-1,2.048805E-3,2.834325E-3,3.2476255E-1,-3.9285272E-1,-3.4898013E-1,-1.8418966E-4,-4.054121E-1,3.1870863E-1,-3.7015665E-1,-9.309932E-4,-3.8273123E-1,-5.1667695E-3,-4.2588875E-1,7.607518E-6,-4.7171756E-4,-3.9269713E-1,-3.511249E-1,-6.3182907E-3,-6.086978E-5,2.8603927E-3,-3.3192617E-1,6.66095E-3,3.7870908E-1,-2.7741492E-1,-3.8530535E-1,1.9501899E-3,-3.079478E-1,-6.314646E-3,9.357689E-4,-3.313676E-1,-3.9902672E-1,3.10498E-1,2.5465586E-3,-3.000259E-1,-3.315851E-1,3.3285475E-4,-9.418381E-5,-2.9210684E-1,4.028568E-3,-3.4889325E-1,-2.7134073E-1,7.1614506E-3,6.972428E-5,-3.4557283E-1,-2.9750997E-1,-5.118003E-3,1.9302355E-3,-3.4961033E-1,9.195863E-3,-2.4246545E-1,-2.4756259E-1,-1.243458E-3,-2.3967391E-1,3.7870884E-1,3.4431678E-1,-3.1395766E-1,4.053528E-1,1.3691893E-1,1.7607477E-1,4.079633E-1],"split_indices":[3641,2813,0,5728,5456,0,3424,2133,0,5924,0,0,1922,299,366,5864,0,0,3012,96,6022,0,0,1944,0,2356,93,3061,703,0,1727,0,0,1440,0,3645,47,5945,1448,1,1046,26,337,5220,0,0,0,0,0,1254,2757,0,0,0,5741,0,0,0,4335,0,9,0,69,1074,0,0,3317,6016,20,0,4233,0,0,0,529,0,856,2420,0,0,0,4531,0,0,3817,6029,0,2257,0,0,5565,338,0,0,457,4576,0,1456,0,0,4392,0,0,0,0,0,0,0,0],"split_type":[0,0,0,0,0,0,0,0,0,0,0,0,0,0,0,0,0,0,0,0,0,0,0,0,0,0,0,0,0,0,0,0,0,0,0,0,0,0,0,0,0,0,0,0,0,0,0,0,0,0,0,0,0,0,0,0,0,0,0,0,0,0,0,0,0,0,0,0,0,0,0,0,0,0,0,0,0,0,0,0,0,0,0,0,0,0,0,0,0,0,0,0,0,0,0,0,0,0,0,0,0,0,0,0,0,0,0,0,0],"sum_hessian":[1.00281067E3,9.695061E2,3.3304573E1,8.91627E2,7.787907E1,3.489325E1,8.5673376E2,6.809705E1,9.782006E0,8.2985614E2,2.6877645E1,2.4247065E0,6.567235E1,1.9589886E2,6.339573E2,6.412442E1,1.5479333E0,1.4402211E1,1.8149666E2,2.621211E2,3.7183618E2,4.3194537E0,5.9804962E1,1.7139946E2,1.00971985E1,3.8183533E1,2.2393755E2,1.2212093E2,2.4971524E2,6.8863187E0,1.6451314E2,7.124113E0,3.105942E1,2.1105928E2,1.2878262E1,9.925619E1,2.2864748E1,1.1914377E2,1.3057147E2,1.0941678E1,1.5357146E2,1.6633856E1,1.9442543E2,9.12718E1,7.9843917E0,1.9510174E1,3.3545732E0,7.3761144E0,1.11767654E2,5.923788E1,7.1333595E1,3.3545732E0,7.587105E0,4.0609374E0,1.4951053E2,1.3349805E1,3.2840512E0,7.6638627E0,1.8676157E2,5.548734E0,8.572306E1,4.757121E1,1.1666673E1,6.1127632E1,1.0205966E1,3.328703E0,1.4618182E2,1.74626E2,1.2135562E1,3.748906E0,8.197416E1,9.879395E0,1.787278E0,4.301216E0,5.6826416E1,2.449652E0,1.4373218E2,1.7019109E2,4.434916E0,8.953082E0,3.18248E0,7.96001E1,2.3740568E0,3.7453175E0,5.3081097E1,1.4154591E2,2.1862595E0,1.661486E2,4.0424876E0,1.6197287E0,7.798037E1,5.1445354E1,1.6357417E0,1.8578317E0,1.3968808E2,1.6318109E2,2.967517E0,7.6585175E1,1.3951991E0,1.2348537E0,5.0210503E1,1.3844768E0,1.383036E2,1.6036841E2,2.8126776E0,7.224745E1,4.3377185E0,4.140329E0,4.6070175E1],"tree_param":{"num_deleted":"0","num_feature":"6144","num_nodes":"109","size_leaf_vector":"1"}},{"base_weights":[-3.285049E-2,9.265644E-3,-3.7300986E-1,-6.9589436E-2,6.2079245E-1,-8.238613E-3,-1.0811734E0,8.005753E-1,-3.4284806E-1,-2.7095413E-1,2.0947336E-1,-3.7470564E-1,2.7883726E-1,-5.493236E-1,9.792765E-1,-5.609133E-1,3.050435E-1,-1.0368814E0,3.1622285E-1,-3.3549446E-1,2.665693E-1,1.0647572E0,-2.8077835E-1,-7.9418164E-1,2.9860634E-1,5.514357E-1,-3.7970126E-1,2.791041E-1,-3.8185522E-1,4.1680986E-1,-8.1152153E-1,-2.5757483E-1,1.1376565E0,-1.0917329E0,4.034565E-2,7.340798E-1,-3.6686045E-1,7.3438203E-1,-3.455332E-1,5.325915E-1,-4.0160897E-1,-3.8359964E-1,2.995497E-1,-2.312751E-1,1.1898316E0,2.7358076E-1,-1.203186E0,-3.6651123E-1,6.6658884E-1,9.8025155E-1,-3.1034008E-1,-3.3202803E-1,8.815343E-1,-2.0453982E-2,7.328797E-1,-3.894348E-1,7.1740496E-1,3.687034E-1,4.1588995E-1,-3.963644E-1,4.2650798E-1,1.0298631E0,-3.192283E-1,-2.5938302E-1,1.1348829E0,-3.1293467E-1,9.89922E-1,-3.7944898E-1,4.1031137E-1,-3.6419165E-1,8.194705E-1,3.5070217E-1,-3.0864847E-1,-2.1269289E-1,2.7909508E-1,-2.8507832E-1,3.1552583E-1,3.5677624E-1,-2.4630907E-1,1.3307695E-1,3.631269E-1,1.0640744E0,-2.7709633E-1,-3.6470765E-1,7.096571E-1,8.7265515E-1,-3.2819465E-1,1.1167222E0,-2.2856565E-1,-3.360821E-1,9.2683554E-1,-3.2792497E-1,9.161582E-1,1.1653229E0,-2.2745675E-1,1.0848331E0,-2.9160303E-1,-2.988833E-1,9.589303E-1,-2.0476674E-1,1.2037783E0,-2.2333658E-1,1.171084E0,1.018442E0,-3.5603648E-1,3.6901543E-1,1.743187E-1,1.4349352E-1,3.6734095E-1,-3.099125E-1,1.0502467E0,-3.200062E-1,2.7361625E-1,-2.7613714E-1,3.2402048E-1],"categories":[],"categories_nodes":[],"categories_segments":[],"categories_sizes":[],"default_left":[0,0,0,0,0,0,0,0,0,0,0,0,0,0,0,0,0,0,0,0,0,0,0,0,0,0,0,0,0,0,0,0,0,0,0,0,0,0,0,0,0,0,0,0,0,0,0,0,0,0,0,0,0,0,0,0,0,0,0,0,0,0,0,0,0,0,0,0,0,0,0,0,0,0,0,0,0,0,0,0,0,0,0,0,0,0,0,0,0,0,0,0,0,0,0,0,0,0,0,0,0,0,0,0,0,0,0,0,0,0,0,0,0,0,0],"id":3,"left_children":[1,3,-1,5,7,9,11,13,-1,15,17,-1,-1,19,21,23,25,27,29,-1,-1,31,-1,33,35,37,-1,-1,-1,39,41,-1,43,45,47,49,-1,51,-1,53,55,-1,-1,-1,57,-1,59,-1,61,63,-1,-1,65,67,69,-1,71,-1,73,-1,75,77,-1,-1,79,-1,81,-1,83,-1,85,-1,-1,-1,-1,-1,-1,-1,-1,-1,-1,87,-1,-1,89,91,-1,93,-1,-1,95,-1,97,99,-1,101,-1,-1,103,-1,105,-1,107,109,111,-1,-1,-1,-1,-1,113,-1,-1,-1,-1],"loss_changes":[4.2634514E1,3.9050915E1,0E0,4.451553E1,3.0242237E1,3.880208E1,1.500243E1,2.0928162E1,0E0,5.1513916E1,4.9688137E1,0E0,0E0,9.602407E0,1.3275726E1,4.130535E1,4.0785652E1,1.4879393E1,3.918955E1,0E0,0E0,1.1109398E1,0E0,4.011708E1,3.034865E1,2.8962387E1,0E0,0E0,0E0,3.0072872E1,2.5278135E1,0E0,7.8936996E0,2.767157E1,3.5100468E1,1.6331825E1,0E0,2.3216766E1,0E0,3.0640778E1,4.0681767E1,0E0,0E0,0E0,1.5686417E0,0E0,2.2329865E1,0E0,1.9731432E1,9.938292E0,0E0,0E0,1.7006454E1,4.0443638E1,3.5216965E1,0E0,1.5609441E1,0E0,3.446588E0,0E0,8.228551E0,8.353781E0,0E0,0E0,9.984741E-1,0E0,1.1341835E1,0E0,2.8160686E1,0E0,2.079454E1,0E0,0E0,0E0,0E0,0E0,0E0,0E0,0E0,0E0,0E0,7.6517563E0,0E0,0E0,2.011269E1,1.7269897E1,0E0,7.1862946E0,0E0,0E0,1.409026E1,0E0,1.622432E1,5.6406097E0,0E0,7.275337E0,0E0,0E0,1.46905365E1,0E0,3.780594E-1,0E0,8.621292E-1,1.253067E1,8.784544E0,0E0,0E0,0E0,0E0,0E0,1.11753845E1,0E0,0E0,0E0,0E0],"parents":[2147483647,0,0,1,1,3,3,4,4,5,5,6,6,7,7,9,9,10,10,13,13,14,14,15,15,16,16,17,17,18,18,21,21,23,23,24,24,25,25,29,29,30,30,32,32,33,33,34,34,35,35,37,37,39,39,40,40,44,44,46,46,48,48,49,49,52,52,53,53,54,54,56,56,58,58,60,60,61,61,64,64,66,66,68,68,70,70,81,81,84,84,85,85,87,87,90,90,92,92,93,93,95,95,98,98,100,100,102,102,103,103,104,104,110,110],"right_children":[2,4,-1,6,8,10,12,14,-1,16,18,-1,-1,20,22,24,26,28,30,-1,-1,32,-1,34,36,38,-1,-1,-1,40,42,-1,44,46,48,50,-1,52,-1,54,56,-1,-1,-1,58,-1,60,-1,62,64,-1,-1,66,68,70,-1,72,-1,74,-1,76,78,-1,-1,80,-1,82,-1,84,-1,86,-1,-1,-1,-1,-1,-1,-1,-1,-1,-1,88,-1,-1,90,92,-1,94,-1,-1,96,-1,98,100,-1,102,-1,-1,104,-1,106,-1,108,110,112,-1,-1,-1,-1,-1,114,-1,-1,-1,-1],"split_conditions":[3.76959E-3,5.5247447E-3,-3.7300986E-1,-5.573172E-3,5.2286675E-3,7.1456126E-4,2.788477E-3,-1.8156546E-3,-3.4284806E-1,-7.4415974E-4,-2.2995714E-3,-3.7470564E-1,2.7883726E-1,6.868736E-4,3.851616E-3,1.813319E-2,-1.7052444E-4,-5.156263E-3,6.41078E-3,-3.3549446E-1,2.665693E-1,1.3839336E-2,-2.8077835E-1,-3.5367447E-3,-4.242588E-4,-1.5612971E-4,-3.7970126E-1,2.791041E-1,-3.8185522E-1,-7.000928E-3,1.4524166E-2,-2.5757483E-1,2.503439E-3,-5.0233295E-3,2.6742907E-4,3.4404136E-4,-3.6686045E-1,-1.2439849E-4,-3.455332E-1,-1.820705E-3,5.6615844E-3,-3.8359964E-1,2.995497E-1,-2.312751E-1,-3.9184038E-3,2.7358076E-1,3.706563E-3,-3.6651123E-1,-9.739561E-4,2.1669183E-4,-3.1034008E-1,-3.3202803E-1,-1.9587704E-3,1.2603193E-4,-1.0100554E-3,-3.894348E-1,-1.2897583E-2,3.687034E-1,6.492656E-3,-3.963644E-1,3.3625425E-4,2.226044E-4,-3.192283E-1,-2.5938302E-1,-3.7002391E-3,-3.1293467E-1,3.41845E-4,-3.7944898E-1,-1.6982531E-2,-3.6419165E-1,-4.96888E-3,3.5070217E-1,-3.0864847E-1,-2.1269289E-1,2.7909508E-1,-2.8507832E-1,3.1552583E-1,3.5677624E-1,-2.4630907E-1,1.3307695E-1,3.631269E-1,1.6321896E-3,-2.7709633E-1,-3.6470765E-1,-6.853219E-4,-8.048041E-4,-3.2819465E-1,5.753321E-4,-2.2856565E-1,-3.360821E-1,1.9314777E-3,-3.2792497E-1,-8.417906E-3,8.3377265E-4,-2.2745675E-1,3.868711E-5,-2.9160303E-1,-2.988833E-1,5.908404E-4,-2.0476674E-1,-4.8645926E-3,-2.2333658E-1,-1.8909424E-4,-3.8888905E-4,6.520816E-4,3.6901543E-1,1.743187E-1,1.4349352E-1,3.6734095E-1,-3.099125E-1,-2.0504254E-4,-3.200062E-1,2.7361625E-1,-2.7613714E-1,3.2402048E-1],"split_indices":[3641,647,0,2802,3070,4543,212,3393,0,4533,2741,0,0,31,3040,5923,435,34,341,0,0,5860,0,124,1908,426,0,0,0,148,2406,0,1693,672,732,5583,0,2139,0,5260,1501,0,0,0,5975,0,3912,0,964,5209,0,0,3936,5777,4548,0,1314,0,1,0,39,4757,0,0,1183,0,340,0,4816,0,3046,0,0,0,0,0,0,0,0,0,0,4708,0,0,1037,988,0,4744,0,0,5672,0,342,3690,0,4397,0,0,5432,0,924,0,1995,1521,696,0,0,0,0,0,2730,0,0,0,0],"split_type":[0,0,0,0,0,0,0,0,0,0,0,0,0,0,0,0,0,0,0,0,0,0,0,0,0,0,0,0,0,0,0,0,0,0,0,0,0,0,0,0,0,0,0,0,0,0,0,0,0,0,0,0,0,0,0,0,0,0,0,0,0,0,0,0,0,0,0,0,0,0,0,0,0,0,0,0,0,0,0,0,0,0,0,0,0,0,0,0,0,0,0,0,0,0,0,0,0,0,0,0,0,0,0,0,0,0,0,0,0,0,0,0,0,0,0],"sum_hessian":[8.3503625E2,8.0791956E2,2.7116707E1,7.164243E2,9.149519E1,6.764094E2,4.0014923E1,8.352658E1,7.9686174E0,3.064129E2,3.699965E2,3.7281494E1,2.7334273E0,9.522225E0,7.400436E1,2.0383025E2,1.02582664E2,2.8502466E1,3.4149402E2,6.981719E0,2.5405066E0,7.126754E1,2.7368102E0,1.603801E2,4.345015E1,8.923381E1,1.3348855E1,2.7375333E0,2.5764933E1,3.1410815E2,2.7385874E1,2.2089865E0,6.9058556E1,1.179992E2,4.2380898E1,3.418368E1,9.266467E0,8.109231E1,8.1415E0,2.7548462E2,3.8623543E1,2.20012E1,5.3846745E0,1.4710715E0,6.758749E1,5.8393354E0,1.1215987E2,1.3740076E1,2.8640821E1,3.0398159E1,3.7855222E0,5.518955E0,7.557336E1,7.348159E1,2.0200302E2,2.1354866E1,1.7268677E1,6.377117E1,3.8163142E0,1.047619E2,7.3979607E0,2.40067E1,4.634121E0,1.9957712E0,2.8402388E1,3.5692883E0,7.200407E1,1.8398005E1,5.5083584E1,8.047547E0,1.9395547E2,1.3983013E1,3.2856638E0,1.0789196E0,2.7373946E0,2.1480968E0,5.2498636E0,2.2432388E1,1.574311E0,3.4748743E0,2.4927513E1,6.974532E1,2.2587457E0,8.088241E0,4.6995342E1,1.8923949E2,4.715991E0,6.816825E1,1.5770718E0,4.544595E0,4.245075E1,3.5749412E0,1.8566455E2,6.6814766E1,1.3534818E0,3.958563E1,2.8651204E0,3.5739202E0,1.8209062E2,1.0206466E0,6.579412E1,1.4388086E0,3.8146816E1,1.7442226E2,7.6683674E0,6.2194744E1,3.5993748E0,3.4418864E0,3.4704933E1,2.182227E0,1.7224004E2,5.016112E0,2.6522555E0,2.1223543E0,1.7011768E2],"tree_param":{"num_deleted":"0","num_feature":"6144","num_nodes":"115","size_leaf_vector":"1"}},{"base_weights":[-4.0436458E-2,-1.1528091E-1,5.2822447E-1,-6.723609E-2,-3.5854906E-1,-3.3411807E-1,7.603825E-1,-4.9634784E-1,5.371635E-2,9.040169E-1,-3.3148295E-1,-9.0469754E-1,2.3844121E-1,1.7059681E-1,-5.841119E-1,1.013833E0,-2.788883E-1,-1.1472929E0,3.4349686E-1,-3.4182525E-1,5.730504E-1,-6.4112884E-1,2.8058454E-1,-1.0010446E0,5.592214E-1,1.0679218E0,-2.3158036E-1,2.3877135E-1,-3.66013E-1,-2.9784676E-1,2.880721E-1,7.9863214E-1,-3.215691E-1,4.006519E-1,-3.5601613E-1,-8.5961264E-1,3.4744933E-1,2.076901E-1,-3.611704E-1,-2.933801E-1,1.0160217E0,1.1089232E0,-1.9222717E-1,-2.5876522E-1,9.529244E-1,3.0363637E-1,-2.9494125E-1,2.5095478E-1,-3.4264076E-1,4.090903E-1,-8.40974E-1,3.3451593E-1,1.22246854E-1,1.1440119E0,1.19449556E-1,1.0430018E0,-2.1175756E-1,5.736851E-1,-1.5315001E-2,-3.46497E-1,2.4300265E-1,1.5504463E-1,3.4857342E-1,3.3463714E-1,8.295129E-2,-3.2077128E-1,6.254973E-1,3.6852884E-1,-3.5840243E-1,6.688262E-1,-3.1963027E-1,-3.351332E-1,6.0004103E-1,7.4806947E-1,-2.5126824E-1,7.809967E-1,-3.111177E-1,7.8437585E-1,-2.836284E-1,3.1040424E-1,-3.416155E-1,8.900634E-1,-2.6852682E-1,8.1656355E-1,-2.8338897E-1,-2.487599E-1,9.794796E-1,8.450652E-1,-2.650238E-1,-1.5604739E-1,1.1087492E0,-2.6277822E-1,2.615456E-1,-2.7612936E-1,2.3904547E-1,1.18287034E-1,3.4678027E-1],"categories":[],"categories_nodes":[],"categories_segments":[],"categories_sizes":[],"default_left":[0,0,0,0,0,0,0,0,0,0,0,0,0,0,0,0,0,0,0,0,0,0,0,0,0,0,0,0,0,0,0,0,0,0,0,0,0,0,0,0,0,0,0,0,0,0,0,0,0,0,0,0,0,0,0,0,0,0,0,0,0,0,0,0,0,0,0,0,0,0,0,0,0,0,0,0,0,0,0,0,0,0,0,0,0,0,0,0,0,0,0,0,0,0,0,0,0],"id":4,"left_children":[1,3,5,7,-1,-1,9,11,13,15,-1,17,19,21,23,25,-1,27,29,-1,31,33,35,37,39,41,-1,-1,-1,-1,-1,43,-1,45,-1,47,49,-1,-1,-1,51,53,-1,-1,55,-1,-1,-1,-1,57,59,-1,-1,61,-1,63,-1,65,67,-1,-1,-1,-1,-1,-1,-1,69,71,-1,73,-1,-1,75,77,79,81,-1,83,-1,-1,-1,85,-1,87,-1,-1,89,91,-1,93,95,-1,-1,-1,-1,-1,-1],"loss_changes":[2.9025692E1,3.116419E1,3.108748E1,3.0006477E1,0E0,0E0,1.9780067E1,3.8355114E1,3.375975E1,1.4159367E1,0E0,2.5197685E1,2.1951939E1,3.431707E1,3.4000313E1,6.852173E0,0E0,1.0699066E1,1.2573396E1,0E0,1.4895825E1,2.65823E1,2.6024006E1,1.861462E1,1.4606814E1,4.9834976E0,0E0,0E0,0E0,0E0,0E0,9.496941E0,0E0,1.4985704E1,0E0,1.0050388E1,2.374556E1,0E0,0E0,0E0,4.7587585E-1,1.0390778E0,0E0,0E0,5.434641E0,0E0,0E0,0E0,0E0,2.1270588E1,9.271692E0,0E0,0E0,3.463745E-2,0E0,1.3703728E0,0E0,1.9339859E1,3.9385086E1,0E0,0E0,0E0,0E0,0E0,0E0,0E0,1.6337822E1,2.3256903E1,0E0,1.5393784E1,0E0,0E0,1.7833881E1,1.2563019E1,2.0905125E1,1.0360487E1,0E0,1.1277344E1,0E0,0E0,0E0,8.440556E0,0E0,9.752014E0,0E0,0E0,7.164173E0,9.20369E0,0E0,4.9173784E0,9.898796E-1,0E0,0E0,0E0,0E0,0E0,0E0],"parents":[2147483647,0,0,1,1,2,2,3,3,6,6,7,7,8,8,9,9,11,11,12,12,13,13,14,14,15,15,17,17,18,18,20,20,21,21,22,22,23,23,24,24,25,25,31,31,33,33,35,35,36,36,40,40,41,41,44,44,49,49,50,50,53,53,55,55,57,57,58,58,66,66,67,67,69,69,72,72,73,73,74,74,75,75,77,77,81,81,83,83,86,86,87,87,89,89,90,90],"right_children":[2,4,6,8,-1,-1,10,12,14,16,-1,18,20,22,24,26,-1,28,30,-1,32,34,36,38,40,42,-1,-1,-1,-1,-1,44,-1,46,-1,48,50,-1,-1,-1,52,54,-1,-1,56,-1,-1,-1,-1,58,60,-1,-1,62,-1,64,-1,66,68,-1,-1,-1,-1,-1,-1,-1,70,72,-1,74,-1,-1,76,78,80,82,-1,84,-1,-1,-1,86,-1,88,-1,-1,90,92,-1,94,96,-1,-1,-1,-1,-1,-1],"split_conditions":[2.9391623E-3,1.3515597E-2,-3.071226E-4,-5.8438134E-4,-3.5854906E-1,-3.3411807E-1,-5.9517426E-4,-1.5216478E-3,1.5351604E-4,-1.013542E-3,-3.3148295E-1,6.635373E-3,6.3652534E-4,-2.7598792E-3,7.2391755E-3,8.576957E-3,-2.788883E-1,-1.2114978E-3,-2.3001689E-3,-3.4182525E-1,1.8956901E-4,3.6183689E-3,-2.8433924E-4,-5.389496E-3,-1.404404E-4,3.473654E-3,-2.3158036E-1,2.3877135E-1,-3.66013E-1,-2.9784676E-1,2.880721E-1,2.3634914E-4,-3.215691E-1,-2.0802787E-3,-3.5601613E-1,-4.946053E-3,5.0799927E-4,2.076901E-1,-3.611704E-1,-2.933801E-1,2.3628268E-3,3.937619E-3,-1.9222717E-1,-2.5876522E-1,9.362443E-4,3.0363637E-1,-2.9494125E-1,2.5095478E-1,-3.4264076E-1,8.3006016E-4,7.326156E-4,3.3451593E-1,1.22246854E-1,-1.423033E-3,1.19449556E-1,9.4685776E-5,-2.1175756E-1,7.00886E-5,3.1334627E-3,-3.46497E-1,2.4300265E-1,1.5504463E-1,3.4857342E-1,3.3463714E-1,8.295129E-2,-3.2077128E-1,1.2657629E-2,1.5748828E-5,-3.5840243E-1,1.27811795E-2,-3.1963027E-1,-3.351332E-1,5.1098377E-3,2.3311747E-3,-1.6783522E-3,2.0212955E-3,-3.111177E-1,1.3009515E-2,-2.836284E-1,3.1040424E-1,-3.416155E-1,-2.3825678E-4,-2.6852682E-1,7.767692E-4,-2.8338897E-1,-2.487599E-1,4.406986E-3,-2.0888778E-3,-2.650238E-1,6.595498E-3,-6.5495225E-4,-2.6277822E-1,2.615456E-1,-2.7612936E-1,2.3904547E-1,1.18287034E-1,3.4678027E-1],"split_indices":[180,2936,5141,3725,0,0,1697,4532,5070,2333,0,4328,5548,557,1036,1180,0,2520,2860,0,2297,4829,3409,2792,2501,576,0,0,0,0,0,5563,0,960,0,385,1698,0,0,0,545,3920,0,0,3146,0,0,0,0,3924,7,0,0,4612,0,118,0,4441,3471,0,0,0,0,0,0,0,592,4031,0,4984,0,0,1300,2004,469,488,0,6081,0,0,0,1003,0,2949,0,0,4962,4468,0,1,643,0,0,0,0,0,0],"split_type":[0,0,0,0,0,0,0,0,0,0,0,0,0,0,0,0,0,0,0,0,0,0,0,0,0,0,0,0,0,0,0,0,0,0,0,0,0,0,0,0,0,0,0,0,0,0,0,0,0,0,0,0,0,0,0,0,0,0,0,0,0,0,0,0,0,0,0,0,0,0,0,0,0,0,0,0,0,0,0,0,0,0,0,0,0,0,0,0,0,0,0,0,0,0,0,0,0],"sum_hessian":[6.79546E2,6.0121436E2,7.83317E1,5.766222E2,2.4592113E1,9.233059E0,6.909865E1,1.26109764E2,4.5051245E2,6.463682E1,4.46183E0,8.091246E1,4.5197304E1,3.8136145E2,6.915101E1,6.140631E1,3.2305017E0,6.781331E1,1.3099153E1,8.361397E0,3.6835907E1,4.493147E1,3.3642996E2,5.076374E1,1.8387266E1,5.9991234E1,1.4150796E0,2.0884943E0,6.5724815E1,3.9439275E0,9.155225E0,3.2846024E1,3.9898841E0,1.5534585E1,2.9396885E1,1.7979668E1,3.1845032E2,5.172613E0,4.559113E1,3.951029E0,1.4436238E1,5.89282E1,1.0630333E0,2.4013693E0,3.0444653E1,1.09601145E1,4.574471E0,2.2872546E0,1.5692412E1,3.0337088E2,1.50794325E1,1.169986E1,2.736378E0,5.557501E1,3.3531928E0,2.9228662E1,1.2159901E0,2.1834111E2,8.502976E1,1.2922083E1,2.1573498E0,2.3709357E0,5.320407E1,2.6288414E1,2.9402494E0,6.074877E0,2.1226624E2,6.466945E1,2.0360317E1,2.075523E2,4.7139225E0,8.203217E0,5.6466232E1,1.9126643E2,1.6285883E1,5.1316895E1,5.1493363E0,1.8777756E2,3.488874E0,6.5821667E0,9.703715E0,4.8621918E1,2.6949754E0,1.848638E2,2.9137552E0,1.994717E0,4.66272E1,1.823101E2,2.5536966E0,4.7443995E0,4.18828E1,2.3048208E0,1.8000528E2,2.651455E0,2.0929446E0,3.174341E0,3.870846E1],"tree_param":{"num_deleted":"0","num_feature":"6144","num_nodes":"97","size_leaf_vector":"1"}},{"base_weights":[-4.7894318E-2,-1.1602331E-1,4.989577E-1,-8.472021E-1,-5.1616423E-2,6.6667664E-1,-2.9601747E-1,-3.4089586E-1,4.4207E-1,-2.9273817E-1,1.670986E-1,-2.6994365E-1,7.8762555E-1,2.8484404E-1,-2.2729002E-1,4.1933794E-2,-6.47556E-1,-8.789693E-1,2.567062E-1,-2.4843775E-1,8.8115406E-1,-9.2163044E-1,2.745647E-1,3.2662965E-2,-1.0020884E0,2.2831185E-1,-3.3159554E-1,-5.035163E-1,3.7798625E-1,-2.3135057E-1,9.609909E-1,-3.329206E-1,2.238422E-1,4.2591214E-1,-3.2699E-1,-3.260821E-1,4.1664344E-1,7.7427596E-2,-3.5645133E-1,4.335226E-1,-3.426525E-1,-3.7563843E-1,4.970494E-1,1.0142605E0,-1.9176085E-1,5.4616064E-1,-2.9619318E-1,7.2239226E-1,-2.9138675E-1,2.907779E-1,-2.8419352E-1,9.251139E-1,-2.719384E-1,-3.3018044E-1,5.351564E-1,5.651592E-1,-3.2734984E-1,1.0611415E0,2.0312957E-1,6.548006E-1,-2.8508753E-1,-2.5942382E-1,9.723157E-1,3.0136442E-1,1.2112897E-1,-2.5961906E-1,3.015621E-1,6.1812234E-1,-2.9758772E-1,1.0930518E0,1.0910581E-1,-1.7834094E-1,2.179028E-1,-2.729164E-1,7.499372E-1,3.2332993E-1,1.673134E-1,-5.7076544E-1,6.776114E-1,1.3564242E-1,3.341052E-1,8.3481807E-1,-2.690589E-1,-1.7844734E-1,2.079857E-1,2.2973178E-1,-3.3896092E-1,-3.0375385E-1,7.2171277E-1,8.923827E-1,-2.2583096E-1,-2.7462804E-1,7.622357E-1,-2.2086567E-1,9.425332E-1,-4.6950552E-1,8.179075E-1,9.819126E-1,-1.8999031E-1,-2.8903928E-1,2.0796455E-1,-2.7880132E-1,8.6140895E-1,1.0220405E0,-1.8317166E-1,-2.3788397E-1,8.9451385E-1,3.2013488E-1,1.21914476E-1,2.7666646E-1,-2.2287644E-1],"categories":[],"categories_nodes":[],"categories_segments":[],"categories_sizes":[],"default_left":[0,0,0,0,0,0,0,0,0,0,0,0,0,0,0,0,0,0,0,0,0,0,0,0,0,0,0,0,0,0,0,0,0,0,0,0,0,0,0,0,0,0,0,0,0,0,0,0,0,0,0,0,0,0,0,0,0,0,0,0,0,0,0,0,0,0,0,0,0,0,0,0,0,0,0,0,0,0,0,0,0,0,0,0,0,0,0,0,0,0,0,0,0,0,0,0,0,0,0,0,0,0,0,0,0,0,0,0,0,0,0],"id":5,"left_children":[1,3,5,7,9,11,-1,-1,13,15,17,-1,19,-1,-1,21,23,25,27,-1,29,31,33,35,37,-1,-1,39,41,-1,43,-1,-1,45,-1,-1,47,49,-1,51,-1,53,55,57,-1,59,-1,61,-1,-1,-1,63,-1,-1,65,67,-1,69,71,73,-1,-1,75,-1,-1,-1,-1,77,-1,79,-1,-1,-1,-1,81,-1,83,85,87,-1,-1,89,-1,-1,-1,-1,-1,-1,91,93,-1,-1,95,-1,97,99,101,103,-1,-1,-1,-1,105,107,-1,-1,109,-1,-1,-1,-1],"loss_changes":[2.0822567E1,2.3333763E1,1.6089993E1,1.5457945E1,2.4164955E1,1.1365549E1,0E0,0E0,5.631425E0,2.5898308E1,2.2761808E1,0E0,8.701015E0,0E0,0E0,2.559497E1,2.5550152E1,7.967016E0,2.067957E1,0E0,7.382641E0,7.79755E0,1.9430744E1,1.6454868E1,1.407103E1,0E0,0E0,1.9049118E1,1.7434687E1,0E0,4.780113E0,0E0,0E0,1.4710188E1,0E0,0E0,1.2770139E1,1.1126962E1,0E0,9.593773E0,0E0,1.8281586E1,1.8619717E1,1.5829773E0,0E0,1.3220781E1,0E0,1.0312669E1,0E0,0E0,0E0,1.7588615E-2,0E0,0E0,9.130859E0,1.3828384E1,0E0,5.923233E-1,2.0263388E0,1.1524084E1,0E0,0E0,1.6108971E0,0E0,0E0,0E0,0E0,1.1390858E1,0E0,5.2246094E-2,0E0,0E0,0E0,0E0,1.0423508E1,0E0,1.8666084E0,6.811243E0,1.1809212E1,0E0,0E0,6.734379E0,0E0,0E0,0E0,0E0,0E0,0E0,1.0346199E1,5.9599266E0,0E0,0E0,1.0153496E1,0E0,4.530571E0,4.5711203E0,1.1188652E1,4.576042E0,0E0,0E0,0E0,0E0,8.041046E0,1.2507858E0,0E0,0E0,6.6609344E0,0E0,0E0,0E0,0E0],"parents":[2147483647,0,0,1,1,2,2,3,3,4,4,5,5,8,8,9,9,10,10,12,12,15,15,16,16,17,17,18,18,20,20,21,21,22,22,23,23,24,24,27,27,28,28,30,30,33,33,36,36,37,37,39,39,41,41,42,42,43,43,45,45,47,47,51,51,54,54,55,55,57,57,58,58,59,59,62,62,67,67,69,69,74,74,76,76,77,77,78,78,81,81,88,88,89,89,92,92,94,94,95,95,96,96,97,97,102,102,103,103,106,106],"right_children":[2,4,6,8,10,12,-1,-1,14,16,18,-1,20,-1,-1,22,24,26,28,-1,30,32,34,36,38,-1,-1,40,42,-1,44,-1,-1,46,-1,-1,48,50,-1,52,-1,54,56,58,-1,60,-1,62,-1,-1,-1,64,-1,-1,66,68,-1,70,72,74,-1,-1,76,-1,-1,-1,-1,78,-1,80,-1,-1,-1,-1,82,-1,84,86,88,-1,-1,90,-1,-1,-1,-1,-1,-1,92,94,-1,-1,96,-1,98,100,102,104,-1,-1,-1,-1,106,108,-1,-1,110,-1,-1,-1,-1],"split_conditions":[5.5247447E-3,-7.363477E-3,5.2286675E-3,-2.139493E-3,7.1456126E-4,1.3839336E-2,-2.9601747E-1,-3.4089586E-1,3.333528E-3,-5.359846E-4,-2.2995714E-3,-2.6994365E-1,-5.0099697E-3,2.8484404E-1,-2.2729002E-1,-8.984392E-4,2.2603082E-5,-5.156263E-3,-2.745139E-4,-2.4843775E-1,-3.325951E-3,6.8946993E-3,-4.7747392E-4,-5.052841E-4,-5.6666788E-5,2.2831185E-1,-3.3159554E-1,-5.6537555E-4,-1.006217E-3,-2.3135057E-1,1.1878308E-4,-3.329206E-1,2.238422E-1,5.078058E-3,-3.2699E-1,-3.260821E-1,-8.535178E-5,2.5654395E-4,-3.5645133E-1,-6.6308896E-3,-3.426525E-1,5.9080184E-3,-2.1090035E-4,-1.2703569E-3,-1.9176085E-1,3.1983736E-3,-2.9619318E-1,-3.984703E-4,-2.9138675E-1,2.907779E-1,-2.8419352E-1,-2.6872655E-4,-2.719384E-1,-3.3018044E-1,6.197697E-4,5.600693E-3,-3.2734984E-1,3.6451006E-3,5.6228056E-3,-2.1025226E-3,-2.8508753E-1,-2.5942382E-1,5.195887E-4,3.0136442E-1,1.2112897E-1,-2.5961906E-1,3.015621E-1,-2.5566394E-4,-2.9758772E-1,-6.845205E-3,1.0910581E-1,-1.7834094E-1,2.179028E-1,-2.729164E-1,1.0444671E-3,3.2332993E-1,-1.9049895E-3,-1.2411011E-4,-4.745738E-3,1.3564242E-1,3.341052E-1,8.563556E-4,-2.690589E-1,-1.7844734E-1,2.079857E-1,2.2973178E-1,-3.3896092E-1,-3.0375385E-1,2.0857076E-3,-4.412631E-3,-2.2583096E-1,-2.7462804E-1,-1.3630428E-2,-2.2086567E-1,7.401168E-3,1.8000123E-3,-7.4563664E-3,1.3323505E-4,-1.8999031E-1,-2.8903928E-1,2.0796455E-1,-2.7880132E-1,-1.1083282E-2,-2.1666246E-3,-1.8317166E-1,-2.3788397E-1,5.171275E-3,3.2013488E-1,1.21914476E-1,2.7666646E-1,-2.2287644E-1],"split_indices":[647,5021,3070,618,4543,5860,0,0,941,1507,2741,0,5458,0,0,3978,3225,34,3405,0,5624,106,1668,288,2284,0,0,1820,3392,0,1723,0,0,5824,0,0,2137,1600,0,2256,0,4044,703,2902,0,3568,0,2614,0,0,0,81,0,0,1002,4345,0,3933,1,5179,0,0,5532,0,0,0,0,945,0,982,0,0,0,0,340,0,8,47,1421,0,0,3376,0,0,0,0,0,0,1689,2640,0,0,5636,0,1651,17,5028,3740,0,0,0,0,1756,2355,0,0,4588,0,0,0,0],"split_type":[0,0,0,0,0,0,0,0,0,0,0,0,0,0,0,0,0,0,0,0,0,0,0,0,0,0,0,0,0,0,0,0,0,0,0,0,0,0,0,0,0,0,0,0,0,0,0,0,0,0,0,0,0,0,0,0,0,0,0,0,0,0,0,0,0,0,0,0,0,0,0,0,0,0,0,0,0,0,0,0,0,0,0,0,0,0,0,0,0,0,0,0,0,0,0,0,0,0,0,0,0,0,0,0,0,0,0,0,0,0,0],"sum_hessian":[5.563441E2,4.9541162E2,6.093251E1,3.9122276E1,4.5628934E2,5.524694E1,5.68557E0,3.2053062E1,7.0692163E0,2.1686676E2,2.3942258E2,3.4983184E0,5.174862E1,5.1145906E0,1.9546258E0,1.12055435E2,1.0481132E2,1.8195978E1,2.212266E2,2.4018147E0,4.9346806E1,2.1216068E1,9.083937E1,3.6222107E1,6.858921E1,1.9202924E0,1.6275686E1,3.0003464E1,1.9122313E2,1.8753244E0,4.747148E1,1.9366371E1,1.8496983E0,8.238903E1,8.450336E0,8.782764E0,2.7439344E1,1.0170614E1,5.8418594E1,1.2291133E1,1.7712332E1,2.579508E1,1.6542805E2,4.629646E1,1.1750205E0,7.649385E1,5.8951855E0,2.2878859E1,4.5604844E0,5.466902E0,4.703712E0,9.218726E0,3.0724063E0,1.4246741E1,1.1548339E1,1.5924315E2,6.1849093E0,4.347548E1,2.8209805E0,7.184076E1,4.6530876E0,2.7778819E0,2.0100977E1,7.195574E0,2.0231526E0,2.6905513E0,8.857787E0,1.5458809E2,4.6550574E0,4.1031006E1,2.4444733E0,1.063525E0,1.7574556E0,3.6273108E0,6.821345E1,1.7473246E1,2.6277323E0,6.9570513E0,1.4763103E2,1.9943254E0,3.9036682E1,6.533876E1,2.8746855E0,1.0195262E0,1.608206E0,1.9429029E0,5.014148E0,3.1958442E0,1.444352E2,6.347511E1,1.8636535E0,2.9672449E0,1.4146794E2,1.4875576E0,6.1987553E1,5.7960773E0,1.3567188E2,6.084398E1,1.1435727E0,4.1881824E0,1.607895E0,2.801115E0,1.3287076E2,5.9697906E1,1.1460719E0,2.1563945E0,1.3071436E2,5.4942005E1,4.7559013E0,1.2896883E2,1.7455387E0],"tree_param":{"num_deleted":"0","num_feature":"6144","num_nodes":"111","size_leaf_vector":"1"}},{"base_weights":[-5.7705652E-2,-1.3092129E-1,4.188441E-1,-8.617273E-2,-3.2008672E-1,-2.880314E-1,5.798809E-1,3.7694827E-2,-4.2834067E-1,7.118967E-1,-2.7029684E-1,-9.3216723E-1,1.03039294E-1,3.5772804E-2,-8.049904E-1,8.0952376E-1,-2.5196868E-1,1.8578357E-1,-3.2855108E-1,3.700263E-1,-1.1534648E-1,2.8533015E-1,-3.1620246E-1,1.19842544E-1,-1.0175754E0,-2.2148791E-1,8.821479E-1,4.5216092E-1,-2.9373622E-1,1.00601576E-1,-6.933665E-1,6.4756274E-1,-5.457099E-1,8.066639E-1,-2.7982566E-1,-3.4406984E-1,2.7362892E-1,9.454683E-1,-2.0010306E-1,5.530697E-1,-4.7445583E-1,4.1520318E-1,-4.84025E-1,-1.0093576E0,6.6645366E-1,8.299948E-1,-2.3839962E-1,1.8400596E-1,-3.115731E-1,1.0109528E-1,2.719489E-1,-1.9343625E-1,2.3663339E-1,1.0020262E0,-1.8593256E-1,-2.50201E-1,6.037151E-1,-3.0361655E-1,2.471959E-1,-2.8477308E-1,5.247011E-1,-3.323678E-1,3.064002E-1,1.766752E-1,-3.3107102E-1,-1.6783968E-1,2.791191E-1,9.3650573E-1,-2.047128E-1,1.0402255E0,3.852613E-2,7.555471E-1,1.1808775E-1,-2.664101E-1,6.1575323E-1,-2.6931512E-1,7.214134E-1,1.01618E0,4.1726943E-2,1.13683455E-1,3.2015824E-1,8.3333087E-1,-2.5258368E-1,6.631741E-1,-3.2273322E-1,6.941658E-1,-2.5180146E-1,-1.9591826E-1,2.8392294E-1,1.1052625E-1,3.1464428E-1,-2.1050337E-1,8.778528E-1,-2.2861369E-1,9.074827E-1,-2.3752491E-1,7.726402E-1,9.1315013E-1,-1.930187E-1,5.4534703E-2,3.0518594E-1,-2.0922358E-1,8.2979304E-1,9.455984E-1,-1.7509405E-1,8.8404655E-1,-1.9793886E-1,2.0169032E-1,9.9140674E-1,9.2500764E-1,-1.7310679E-1,-2.224903E-1,2.3897094E-1,3.0532986E-1,5.256899E-2,1.7165165E-2,2.9041725E-1],"categories":[],"categories_nodes":[],"categories_segments":[],"categories_sizes":[],"default_left":[0,0,0,0,0,0,0,0,0,0,0,0,0,0,0,0,0,0,0,0,0,0,0,0,0,0,0,0,0,0,0,0,0,0,0,0,0,0,0,0,0,0,0,0,0,0,0,0,0,0,0,0,0,0,0,0,0,0,0,0,0,0,0,0,0,0,0,0,0,0,0,0,0,0,0,0,0,0,0,0,0,0,0,0,0,0,0,0,0,0,0,0,0,0,0,0,0,0,0,0,0,0,0,0,0,0,0,0,0,0,0,0,0,0,0,0,0],"id":6,"left_children":[1,3,5,7,-1,-1,9,11,13,15,-1,17,19,21,23,25,-1,-1,-1,27,29,31,-1,33,35,-1,37,39,-1,41,43,45,47,49,-1,-1,51,53,-1,55,57,59,61,63,65,67,-1,-1,-1,-1,-1,-1,-1,69,-1,-1,71,-1,-1,-1,73,-1,75,-1,-1,-1,-1,77,-1,79,-1,81,83,-1,85,-1,87,89,-1,-1,-1,91,-1,93,-1,95,-1,-1,-1,-1,-1,-1,97,-1,99,-1,101,103,-1,-1,-1,-1,105,107,-1,109,-1,111,113,115,-1,-1,-1,-1,-1,-1,-1],"loss_changes":[1.5740051E1,1.6262218E1,1.3904313E1,1.5855569E1,0E0,0E0,1.1285416E1,1.7543575E1,1.7406662E1,8.337742E0,0E0,5.098089E0,1.5133962E1,1.2672913E1,1.0919308E1,6.054224E0,0E0,0E0,0E0,1.3373699E1,1.7936186E1,1.1733095E1,0E0,8.819792E0,7.7879868E0,0E0,5.1788826E0,1.0611486E1,0E0,1.95273E1,1.745529E1,7.7067976E0,7.5025377E0,3.630352E-2,0E0,0E0,2.8185055E0,4.6011467E0,0E0,7.547579E0,8.796993E0,1.07850895E1,1.8695328E1,5.4819984E0,3.098423E0,4.5479145E0,0E0,0E0,0E0,0E0,0E0,0E0,0E0,1.3271904E0,0E0,0E0,7.0866165E0,0E0,0E0,0E0,8.828506E0,0E0,9.244595E0,0E0,0E0,0E0,0E0,1.3257103E0,0E0,3.410263E-1,0E0,9.89127E0,1.6569477E1,0E0,7.5511265E0,0E0,4.7460504E0,5.4023743E-2,0E0,0E0,0E0,5.469883E0,0E0,6.731505E0,0E0,7.4331264E0,0E0,0E0,0E0,0E0,0E0,0E0,4.3175964E0,0E0,1.0314293E0,0E0,5.28965E0,3.8693542E0,0E0,0E0,0E0,0E0,4.982006E0,2.0912857E0,0E0,3.7022743E0,0E0,3.4838738E0,1.1787834E0,1.8829155E0,0E0,0E0,0E0,0E0,0E0,0E0,0E0],"parents":[2147483647,0,0,1,1,2,2,3,3,6,6,7,7,8,8,9,9,11,11,12,12,13,13,14,14,15,15,19,19,20,20,21,21,23,23,24,24,26,26,27,27,29,29,30,30,31,31,32,32,33,33,36,36,37,37,39,39,40,40,41,41,42,42,43,43,44,44,45,45,53,53,56,56,60,60,62,62,67,67,69,69,71,71,72,72,74,74,76,76,77,77,81,81,83,83,85,85,92,92,94,94,96,96,97,97,102,102,103,103,105,105,107,107,108,108,109,109],"right_children":[2,4,6,8,-1,-1,10,12,14,16,-1,18,20,22,24,26,-1,-1,-1,28,30,32,-1,34,36,-1,38,40,-1,42,44,46,48,50,-1,-1,52,54,-1,56,58,60,62,64,66,68,-1,-1,-1,-1,-1,-1,-1,70,-1,-1,72,-1,-1,-1,74,-1,76,-1,-1,-1,-1,78,-1,80,-1,82,84,-1,86,-1,88,90,-1,-1,-1,92,-1,94,-1,96,-1,-1,-1,-1,-1,-1,98,-1,100,-1,102,104,-1,-1,-1,-1,106,108,-1,110,-1,112,114,116,-1,-1,-1,-1,-1,-1,-1],"split_conditions":[1.8052148E-3,3.0951928E-2,2.4103767E-3,1.0186323E-2,-3.2008672E-1,-2.880314E-1,2.4158712E-3,-1.5658755E-3,2.5829726E-3,-2.6425913E-3,-2.7029684E-1,-1.1021508E-3,1.990781E-3,8.497511E-4,-3.4756425E-3,-4.454211E-3,-2.5196868E-1,1.8578357E-1,-3.2855108E-1,2.8633284E-3,-1.6695887E-3,2.7845276E-4,-3.1620246E-1,-1.3471501E-4,9.663983E-3,-2.2148791E-1,1.198488E-2,7.9126994E-4,-2.9373622E-1,-4.6155602E-4,5.1354757E-3,1.5755801E-4,-3.4715107E-3,-1.9202611E-4,-2.7982566E-1,-3.4406984E-1,1.17119176E-4,8.526203E-3,-2.0010306E-1,-6.810544E-3,9.187119E-3,-3.8010436E-3,4.5159296E-3,-8.624771E-3,-2.626232E-4,1.9233611E-3,-2.3839962E-1,1.8400596E-1,-3.115731E-1,1.0109528E-1,2.719489E-1,-1.9343625E-1,2.3663339E-1,2.469638E-3,-1.8593256E-1,-2.50201E-1,-4.185431E-3,-3.0361655E-1,2.471959E-1,-2.8477308E-1,-5.1039113E-3,-3.323678E-1,2.025415E-3,1.766752E-1,-3.3107102E-1,-1.6783968E-1,2.791191E-1,-6.008567E-3,-2.047128E-1,-1.0511905E-3,3.852613E-2,3.4084884E-4,-1.8332736E-5,-2.664101E-1,-1.6133201E-3,-2.6931512E-1,1.0485519E-3,-2.8334667E-3,4.1726943E-2,1.13683455E-1,3.2015824E-1,-7.865579E-3,-2.5258368E-1,-1.2705125E-3,-3.2273322E-1,-7.346063E-4,-2.5180146E-1,-1.9591826E-1,2.8392294E-1,1.1052625E-1,3.1464428E-1,-2.1050337E-1,3.7117046E-4,-2.2861369E-1,-4.7107387E-4,-2.3752491E-1,-1.3932103E-2,-1.6295526E-3,-1.930187E-1,5.4534703E-2,3.0518594E-1,-2.0922358E-1,1.8726981E-3,-1.4247001E-3,-1.7509405E-1,-3.1067795E-4,-1.9793886E-1,2.4587457E-4,-1.410075E-2,1.3642729E-3,-1.7310679E-1,-2.224903E-1,2.3897094E-1,3.0532986E-1,5.256899E-2,1.7165165E-2,2.9041725E-1],"split_indices":[5381,5773,4640,4984,0,0,788,3684,5924,2289,0,292,5504,2200,2980,760,0,0,0,844,2564,3413,0,4885,4440,0,5925,638,0,2004,1736,1942,1181,2,0,0,1093,1929,0,817,2228,1196,5989,3772,2564,1175,0,0,0,0,0,0,0,4070,0,0,1231,0,0,0,3580,0,2261,0,0,0,0,3771,0,312,0,3900,1041,0,4932,0,5260,1444,0,0,0,4052,0,4077,0,973,0,0,0,0,0,0,3958,0,2548,0,4361,4741,0,0,0,0,693,5764,0,4856,0,168,1716,4960,0,0,0,0,0,0,0],"split_type":[0,0,0,0,0,0,0,0,0,0,0,0,0,0,0,0,0,0,0,0,0,0,0,0,0,0,0,0,0,0,0,0,0,0,0,0,0,0,0,0,0,0,0,0,0,0,0,0,0,0,0,0,0,0,0,0,0,0,0,0,0,0,0,0,0,0,0,0,0,0,0,0,0,0,0,0,0,0,0,0,0,0,0,0,0,0,0,0,0,0,0,0,0,0,0,0,0,0,0,0,0,0,0,0,0,0,0,0,0,0,0,0,0,0,0,0,0],"sum_hessian":[4.485504E2,3.8944287E2,5.910753E1,3.7271664E2,1.6726227E1,5.662013E0,5.3445515E1,2.7430563E2,9.841102E1,4.9547733E1,3.8977835E0,1.647742E1,2.5782822E2,4.449215E1,5.3918873E1,4.7065083E1,2.4826488E0,1.300473E0,1.5176948E1,1.1569329E2,1.4213492E2,3.6802612E1,7.689537E0,1.015905E1,4.3759823E1,1.6985462E0,4.536654E1,1.09680885E2,6.012401E0,1.04077545E2,3.8057373E1,2.5784485E1,1.10181265E1,6.2890606E0,3.8699896E0,3.987754E1,3.8822818E0,4.3959427E1,1.4071109E0,9.927315E1,1.0407736E1,6.785366E1,3.622389E1,3.1090405E1,6.96697E0,2.3265999E1,2.5184853E0,3.2144127E0,7.803714E0,1.8694402E0,4.4196205E0,1.3046598E0,2.577622E0,4.2773685E1,1.1857394E0,2.9521604E0,9.632099E1,7.516296E0,2.8914404E0,4.4710574E0,6.3382603E1,2.002047E1,1.6203419E1,1.4383545E0,2.965205E1,1.0359095E0,5.9310603E0,2.2090979E1,1.1750202E0,4.079898E1,1.9747065E0,7.295554E1,2.3365448E1,3.3077416E0,6.0074863E1,3.8551111E0,1.2348307E1,1.983483E1,2.2561507E0,2.188456E0,3.8610523E1,7.002432E1,2.9312162E0,1.6346567E1,7.0188823E0,5.7499256E1,2.5756042E0,1.4693986E0,1.0878908E1,1.5407941E0,1.8294035E1,1.5577165E0,6.8466606E1,2.0819473E0,1.4264619E1,2.428388E0,5.507087E1,6.730468E1,1.1619271E0,2.2236803E0,1.2040939E1,1.6416898E0,5.342918E1,6.6237015E1,1.0676653E0,5.194381E1,1.4853691E0,4.155548E0,6.2081467E1,5.088417E1,1.0596414E0,1.5116949E0,2.6438532E0,5.989994E1,2.1815264E0,2.515068E0,4.8369102E1],"tree_param":{"num_deleted":"0","num_feature":"6144","num_nodes":"117","size_leaf_vector":"1"}},{"base_weights":[-6.625194E-2,-1.4196762E-1,3.4740978E-1,-7.6775714E-3,-5.453396E-1,5.9327114E-1,-3.809299E-1,3.7833267E-1,-1.633495E-1,-1.9634084E-4,-8.931531E-1,7.365673E-1,-4.6759593E-1,-2.9459333E-1,6.018067E-1,-6.988571E-1,5.1931E-1,-3.569204E-2,-8.259872E-1,3.6743864E-1,-2.9195443E-1,3.0757752E-1,-1.0356053E0,8.1421834E-1,-2.0406784E-1,-2.572905E-1,1.723287E-1,1.7646229E-2,2.4843211E-1,1.7275578E-1,-2.970414E-1,6.42294E-1,-2.6783034E-1,1.9318312E-1,-3.9872274E-1,-3.2533395E-1,2.972235E-1,-2.606525E-1,6.1995363E-1,2.458437E-1,-2.0163217E-1,-3.2648197E-1,1.3714716E-1,-1.801278E-1,8.804858E-1,7.311848E-1,-2.4056096E-1,-6.625599E-1,3.4834307E-1,-9.076745E-1,2.86649E-1,-1.972975E-1,2.3868617E-1,-2.141168E-1,7.9846793E-1,-1.178642E-1,9.5590246E-1,-2.0578073E-1,7.905293E-1,2.2285376E-1,-3.008855E-1,4.4561732E-1,-2.7459902E-1,2.0168789E-1,-3.2726303E-1,-6.535563E-1,6.2843376E-1,-1.67652E-1,9.135313E-1,-1.8868636E-1,1.6091639E-1,3.3225287E-2,9.92885E-1,8.404679E-1,-1.9327912E-1,-2.59843E-1,5.308675E-1,-2.883237E-1,1.6349846E-1,-2.0961855E-1,8.039254E-1,6.1257247E-2,2.9439518E-1,7.84964E-2,3.0561596E-1,-1.7063329E-1,8.8153595E-1,-2.4879506E-1,5.9617776E-1,9.4901466E-1,-8.527622E-2,9.287042E-1,-6.9988176E-2,-7.094606E-2,7.497431E-1,2.975738E-1,8.706485E-2,1.6054058E-1,-1.8273425E-1,9.831042E-1,1.6925031E-1,1.6214937E-1,-1.794029E-1,-2.930026E-1,6.0058635E-1,-2.067443E-1,8.127164E-1,1.0113946E0,5.252553E-2,2.1708617E-1,-2.0110616E-1,2.7632338E-1,-1.9784182E-1,8.6123645E-1,-1.813003E-1,8.096608E-2,3.102022E-1,-1.732347E-1,9.0529794E-1,9.400621E-1,1.0675481E-2,2.9260728E-1,3.566005E-2],"categories":[],"categories_nodes":[],"categories_segments":[],"categories_sizes":[],"default_left":[0,0,0,0,0,0,0,0,0,0,0,0,0,0,0,0,0,0,0,0,0,0,0,0,0,0,0,0,0,0,0,0,0,0,0,0,0,0,0,0,0,0,0,0,0,0,0,0,0,0,0,0,0,0,0,0,0,0,0,0,0,0,0,0,0,0,0,0,0,0,0,0,0,0,0,0,0,0,0,0,0,0,0,0,0,0,0,0,0,0,0,0,0,0,0,0,0,0,0,0,0,0,0,0,0,0,0,0,0,0,0,0,0,0,0,0,0,0,0,0,0,0,0],"id":7,"left_children":[1,3,5,7,9,11,13,15,17,19,21,23,25,-1,27,29,31,33,35,37,-1,39,41,43,-1,-1,-1,-1,-1,-1,-1,45,-1,47,49,-1,51,-1,53,-1,-1,-1,-1,-1,55,57,-1,59,61,63,65,-1,-1,-1,67,69,71,-1,73,-1,-1,75,-1,-1,-1,77,79,-1,81,-1,-1,-1,83,85,-1,-1,87,-1,-1,-1,89,-1,-1,-1,-1,-1,91,-1,93,95,97,99,101,103,105,-1,-1,-1,-1,107,109,-1,-1,-1,111,-1,113,115,-1,-1,-1,-1,-1,117,-1,-1,-1,-1,119,121,-1,-1,-1],"loss_changes":[1.1316174E1,1.650536E1,1.0244326E1,1.3862887E1,1.44307995E1,6.7623167E0,9.290535E0,1.04320345E1,1.3874214E1,1.1319561E1,8.266048E0,4.6884956E0,2.7831504E0,0E0,7.142899E-1,3.5776103E0,1.0855261E1,1.1614692E1,8.01679E0,7.7086296E0,0E0,3.4087296E0,3.781124E0,3.9114227E0,0E0,0E0,0E0,0E0,0E0,0E0,0E0,7.652466E0,0E0,1.1628338E1,1.910347E1,0E0,3.2563784E0,0E0,5.2494946E0,0E0,0E0,0E0,0E0,0E0,2.7385216E0,4.9469395E0,0E0,7.2127647E0,9.420577E0,9.7758465E0,8.052419E0,0E0,0E0,0E0,3.291585E0,1.4541104E0,9.069691E-1,0E0,4.176708E0,0E0,0E0,8.14818E0,0E0,0E0,0E0,3.0412354E0,4.7423987E0,0E0,6.071911E-1,0E0,0E0,0E0,3.1994438E-1,3.3640327E0,0E0,0E0,6.284298E0,0E0,0E0,0E0,2.1862621E0,0E0,0E0,0E0,0E0,0E0,2.2396927E0,0E0,6.4840107E0,1.1095142E-1,1.3681272E0,1.7437935E0,1.3606716E0,8.286306E0,5.191496E0,0E0,0E0,0E0,0E0,8.044243E-1,2.485805E0,0E0,0E0,0E0,3.7931952E0,0E0,3.9189491E0,4.1301346E-1,0E0,0E0,0E0,0E0,0E0,3.5784645E0,0E0,0E0,0E0,0E0,1.3924675E0,1.1973305E0,0E0,0E0,0E0],"parents":[2147483647,0,0,1,1,2,2,3,3,4,4,5,5,6,6,7,7,8,8,9,9,10,10,11,11,12,12,14,14,15,15,16,16,17,17,18,18,19,19,21,21,22,22,23,23,31,31,33,33,34,34,36,36,38,38,44,44,45,45,47,47,48,48,49,49,50,50,54,54,55,55,56,56,58,58,61,61,65,65,66,66,68,68,72,72,73,73,76,76,80,80,86,86,88,88,89,89,90,90,91,91,92,92,93,93,94,94,99,99,100,100,104,104,106,106,107,107,113,113,118,118,119,119],"right_children":[2,4,6,8,10,12,14,16,18,20,22,24,26,-1,28,30,32,34,36,38,-1,40,42,44,-1,-1,-1,-1,-1,-1,-1,46,-1,48,50,-1,52,-1,54,-1,-1,-1,-1,-1,56,58,-1,60,62,64,66,-1,-1,-1,68,70,72,-1,74,-1,-1,76,-1,-1,-1,78,80,-1,82,-1,-1,-1,84,86,-1,-1,88,-1,-1,-1,90,-1,-1,-1,-1,-1,92,-1,94,96,98,100,102,104,106,-1,-1,-1,-1,108,110,-1,-1,-1,112,-1,114,116,-1,-1,-1,-1,-1,118,-1,-1,-1,-1,120,122,-1,-1,-1],"split_conditions":[5.7638832E-3,-3.4047055E-4,2.630584E-3,-1.5968995E-4,-7.2568296E-3,2.5233221E-3,6.8727927E-3,-4.1453363E-3,3.294611E-4,3.1633538E-3,-2.1933457E-3,3.7724383E-3,4.9865134E-3,-2.9459333E-1,3.0008683E-3,3.5318162E-4,1.390633E-3,4.874484E-4,7.2212596E-3,-6.8697045E-3,-2.9195443E-1,-1.5881029E-4,2.3114322E-4,-3.0243723E-3,-2.0406784E-1,-2.572905E-1,1.723287E-1,1.7646229E-2,2.4843211E-1,1.7275578E-1,-2.970414E-1,2.543055E-4,-2.6783034E-1,3.3721908E-3,4.3554255E-4,-3.2533395E-1,2.5435444E-4,-2.606525E-1,-4.0998615E-4,2.458437E-1,-2.0163217E-1,-3.2648197E-1,1.3714716E-1,-1.801278E-1,8.5383706E-4,-6.200087E-4,-2.4056096E-1,-3.922917E-3,1.9648534E-4,4.2369314E-3,1.8863872E-4,-1.972975E-1,2.3868617E-1,-2.141168E-1,-5.2900403E-3,2.5853505E-3,-4.4978224E-5,-2.0578073E-1,2.4220071E-4,2.2285376E-1,-3.008855E-1,1.9066321E-3,-2.7459902E-1,2.0168789E-1,-3.2726303E-1,2.8496522E-3,1.7714836E-3,-1.67652E-1,-1.4895012E-3,-1.8868636E-1,1.6091639E-1,3.3225287E-2,6.440114E-3,-3.5618333E-4,-1.9327912E-1,-2.59843E-1,-2.9523638E-3,-2.883237E-1,1.6349846E-1,-2.0961855E-1,-1.8623797E-3,6.1257247E-2,2.9439518E-1,7.84964E-2,3.0561596E-1,-1.7063329E-1,-1.9958556E-4,-2.4879506E-1,4.248238E-3,1.5594093E-3,-2.6274237E-4,3.886042E-4,-3.4362733E-4,2.0582185E-4,-5.3667896E-5,2.975738E-1,8.706485E-2,1.6054058E-1,-1.8273425E-1,4.1738506E-3,-1.1689627E-3,1.6214937E-1,-1.794029E-1,-2.930026E-1,9.4602234E-4,-2.067443E-1,9.3277544E-4,-4.2062884E-4,5.252553E-2,2.1708617E-1,-2.0110616E-1,2.7632338E-1,-1.9784182E-1,8.298881E-4,-1.813003E-1,8.096608E-2,3.102022E-1,-1.732347E-1,3.2899564E-4,-9.687401E-6,1.0675481E-2,2.9260728E-1,3.566005E-2],"split_indices":[1847,1823,3332,1645,5517,1908,5876,3280,3713,648,133,2769,33,0,329,1294,3940,3357,544,1121,0,911,660,17,0,0,0,0,0,0,0,1197,0,1152,4523,0,5369,0,2706,0,0,0,0,0,3315,2750,0,4224,5070,1187,3156,0,0,0,5197,33,4441,0,3071,0,0,4828,0,0,0,32,1009,0,2848,0,0,0,2520,3623,0,0,2584,0,0,0,4168,0,0,0,0,0,3511,0,4831,3685,0,5497,0,5910,3040,0,0,0,0,216,296,0,0,0,2133,0,4351,1046,0,0,0,0,0,4827,0,0,0,0,17,1879,0,0,0],"split_type":[0,0,0,0,0,0,0,0,0,0,0,0,0,0,0,0,0,0,0,0,0,0,0,0,0,0,0,0,0,0,0,0,0,0,0,0,0,0,0,0,0,0,0,0,0,0,0,0,0,0,0,0,0,0,0,0,0,0,0,0,0,0,0,0,0,0,0,0,0,0,0,0,0,0,0,0,0,0,0,0,0,0,0,0,0,0,0,0,0,0,0,0,0,0,0,0,0,0,0,0,0,0,0,0,0,0,0,0,0,0,0,0,0,0,0,0,0,0,0,0,0,0,0],"sum_hessian":[3.587257E2,3.0377942E2,5.4946274E1,2.2866997E2,7.510947E1,4.1218002E1,1.3728274E1,6.530551E1,1.6336446E2,2.964544E1,4.5464024E1,3.658235E1,4.635651E0,8.518859E0,5.209415E0,7.0997787E0,5.8205734E1,1.378596E2,2.5504848E1,2.1967533E1,7.6779056E0,4.6987844E0,4.076524E1,3.5084747E1,1.4976016E0,3.5018365E0,1.1338147E0,1.9030803E0,3.306335E0,1.1388688E0,5.96091E0,5.4043953E1,4.1617794E0,8.48397E1,5.3019905E1,2.0761892E1,4.7429557E0,3.3119426E0,1.865559E1,3.1936023E0,1.5051819E0,3.9637703E1,1.1275368E0,1.2092663E0,3.387548E1,5.1375404E1,2.6685498E0,1.2519819E1,7.231988E1,3.0239748E1,2.2780157E1,1.5169932E0,3.2259626E0,1.8483663E0,1.6807224E1,2.3397348E0,3.1535748E1,1.6405792E0,4.9734825E1,2.210559E0,1.0309259E1,6.775188E1,4.568E0,2.86467E0,2.7375078E1,5.8301067E0,1.695005E1,1.0120534E0,1.5795171E1,1.3352935E0,1.0044414E0,1.4895751E0,3.0046171E1,4.84623E1,1.2725263E0,3.5754678E0,6.4176414E1,4.7973433E0,1.0327636E0,1.6313506E0,1.5318699E1,1.727733E0,1.4067438E1,1.405066E0,2.8641106E1,1.008433E0,4.7453865E1,2.4043381E0,6.1772076E1,1.3111978E1,2.206721E0,4.523547E1,2.2183952E0,1.165931E1,5.0112762E1,1.1835654E1,1.2763234E0,1.0003649E0,1.2063563E0,4.193701E1,3.2984571E0,1.0178974E0,1.2004979E0,4.770586E0,6.888725E0,1.6843008E0,4.8428463E1,4.02752E1,1.6618115E0,2.069896E0,1.2285613E0,5.7063537E0,1.182371E0,4.7204407E1,1.2240539E0,1.5746641E0,3.870054E1,1.0430017E0,4.6161407E1,4.4309383E1,1.8520226E0,4.230343E1,2.0059557E0],"tree_param":{"num_deleted":"0","num_feature":"6144","num_nodes":"123","size_leaf_vector":"1"}},{"base_weights":[-7.135861E-2,-1.3181062E-1,4.1320252E-1,-6.413759E-2,-6.815526E-1,5.614612E-1,-2.395501E-1,3.0943626E-1,-1.6813833E-1,-9.1407704E-1,5.3466904E-1,-2.115175E-1,6.7385036E-1,6.414816E-1,-1.2085349E-1,-6.585465E-2,-7.687778E-1,1.553712E-1,-3.1477574E-1,3.5989245E-3,2.28229E-1,-1.9239564E-1,7.705202E-1,7.423998E-1,-1.9835113E-1,-2.8897378E-1,4.0241352E-1,-3.7413695E-1,1.4317097E-1,-9.7163796E-1,4.182464E-1,-1.6658382E-1,8.493933E-1,-1.8205841E-1,8.2808554E-1,-2.4400821E-1,7.339189E-1,-7.6806563E-1,2.446709E-2,-6.122568E-1,2.7318975E-1,8.993207E-2,-3.1339175E-1,2.0461395E-1,-2.5150361E-3,9.1732186E-1,-6.695246E-3,-7.2721792E-3,9.0077436E-1,-3.172504E-2,8.855541E-1,-3.1463808E-1,-8.8148214E-2,-2.8192818E-1,2.979194E-1,-2.9583585E-1,4.238933E-1,-2.69997E-1,3.4966385E-1,9.6414113E-1,3.983891E-2,9.546337E-1,2.8277082E-2,6.805739E-2,2.8416395E-1,-2.5203776E-1,4.2814326E-1,7.056721E-1,-4.256695E-1,-1.2940438E-2,2.0749427E-1,-2.562889E-1,4.202373E-1,5.582241E-2,2.9989883E-1,6.1615318E-2,2.9661903E-1,2.3664443E-1,-1.8287082E-1,8.222471E-1,-1.6290441E-1,1.7808816E-1,-2.8220707E-1,-1.7134152E-1,5.744097E-1,1.2939018E-2,9.211909E-1,-2.9870856E-1,5.659322E-1,6.4469296E-1,-2.3178396E-1,2.925108E-1,5.1446002E-2,2.5719824E-1,-1.8811211E-1,-2.1660341E-1,7.0624757E-1,8.04989E-1,7.7888495E-3,8.459016E-1,-3.590368E-2,2.1393688E-1,-2.517594E-1,8.896459E-1,-2.3466114E-2,2.777506E-1,-7.969031E-3],"categories":[],"categories_nodes":[],"categories_segments":[],"categories_sizes":[],"default_left":[0,0,0,0,0,0,0,0,0,0,0,0,0,0,0,0,0,0,0,0,0,0,0,0,0,0,0,0,0,0,0,0,0,0,0,0,0,0,0,0,0,0,0,0,0,0,0,0,0,0,0,0,0,0,0,0,0,0,0,0,0,0,0,0,0,0,0,0,0,0,0,0,0,0,0,0,0,0,0,0,0,0,0,0,0,0,0,0,0,0,0,0,0,0,0,0,0,0,0,0,0,0,0,0,0,0,0],"id":8,"left_children":[1,3,5,7,9,11,-1,13,15,17,19,-1,21,23,25,27,29,-1,-1,-1,-1,-1,31,33,-1,-1,35,37,39,41,43,-1,45,-1,47,-1,49,51,53,55,57,-1,-1,-1,-1,59,-1,-1,61,-1,63,-1,65,-1,67,-1,69,-1,71,73,-1,75,-1,-1,-1,-1,77,79,81,-1,-1,-1,83,-1,-1,-1,-1,-1,-1,85,-1,-1,-1,87,89,-1,91,-1,93,95,-1,-1,-1,-1,-1,-1,97,99,101,103,-1,-1,-1,105,-1,-1,-1],"loss_changes":[8.460931E0,9.476766E0,6.2101684E0,8.9476795E0,8.391741E0,4.626398E0,0E0,7.2517385E0,1.0992412E1,5.1560097E0,5.9547234E-1,0E0,3.964779E0,4.2375746E0,1.0399162E1,1.0021476E1,6.682122E0,0E0,0E0,0E0,0E0,0E0,3.178275E0,3.615097E0,0E0,0E0,6.5277076E0,9.876692E0,9.292589E0,2.4069672E0,5.1250327E-1,0E0,1.4904823E0,0E0,1.6164017E0,0E0,1.6327524E0,5.9403076E0,8.763359E0,5.822322E0,7.488196E0,0E0,0E0,0E0,0E0,7.187767E-1,0E0,0E0,9.413109E-1,0E0,2.0530605E-1,0E0,4.3694444E0,0E0,7.919918E0,0E0,5.7985574E-1,0E0,6.7981415E0,4.108677E-1,0E0,3.626747E-1,0E0,0E0,0E0,0E0,3.0206847E0,2.9056053E0,5.772026E0,0E0,0E0,0E0,6.6886644E0,0E0,0E0,0E0,0E0,0E0,0E0,1.1820326E0,0E0,0E0,0E0,1.0110614E1,5.9464455E0,0E0,3.984995E-1,0E0,3.6417894E0,5.1571255E0,0E0,0E0,0E0,0E0,0E0,0E0,3.6741543E0,1.8696461E0,5.150462E0,1.8842201E0,0E0,0E0,0E0,1.4483948E0,0E0,0E0,0E0],"parents":[2147483647,0,0,1,1,2,2,3,3,4,4,5,5,7,7,8,8,9,9,10,10,12,12,13,13,14,14,15,15,16,16,22,22,23,23,26,26,27,27,28,28,29,29,30,30,32,32,34,34,36,36,37,37,38,38,39,39,40,40,45,45,48,48,50,50,52,52,54,54,56,56,58,58,59,59,61,61,66,66,67,67,68,68,72,72,79,79,83,83,84,84,86,86,88,88,89,89,96,96,97,97,98,98,99,99,103,103],"right_children":[2,4,6,8,10,12,-1,14,16,18,20,-1,22,24,26,28,30,-1,-1,-1,-1,-1,32,34,-1,-1,36,38,40,42,44,-1,46,-1,48,-1,50,52,54,56,58,-1,-1,-1,-1,60,-1,-1,62,-1,64,-1,66,-1,68,-1,70,-1,72,74,-1,76,-1,-1,-1,-1,78,80,82,-1,-1,-1,84,-1,-1,-1,-1,-1,-1,86,-1,-1,-1,88,90,-1,92,-1,94,96,-1,-1,-1,-1,-1,-1,98,100,102,104,-1,-1,-1,106,-1,-1,-1],"split_conditions":[5.5247447E-3,1.8220174E-3,5.2286675E-3,-1.8917312E-3,2.2616205E-3,1.0540735E-3,-2.395501E-1,-3.8423254E-3,6.610816E-3,-1.6019797E-3,5.94735E-3,-2.115175E-1,-3.325951E-3,-7.075593E-3,3.062854E-4,-8.9750356E-5,1.4140299E-2,1.553712E-1,-3.1477574E-1,3.5989245E-3,2.28229E-1,-1.9239564E-1,-2.189228E-3,3.0569278E-3,-1.9835113E-1,-2.8897378E-1,-2.2242976E-4,-1.9679751E-4,-6.881316E-4,-7.682349E-4,9.777005E-4,-1.6658382E-1,2.8636272E-3,-1.8205841E-1,-3.4266256E-3,-2.4400821E-1,-1.3892545E-3,3.334299E-4,9.312255E-4,4.831202E-3,2.3421631E-3,8.993207E-2,-3.1339175E-1,2.0461395E-1,-2.5150361E-3,-7.076334E-4,-6.695246E-3,-7.2721792E-3,4.3170113E-4,-3.172504E-2,-4.2900222E-4,-3.1463808E-1,-2.7823687E-4,-2.8192818E-1,-8.2602506E-5,-2.9583585E-1,2.8726694E-4,-2.69997E-1,-1.4087432E-3,8.462565E-4,3.983891E-2,-7.4395873E-3,2.8277082E-2,6.805739E-2,2.8416395E-1,-2.5203776E-1,2.106952E-4,-3.0507303E-3,-4.330843E-4,-1.2940438E-2,2.0749427E-1,-2.562889E-1,-6.2895805E-4,5.582241E-2,2.9989883E-1,6.1615318E-2,2.9661903E-1,2.3664443E-1,-1.8287082E-1,-4.883287E-4,-1.6290441E-1,1.7808816E-1,-2.8220707E-1,-8.40785E-6,-2.0534241E-4,1.2939018E-2,-1.0401183E-3,-2.9870856E-1,-5.782893E-4,-8.8368874E-4,-2.3178396E-1,2.925108E-1,5.1446002E-2,2.5719824E-1,-1.8811211E-1,-2.1660341E-1,-6.3754325E-3,9.7165414E-4,-4.8622163E-3,-7.2426326E-4,-3.590368E-2,2.1393688E-1,-2.517594E-1,3.8760896E-3,-2.3466114E-2,2.777506E-1,-7.969031E-3],"split_indices":[647,4797,3070,1464,4112,5844,0,41,1012,492,1456,0,5624,148,4726,1654,4904,0,0,0,0,0,6132,4636,0,0,3049,460,4668,1598,4,0,3600,0,4732,0,1308,2254,1649,3064,6042,0,0,0,0,4202,0,0,59,0,5666,0,241,0,3354,0,15,0,4010,5259,0,5484,0,0,0,0,6131,3381,4672,0,0,0,3603,0,0,0,0,0,0,5548,0,0,0,4499,703,0,1990,0,611,4128,0,0,0,0,0,0,4868,1336,4501,4866,0,0,0,3188,0,0,0],"split_type":[0,0,0,0,0,0,0,0,0,0,0,0,0,0,0,0,0,0,0,0,0,0,0,0,0,0,0,0,0,0,0,0,0,0,0,0,0,0,0,0,0,0,0,0,0,0,0,0,0,0,0,0,0,0,0,0,0,0,0,0,0,0,0,0,0,0,0,0,0,0,0,0,0,0,0,0,0,0,0,0,0,0,0,0,0,0,0,0,0,0,0,0,0,0,0,0,0,0,0,0,0,0,0,0,0,0,0],"sum_hessian":[2.8598166E2,2.5490825E2,3.1073406E1,2.2796278E2,2.6945467E1,2.8164015E1,2.9093914E0,4.9212967E1,1.7874982E2,2.2829262E1,4.116205E0,1.8657224E0,2.6298292E1,2.750056E1,2.1712404E1,1.5368776E2,2.5062048E1,1.7249238E0,2.1104338E1,1.5608877E0,2.5553174E0,1.4148947E0,2.4883398E1,2.5922403E1,1.578158E0,7.997166E0,1.3715238E1,6.1780552E1,9.190721E1,2.1559092E1,3.5029569E0,1.0580577E0,2.382534E1,1.184716E0,2.4737688E1,2.6270754E0,1.1088162E1,3.0606327E1,3.1174227E1,1.2951008E1,7.895621E1,1.0019736E0,2.0557117E1,1.7946054E0,1.7083515E0,2.2054415E1,1.7709249E0,1.996294E0,2.2741394E1,1.7423913E0,9.345771E0,2.12783E1,9.328028E0,6.349263E0,2.4824963E1,9.55255E0,3.3984573E0,4.1728277E0,7.478338E1,2.059631E1,1.4581053E0,2.1145636E1,1.5957574E0,1.2004755E0,8.145295E0,3.5419507E0,5.786077E0,1.5893505E1,8.9314575E0,1.5440911E0,1.8543663E0,3.5259945E0,7.1257385E1,1.1716107E0,1.94247E1,1.2261109E0,1.9919525E1,4.4717207E0,1.3143561E0,1.4848764E1,1.0447412E0,2.9467692E0,5.9846883E0,1.4708325E1,5.6549057E1,1.835029E0,1.3013735E1,6.7785954E0,7.9297295E0,5.4240368E1,2.3086905E0,1.1861276E1,1.1524594E0,6.5991697E0,1.33056E0,1.8752121E0,5.2365154E1,4.574556E1,6.6195927E0,4.388885E1,1.8567117E0,3.6980574E0,2.9215355E0,4.1940845E1,1.9480059E0,4.0337055E1,1.6037866E0],"tree_param":{"num_deleted":"0","num_feature":"6144","num_nodes":"107","size_leaf_vector":"1"}},{"base_weights":[-7.480868E-2,-1.24262355E-1,5.072822E-1,2.2657904E-1,-2.1779668E-1,7.6184225E-1,-2.3052967E-1,-2.652584E-1,3.7767065E-1,-5.388901E-1,-8.9142494E-2,8.63794E-1,-3.7828457E-2,-3.7413347E-1,5.577322E-1,-7.470853E-1,1.9989197E-1,1.8425582E-2,-6.3978153E-1,2.8241575E-1,2.0818193E-2,-2.7006117E-1,1.8709037E-1,-2.016506E-1,6.3700664E-1,3.8275817E-1,-8.847578E-1,5.4677594E-1,-2.2699583E-1,-1.7154112E-1,4.7282964E-1,-3.007285E-1,2.0838492E-1,7.1229994E-1,-1.843069E-1,2.1457578E-1,-4.4958603E-2,1.5659586E-1,-9.65494E-1,7.6676184E-1,-1.685408E-1,2.6275657E-2,-7.717754E-1,-2.1403234E-1,5.795706E-1,2.1542917E-1,-2.0917116E-1,7.9477763E-1,-8.7845124E-2,-3.1347153E-1,1.07343294E-1,1.664345E-2,2.5870442E-1,2.2664937E-1,-6.545341E-1,4.8609102E-1,-3.0166012E-1,-1.4421777E-1,7.528006E-1,8.530619E-1,-3.3394944E-2,1.7285128E-1,-1.9271673E-1,-3.3701414E-1,4.865835E-1,1.8035321E-1,-8.5027134E-1,1.8640314E-1,2.863743E-2,1.8536389E-1,-2.3926921E-1,-7.3230304E-2,8.496629E-1,-1.2505468E-2,9.0257156E-1,5.0180864E-1,-8.338313E-1,6.0396343E-1,-2.2138675E-1,5.9659652E-2,-2.8992462E-1,9.259957E-1,-3.051397E-2,9.378451E-1,3.5012357E-2,2.4095781E-1,-4.811601E-2,4.8119728E-2,-2.907046E-1,6.9151765E-1,-1.8781854E-1,2.89628E-1,4.5016162E-2,7.277388E-2,2.885934E-1,7.788307E-1,-2.1368614E-1,8.4312314E-1,-3.3277366E-2,8.979227E-2,-1.7594306E-1,9.149635E-1,7.664671E-2,2.8905797E-1,2.2623364E-2,3.8349327E-2,-2.5537782E-3],"categories":[],"categories_nodes":[],"categories_segments":[],"categories_sizes":[],"default_left":[0,0,0,0,0,0,0,0,0,0,0,0,0,0,0,0,0,0,0,0,0,0,0,0,0,0,0,0,0,0,0,0,0,0,0,0,0,0,0,0,0,0,0,0,0,0,0,0,0,0,0,0,0,0,0,0,0,0,0,0,0,0,0,0,0,0,0,0,0,0,0,0,0,0,0,0,0,0,0,0,0,0,0,0,0,0,0,0,0,0,0,0,0,0,0,0,0,0,0,0,0,0,0,0,0,0,0],"id":9,"left_children":[1,3,5,7,9,11,-1,-1,13,15,17,19,-1,21,23,25,27,29,31,-1,-1,-1,-1,-1,33,35,37,39,-1,41,43,-1,45,47,-1,-1,-1,-1,49,51,-1,53,55,-1,57,-1,-1,59,61,-1,-1,-1,-1,63,65,67,-1,69,71,73,-1,-1,-1,75,77,-1,79,-1,-1,-1,-1,-1,81,-1,83,85,87,89,-1,-1,-1,91,-1,93,-1,-1,-1,-1,-1,95,-1,-1,-1,-1,-1,97,99,101,-1,-1,-1,103,105,-1,-1,-1,-1],"loss_changes":[6.7518E0,7.1036005E0,6.558061E0,8.009932E0,6.984107E0,1.5423594E0,0E0,0E0,5.7536545E0,7.6087227E0,7.2813153E0,8.1801796E-1,0E0,5.0300293E0,3.689351E0,6.256649E0,4.2133174E0,9.027997E0,6.38688E0,0E0,0E0,0E0,0E0,0E0,3.4466019E0,9.6262634E-1,4.3900146E0,2.6217434E0,0E0,8.785864E0,4.3162885E0,0E0,3.6597514E0,2.0883589E0,0E0,0E0,0E0,0E0,3.8111477E0,4.905877E-1,0E0,7.8547688E0,5.8790646E0,0E0,3.7232475E0,0E0,0E0,1.5645847E0,1.75417E0,0E0,0E0,0E0,0E0,6.667642E0,3.7317414E0,1.2809056E-1,0E0,3.682773E0,2.4691486E0,1.2009754E0,0E0,0E0,0E0,6.502975E0,4.871141E0,0E0,1.6239548E0,0E0,0E0,0E0,0E0,0E0,1.6607428E0,0E0,5.815754E-1,1.3372804E0,1.438335E0,3.5178661E0,0E0,0E0,0E0,4.6914482E-1,0E0,1.6456413E-1,0E0,0E0,0E0,0E0,0E0,2.3175535E0,0E0,0E0,0E0,0E0,0E0,1.5258121E0,7.8349113E-1,1.2220573E0,0E0,0E0,0E0,7.9839516E-1,1.4611233E-2,0E0,0E0,0E0,0E0],"parents":[2147483647,0,0,1,1,2,2,3,3,4,4,5,5,8,8,9,9,10,10,11,11,13,13,14,14,15,15,16,16,17,17,18,18,24,24,25,25,26,26,27,27,29,29,30,30,32,32,33,33,38,38,39,39,41,41,42,42,44,44,47,47,48,48,53,53,54,54,55,55,57,57,58,58,59,59,63,63,64,64,66,66,72,72,74,74,75,75,76,76,77,77,81,81,83,83,89,89,95,95,96,96,97,97,101,101,102,102],"right_children":[2,4,6,8,10,12,-1,-1,14,16,18,20,-1,22,24,26,28,30,32,-1,-1,-1,-1,-1,34,36,38,40,-1,42,44,-1,46,48,-1,-1,-1,-1,50,52,-1,54,56,-1,58,-1,-1,60,62,-1,-1,-1,-1,64,66,68,-1,70,72,74,-1,-1,-1,76,78,-1,80,-1,-1,-1,-1,-1,82,-1,84,86,88,90,-1,-1,-1,92,-1,94,-1,-1,-1,-1,-1,96,-1,-1,-1,-1,-1,98,100,102,-1,-1,-1,104,106,-1,-1,-1,-1],"split_conditions":[3.344899E-3,-1.0895605E-3,-3.2421702E-3,-5.6237523E-3,3.2221074E-3,-2.5586826E-3,-2.3052967E-1,-2.652584E-1,-2.7204924E-3,2.80154E-3,2.538969E-3,8.096149E-3,-3.7828457E-2,4.9050925E-3,2.3476307E-3,-1.5791194E-4,2.80577E-3,1.8124542E-3,-3.7159594E-3,2.8241575E-1,2.0818193E-2,-2.7006117E-1,1.8709037E-1,-2.016506E-1,3.4031062E-3,-1.6110335E-2,-4.8560686E-3,8.776096E-3,-2.2699583E-1,-2.720618E-4,-4.7312602E-3,-3.007285E-1,5.1608114E-3,1.7121881E-3,-1.843069E-1,2.1457578E-1,-4.4958603E-2,1.5659586E-1,3.0635597E-4,-1.12100584E-4,-1.685408E-1,-1.2117787E-3,-9.524703E-3,-2.1403234E-1,3.9129746E-3,2.1542917E-1,-2.0917116E-1,2.9894647E-3,-2.6649432E-3,-3.1347153E-1,1.07343294E-1,1.664345E-2,2.5870442E-1,3.3597834E-3,-1.5408418E-2,-7.576158E-5,-3.0166012E-1,-7.551067E-3,-9.601182E-3,-4.3789702E-3,-3.3394944E-2,1.7285128E-1,-1.9271673E-1,-1.7187993E-4,1.1482311E-3,1.8035321E-1,-6.829087E-4,1.8640314E-1,2.863743E-2,1.8536389E-1,-2.3926921E-1,-7.3230304E-2,1.6562614E-3,-1.2505468E-2,2.834328E-3,-9.317839E-4,-1.6568255E-3,2.7313814E-4,-2.2138675E-1,5.9659652E-2,-2.8992462E-1,-6.987786E-4,-3.051397E-2,-6.782795E-4,3.5012357E-2,2.4095781E-1,-4.811601E-2,4.8119728E-2,-2.907046E-1,3.462747E-3,-1.8781854E-1,2.89628E-1,4.5016162E-2,7.277388E-2,2.885934E-1,-7.3137815E-4,1.253398E-3,-3.6189798E-3,-3.3277366E-2,8.979227E-2,-1.7594306E-1,-1.2756209E-4,-2.0210157E-4,2.8905797E-1,2.2623364E-2,3.8349327E-2,-2.5537782E-3],"split_indices":[2813,4068,5456,2185,2350,5224,0,0,116,2190,644,140,0,2997,6042,2137,4364,988,3265,0,0,0,0,0,205,1315,5288,5841,0,785,4152,0,4284,2964,0,0,0,0,4569,82,0,4858,3657,0,3945,0,0,5272,50,0,0,0,0,1025,4380,75,0,4448,2129,2360,0,0,0,3789,3239,0,3136,0,0,0,0,0,4797,0,5320,2964,5116,774,0,0,0,5855,0,5940,0,0,0,0,0,3576,0,0,0,0,0,4334,2572,3266,0,0,0,1233,88,0,0,0,0],"split_type":[0,0,0,0,0,0,0,0,0,0,0,0,0,0,0,0,0,0,0,0,0,0,0,0,0,0,0,0,0,0,0,0,0,0,0,0,0,0,0,0,0,0,0,0,0,0,0,0,0,0,0,0,0,0,0,0,0,0,0,0,0,0,0,0,0,0,0,0,0,0,0,0,0,0,0,0,0,0,0,0,0,0,0,0,0,0,0,0,0,0,0,0,0,0,0,0,0,0,0,0,0,0,0,0,0,0,0],"sum_hessian":[2.313574E2,2.1396568E2,1.7391722E1,4.4737125E1,1.6922856E2,1.4834425E1,2.557297E0,4.7757087E0,3.9961414E1,4.7497147E1,1.21731415E2,1.3330971E1,1.5034542E0,7.51336E0,3.2448055E1,3.704602E1,1.0451126E1,1.02645935E2,1.9085482E1,1.1976189E1,1.3547819E0,4.983569E0,2.5297909E0,1.5119493E0,3.0936106E1,3.830433E0,3.3215588E1,7.9841256E0,2.4670007E0,7.28239E1,2.9822035E1,1.3241848E1,5.843634E0,2.9586683E1,1.3494222E0,2.147153E0,1.68328E0,1.5062046E0,3.1709383E1,6.9193835E0,1.0647421E0,5.549189E1,1.7332012E1,1.9926593E0,2.7829374E1,3.8716285E0,1.9720054E0,2.6828003E1,2.7586803E0,3.011271E1,1.5966725E0,1.00693E0,5.9124537E0,4.3388897E1,1.2102991E1,2.5469995E0,1.4785012E1,5.4066844E0,2.2422691E1,2.5261587E1,1.566417E0,1.2376759E0,1.5210043E0,1.36003E1,2.9788597E1,1.3528324E0,1.0750159E1,1.4532263E0,1.0937731E0,2.5206962E0,2.885988E0,1.851108E0,2.0571583E1,1.3328125E0,2.3928774E1,5.055158E0,8.545142E0,2.7645391E1,2.1432052E0,1.0004842E0,9.749675E0,1.9068329E1,1.503253E0,2.271578E1,1.212993E0,3.3277018E0,1.7274563E0,1.0004759E0,7.5446663E0,2.6217043E1,1.4283482E0,1.7913807E1,1.154523E0,1.132764E0,2.1583017E1,2.4038021E1,2.1790233E0,2.2466997E1,1.5710225E0,1.000021E0,1.1790024E0,2.0364542E1,2.102455E0,1.9111397E1,1.2531469E0,1.0002065E0,1.1022485E0],"tree_param":{"num_deleted":"0","num_feature":"6144","num_nodes":"107","size_leaf_vector":"1"}}]},"name":"gbtree"},"learner_model_param":{"base_score":"5E-1","boost_from_average":"1","num_class":"0","num_feature":"6144","num_target":"1"},"objective":{"name":"binary:logistic","reg_loss_param":{"scale_pos_weight":"16.346405"}}},"version":[2,0,3]}