{"learner":{"attributes":{},"feature_names":[],"feature_types":[],"gradient_booster":{"model":{"gbtree_model_param":{"num_parallel_tree":"1","num_trees":"10"},"iteration_indptr":[0,1,2,3,4,5,6,7,8,9,10],"tree_info":[0,0,0,0,0,0,0,0,0,0],"trees":[{"base_weights":[-9.596723E-8,1.9618441E-1,-1.1395621E0,-5.868853E-1,2.9056743E-1,-1.6705357E0,6.174238E-1,4.280995E-1,-1.2037328E0,-5.954286E-1,1.4852265E0,1.5675079E0,-5.529412E-1,5.27265E-1,-1.4792432E0,8.010704E-1,-5.9062505E-1,5.5140996E-1,-3.3333337E-1,-4.4000003E-1,5.696157E-1,8.342081E-1,-7.461613E-2,5.1010036E-1,-5.856288E-1,5.3521335E-1,-5.2000004E-1,9.154198E-1,-5.661972E-1,5.5260956E-1,-1.4976815E0,-4.1922736E-1,1.0623723E0,9.014404E-1,-5.775701E-1,5.066018E-1,-5.927273E-1,1.2906903E0,-5.809524E-1,-5.5862075E-1,1.1429043E0,1.1615034E0,-5.6363636E-1,-4.909091E-1,5.7467973E-1,1.2149229E0,-5.5200005E-1,1.3762681E0,-5.5E-1,-5.4285717E-1,1.2769542E0,1.5402405E0,-5.294118E-1,-5.294118E-1,1.3276432E0,1.6771559E0,-5.1111114E-1,-5.294118E-1,1.3799249E0,-4.666667E-1,1.7658056E0,1.426583E0,-5.2000004E-1,-4.5000002E-1,1.845265E0,-5.04E-1,1.4652195E0,-4.0000004E-1,1.9001274E0,-5E-1,4.508505E-1,5.805656E-1,-3.3333337E-1],"categories":[],"categories_nodes":[],"categories_segments":[],"categories_sizes":[],"default_left":[0,0,0,0,0,0,0,0,0,0,0,0,0,0,0,0,0,0,0,0,0,0,0,0,0,0,0,0,0,0,0,0,0,0,0,0,0,0,0,0,0,0,0,0,0,0,0,0,0,0,0,0,0,0,0,0,0,0,0,0,0,0,0,0,0,0,0,0,0,0,0,0,0],"id":0,"left_children":[1,3,5,-1,7,9,11,13,15,-1,17,19,-1,21,23,25,-1,-1,-1,-1,-1,27,29,-1,-1,-1,-1,31,-1,33,35,37,39,41,-1,-1,-1,43,-1,-1,45,47,-1,-1,-1,49,-1,51,-1,-1,53,55,-1,-1,57,59,-1,-1,61,-1,63,65,-1,-1,67,-1,69,-1,71,-1,-1,-1,-1],"loss_changes":[2.845975E2,2.2120268E2,1.7545703E2,0E0,2.1451343E2,1.45591E2,1.06031456E2,1.8127098E2,1.3657773E2,0E0,1.4498297E1,3.5315628E1,0E0,1.6777861E2,7.4620026E1,6.542927E1,0E0,0E0,0E0,0E0,0E0,1.3462906E2,2.7532083E2,0E0,0E0,0E0,0E0,1.15094574E2,0E0,1.8686032E2,1.470589E2,1.5478288E2,1.2620984E2,1.384226E2,0E0,0E0,0E0,5.4709877E1,0E0,0E0,1.1251831E2,1.1374826E2,0E0,0E0,0E0,9.6464905E1,0E0,8.611658E1,0E0,0E0,7.825458E1,7.14462E1,0E0,0E0,8.082446E1,4.535495E1,0E0,0E0,7.181372E1,0E0,4.044159E1,5.8977783E1,0E0,0E0,2.7327423E1,0E0,5.7357117E1,0E0,1.6962524E1,0E0,0E0,0E0,0E0],"parents":[2147483647,0,0,1,1,2,2,4,4,5,5,6,6,7,7,8,8,10,10,11,11,13,13,14,14,15,15,21,21,22,22,27,27,29,29,30,30,31,31,32,32,33,33,37,37,40,40,41,41,45,45,47,47,50,50,51,51,54,54,55,55,58,58,60,60,61,61,64,64,66,66,68,68],"right_children":[2,4,6,-1,8,10,12,14,16,-1,18,20,-1,22,24,26,-1,-1,-1,-1,-1,28,30,-1,-1,-1,-1,32,-1,34,36,38,40,42,-1,-1,-1,44,-1,-1,46,48,-1,-1,-1,50,-1,52,-1,-1,54,56,-1,-1,58,60,-1,-1,62,-1,64,66,-1,-1,68,-1,70,-1,72,-1,-1,-1,-1],"split_conditions":[1.2014985E-2,3.9050237E-3,3.7152942E-3,-5.868853E-1,1.6795143E-3,9.686787E-3,5.975525E-3,3.60319E-4,-2.3641002E-3,-5.954286E-1,1.19363736E-4,-2.5956337E-3,-5.529412E-1,5.3595644E-3,-4.4046207E-3,-6.410026E-3,-5.9062505E-1,5.5140996E-1,-3.3333337E-1,-4.4000003E-1,5.696157E-1,5.749691E-3,-3.7270345E-4,5.1010036E-1,-5.856288E-1,5.3521335E-1,-5.2000004E-1,-6.795543E-3,-5.661972E-1,-3.9154867E-4,-1.2127318E-2,-2.4920425E-3,-1.013865E-2,1.7014271E-4,-5.775701E-1,5.066018E-1,-5.927273E-1,-5.265371E-3,-5.809524E-1,-5.5862075E-1,2.3195842E-4,1.0353442E-2,-5.6363636E-1,-4.909091E-1,5.7467973E-1,-5.5525755E-3,-5.5200005E-1,3.7324365E-4,-5.5E-1,-5.4285717E-1,-6.2163933E-3,-5.774325E-4,-5.294118E-1,-5.294118E-1,-5.9504923E-3,7.828858E-4,-5.1111114E-1,-5.294118E-1,1.6483763E-3,-4.666667E-1,1.19542945E-2,-2.607464E-3,-5.2000004E-1,-4.5000002E-1,3.5026958E-4,-5.04E-1,-2.130463E-4,-4.0000004E-1,4.8870295E-3,-5E-1,4.508505E-1,5.805656E-1,-3.3333337E-1],"split_indices":[1184,2543,5408,0,5822,4334,1209,5563,4994,0,19,1632,0,4963,82,4448,0,0,0,0,0,812,609,0,0,0,0,6128,0,701,4217,560,5968,3462,0,0,0,3481,0,0,5790,5985,0,0,0,4992,0,2420,0,0,156,6016,0,0,2116,2406,0,0,1276,0,1201,2164,0,0,5796,0,2730,0,650,0,0,0,0],"split_type":[0,0,0,0,0,0,0,0,0,0,0,0,0,0,0,0,0,0,0,0,0,0,0,0,0,0,0,0,0,0,0,0,0,0,0,0,0,0,0,0,0,0,0,0,0,0,0,0,0,0,0,0,0,0,0,0,0,0,0,0,0,0,0,0,0,0,0,0,0,0,0,0,0],"sum_hessian":[1.271E3,1.0850312E3,1.8596875E2,4.475E1,1.0402812E3,1.428482E2,4.3120533E1,9.5325885E2,8.702232E1,1.3025E2,1.2598213E1,3.1370533E1,1.175E1,9.068348E2,4.6424107E1,2.402232E1,6.3E1,1.1348213E1,1.25E0,2.75E0,2.8620533E1,6.00308E2,3.0652676E2,5.6741066E0,4.075E1,1.752232E1,6.5E0,5.83558E2,1.675E1,2.1317856E2,9.334821E1,5.7696426E1,5.258616E2,1.8742856E2,2.575E1,1.1848213E1,8.15E1,2.7196426E1,3.05E1,1.35E1,5.123616E2,1.7192856E2,1.55E1,4.5E0,2.2696426E1,5.0086157E2,1.15E1,1.6092856E2,1.1E1,9.5E0,4.9136157E2,1.5342856E2,7.5E0,7.5E0,4.8386157E2,1.4767856E2,5.75E0,7.5E0,4.7636157E2,3.5E0,1.4417856E2,4.6986157E2,6.5E0,3E0,1.4117856E2,5.25E0,4.6461157E2,2E0,1.3917856E2,5E0,4.5961157E2,1.3792856E2,1.25E0],"tree_param":{"num_deleted":"0","num_feature":"6144","num_nodes":"73","size_leaf_vector":"1"}},{"base_weights":[-1.0695328E-2,1.5078008E-1,-8.1232375E-1,-4.8130348E-1,2.2515199E-1,-1.4291263E0,1.4619502E-1,3.064557E-1,-1.2487158E0,-4.696686E-1,3.9735258E-1,-4.5007297E-1,1.025889E0,-1.1592394E-1,5.828838E-1,-4.7978595E-1,4.143306E-1,1.421866E0,-4.0906268E-1,3.0296776E-1,-1.0426762E0,6.7835426E-1,-4.712396E-1,4.596798E-1,-2.885365E-1,-9.409928E-1,7.976407E-1,7.911814E-1,-4.9471116E-1,-4.826201E-1,7.6457006E-1,8.769742E-1,-5.057556E-1,9.82736E-1,-5.0648665E-1,4.152727E-1,-4.4342643E-1,-9.89238E-1,8.683412E-1,-4.1981372E-1,4.5512012E-1,-5.029471E-1,1.1396371E0,-4.799801E-1,4.143306E-1,9.345673E-1,-4.7864679E-1,-5.243774E-1,1.2449645E0,9.9711484E-1,-4.5981655E-1,1.346925E0,-4.523786E-1,-4.5931068E-1,1.0532829E0,1.4266106E0,-4.4637647E-1,1.1070398E0,-4.5104915E-1,1.4862089E0,-3.9886382E-1,1.1548644E0,-4.388495E-1,1.5257792E0,-3.4880263E-1,1.1973511E0,-4.1933927E-1,-3.3477956E-1,1.5607595E0,-4.1477782E-1,1.2365804E0,2.5798735E-1,4.764625E-1,3.8177767E-1,-4.172721E-1],"categories":[],"categories_nodes":[],"categories_segments":[],"categories_sizes":[],"default_left":[0,0,0,0,0,0,0,0,0,0,0,0,0,0,0,0,0,0,0,0,0,0,0,0,0,0,0,0,0,0,0,0,0,0,0,0,0,0,0,0,0,0,0,0,0,0,0,0,0,0,0,0,0,0,0,0,0,0,0,0,0,0,0,0,0,0,0,0,0,0,0,0,0,0,0],"id":1,"left_children":[1,3,5,-1,7,9,11,13,15,-1,-1,-1,17,19,21,-1,-1,23,-1,25,27,29,-1,-1,-1,31,33,35,-1,-1,37,39,-1,41,-1,-1,-1,43,45,-1,-1,-1,47,-1,-1,49,-1,-1,51,53,-1,55,-1,-1,57,59,-1,61,-1,63,-1,65,-1,67,-1,69,-1,-1,71,-1,73,-1,-1,-1,-1],"loss_changes":[1.5368051E2,1.2935854E2,1.178922E2,0E0,1.1409581E2,4.7610794E1,1.1573435E2,1.0516561E2,4.8128242E1,0E0,0E0,0E0,5.112179E1,1.3886879E2,1.12967606E2,0E0,0E0,1.3337158E1,0E0,1.524819E2,1.2509816E2,1.0412657E2,0E0,0E0,0E0,9.7099075E1,8.308525E1,4.0185135E1,0E0,0E0,9.2503174E1,3.298541E1,0E0,7.089249E1,0E0,0E0,0E0,4.3606644E1,7.915277E1,0E0,0E0,0E0,4.9839188E1,0E0,0E0,7.315396E1,0E0,0E0,4.463469E1,6.597601E1,0E0,3.530475E1,0E0,0E0,6.268988E1,2.5528778E1,0E0,5.5205383E1,0E0,1.6534637E1,0E0,4.809607E1,0E0,1.4603241E1,0E0,4.437616E1,0E0,0E0,1.2845764E0,0E0,4.1111633E1,0E0,0E0,0E0,0E0],"parents":[2147483647,0,0,1,1,2,2,4,4,5,5,6,6,7,7,8,8,12,12,13,13,14,14,17,17,19,19,20,20,21,21,25,25,26,26,27,27,30,30,31,31,33,33,37,37,38,38,42,42,45,45,48,48,49,49,51,51,54,54,55,55,57,57,59,59,61,61,63,63,65,65,68,68,70,70],"right_children":[2,4,6,-1,8,10,12,14,16,-1,-1,-1,18,20,22,-1,-1,24,-1,26,28,30,-1,-1,-1,32,34,36,-1,-1,38,40,-1,42,-1,-1,-1,44,46,-1,-1,-1,48,-1,-1,50,-1,-1,52,54,-1,56,-1,-1,58,60,-1,62,-1,64,-1,66,-1,68,-1,70,-1,-1,72,-1,74,-1,-1,-1,-1],"split_conditions":[1.1366467E-2,-1.8524167E-3,2.1262977E-3,-4.8130348E-1,1.7306704E-2,2.5228128E-2,3.0802772E-3,3.302795E-3,7.681077E-3,-4.696686E-1,3.9735258E-1,-4.5007297E-1,-4.1695285E-4,-4.8384964E-3,-9.041036E-3,-4.7978595E-1,4.143306E-1,1.6253532E-4,-4.0906268E-1,-2.7213434E-3,6.8649007E-3,-2.6850768E-3,-4.712396E-1,4.596798E-1,-2.885365E-1,-8.287515E-3,6.2062347E-4,-4.8173214E-3,-4.9471116E-1,-4.826201E-1,1.4199222E-3,-2.7575132E-3,-5.057556E-1,-1.5659645E-5,-5.0648665E-1,4.152727E-1,-4.4342643E-1,2.4230378E-2,3.4026976E-4,-4.1981372E-1,4.5512012E-1,-5.029471E-1,-4.3499283E-3,-4.799801E-1,4.143306E-1,2.1519358E-3,-4.7864679E-1,-5.243774E-1,1.3881825E-3,-9.58004E-4,-4.5981655E-1,4.946518E-4,-4.523786E-1,-4.5931068E-1,8.262161E-3,-3.2170076E-4,-4.4637647E-1,1.3269752E-3,-4.5104915E-1,4.2782692E-4,-3.9886382E-1,8.184993E-3,-4.388495E-1,-2.754917E-4,-3.4880263E-1,-3.355359E-4,-4.1933927E-1,-3.3477956E-1,-4.586033E-4,-4.1477782E-1,5.7965196E-3,2.5798735E-1,4.764625E-1,3.8177767E-1,-4.172721E-1],"split_indices":[1184,2445,508,0,2640,645,1316,3424,60,0,0,0,650,343,1519,0,0,3734,0,3624,5705,780,0,0,0,1008,4263,2834,0,0,3945,64,0,4923,0,0,0,140,3742,0,0,0,1228,0,0,117,0,0,5671,4764,0,4718,0,0,4994,4292,0,241,0,2922,0,812,0,5586,0,5334,0,0,2301,0,3857,0,0,0,0],"split_type":[0,0,0,0,0,0,0,0,0,0,0,0,0,0,0,0,0,0,0,0,0,0,0,0,0,0,0,0,0,0,0,0,0,0,0,0,0,0,0,0,0,0,0,0,0,0,0,0,0,0,0,0,0,0,0,0,0,0,0,0,0,0,0,0,0,0,0,0,0,0,0,0,0,0,0],"sum_hessian":[1.1852958E3,9.8724316E2,1.9805266E2,3.9296688E1,9.479465E2,1.2020824E2,7.784443E1,8.9913885E2,4.8807587E1,1.1494448E2,5.2637506E0,2.68627E1,5.098173E1,3.5590295E2,5.432359E2,4.3412323E1,5.3952627E0,4.4081474E1,6.900254E0,2.4557585E2,1.103271E2,5.2083295E2,2.2402956E1,4.2471565E1,1.6099123E0,6.96141E1,1.7596175E2,2.7339035E1,8.298807E1,1.8278948E1,5.0255402E2,2.0181072E1,4.9433025E1,1.6433083E2,1.1630931E1,2.1983719E1,5.355317E0,2.7597834E1,4.7495618E2,4.168934E0,1.6012138E1,8.616122E0,1.5571469E2,2.2202572E1,5.3952627E0,4.631283E2,1.1827882E1,4.9311614E0,1.5078354E2,4.5225906E2,1.086923E1,1.4589081E2,4.892724E0,9.258783E0,4.4300027E2,1.4238522E2,3.5055869E0,4.3443323E2,8.56704E0,1.3982251E2,2.5627131E0,4.270368E2,7.396419E0,1.3818227E2,1.6402426E0,4.2056778E2,6.469023E0,1.4019978E0,1.3678027E2,5.786251E0,4.1478156E2,6.3739715E0,1.304063E2,4.096822E2,5.099367E0],"tree_param":{"num_deleted":"0","num_feature":"6144","num_nodes":"75","size_leaf_vector":"1"}},{"base_weights":[-2.0502523E-2,-3.8244832E-1,2.2847205E-1,-9.422112E-1,3.731773E-2,3.0291346E-1,-4.0997303E-1,8.830251E-1,-1.2072062E0,-1.1688533E0,3.4140554E-1,-6.2942964E-1,4.203458E-1,3.9357564E-1,-3.433667E-1,-4.3963662E-1,4.7116145E-2,3.5617644E-1,-4.3552455E-1,5.6679326E-1,-4.2364272E-1,-4.261025E-1,9.474426E-1,1.9736188E-2,7.5564814E-1,-4.0529206E-1,3.5812888E-1,-4.2631307E-1,7.613195E-1,3.983593E-1,-3.2073396E-1,-9.060207E-1,3.831493E-1,8.413884E-1,-4.2567116E-1,9.0340084E-1,-4.0091464E-1,5.3593326E-1,-4.4515386E-1,8.712243E-1,-4.1277468E-1,-3.9437225E-1,9.1704017E-1,-3.9702463E-1,1.0234635E0,3.7782493E-1,-3.8780677E-1,1.0758748E0,-3.934501E-1,6.509839E-1,-4.1695604E-1,9.8619837E-1,-3.7195146E-1,-3.571514E-1,1.1100469E0,-3.5677463E-1,1.1671623E0,-3.7465024E-1,1.1847824E0,-3.92961E-1,1.046579E0,1.1792953E0,-3.2574007E-1,-3.3576655E-1,1.2364843E0,4.0357485E-1,-2.4492835E-1,1.095319E0,-4.2903894E-1,1.2454286E0,-3.3474684E-1,-2.7498713E-1,1.2886475E0,1.1385791E0,-3.5746318E-1,1.2891096E0,-2.7788326E-1,1.3289129E0,-2.6417693E-1,-3.5888392E-1,1.1814795E0,1.3232656E0,-2.6196516E-1,2.304644E-1,4.0691766E-1,1.2171668E0,-3.135865E-1,-2.169037E-1,1.3479655E0,-3.5285524E-1,1.249386E0,-2.14108E-1,4.118136E-1,1.2767059E0,-3.138759E-1,3.8930953E-1,-2.7229884E-1],"categories":[],"categories_nodes":[],"categories_segments":[],"categories_sizes":[],"default_left":[0,0,0,0,0,0,0,0,0,0,0,0,0,0,0,0,0,0,0,0,0,0,0,0,0,0,0,0,0,0,0,0,0,0,0,0,0,0,0,0,0,0,0,0,0,0,0,0,0,0,0,0,0,0,0,0,0,0,0,0,0,0,0,0,0,0,0,0,0,0,0,0,0,0,0,0,0,0,0,0,0,0,0,0,0,0,0,0,0,0,0,0,0,0,0,0,0],"id":2,"left_children":[1,3,5,7,9,11,-1,13,15,17,19,21,23,-1,-1,-1,25,-1,-1,27,-1,-1,29,31,33,-1,-1,-1,35,-1,-1,37,39,41,-1,43,-1,45,-1,47,49,-1,51,-1,53,-1,-1,55,-1,57,-1,59,-1,-1,61,-1,63,-1,65,-1,67,69,-1,-1,71,-1,-1,73,-1,75,-1,-1,77,79,-1,81,-1,83,-1,-1,85,87,-1,-1,-1,89,-1,-1,91,-1,93,-1,-1,95,-1,-1,-1],"loss_changes":[9.32068E1,9.9074814E1,7.318072E1,8.845082E1,8.9099E1,6.446012E1,0E0,2.1922022E1,5.1309555E1,3.432943E1,7.7440765E1,8.364585E1,7.0014175E1,0E0,0E0,0E0,4.646243E1,0E0,0E0,6.7801605E1,0E0,0E0,1.8789581E1,8.0607666E1,5.410286E1,0E0,0E0,0E0,4.8242783E1,0E0,0E0,5.7075764E1,6.718284E1,4.5836655E1,0E0,4.103015E1,0E0,2.8165524E1,0E0,4.9185417E1,6.957165E1,0E0,4.0744415E1,0E0,2.8421402E1,0E0,0E0,2.1720901E1,0E0,3.4246597E1,0E0,3.703923E1,0E0,0E0,2.204692E1,0E0,1.644542E1,0E0,9.36311E0,0E0,3.1894897E1,2.1557556E1,0E0,0E0,1.1593292E1,0E0,0E0,2.5788208E1,0E0,1.3490463E1,0E0,0E0,9.112427E0,2.5742188E1,0E0,1.0571167E1,0E0,3.395996E-1,0E0,0E0,2.0265442E1,7.3379974E0,0E0,0E0,0E0,1.96445E1,0E0,0E0,7.344223E0,0E0,1.5951935E1,0E0,0E0,1.17595215E1,0E0,0E0,0E0],"parents":[2147483647,0,0,1,1,2,2,3,3,4,4,5,5,7,7,8,8,9,9,10,10,11,11,12,12,16,16,19,19,22,22,23,23,24,24,28,28,31,31,32,32,33,33,35,35,37,37,39,39,40,40,42,42,44,44,47,47,49,49,51,51,54,54,56,56,58,58,60,60,61,61,64,64,67,67,69,69,72,72,73,73,75,75,77,77,80,80,81,81,85,85,88,88,90,90,93,93],"right_children":[2,4,6,8,10,12,-1,14,16,18,20,22,24,-1,-1,-1,26,-1,-1,28,-1,-1,30,32,34,-1,-1,-1,36,-1,-1,38,40,42,-1,44,-1,46,-1,48,50,-1,52,-1,54,-1,-1,56,-1,58,-1,60,-1,-1,62,-1,64,-1,66,-1,68,70,-1,-1,72,-1,-1,74,-1,76,-1,-1,78,80,-1,82,-1,84,-1,-1,86,88,-1,-1,-1,90,-1,-1,92,-1,94,-1,-1,96,-1,-1,-1],"split_conditions":[-1.7723787E-3,8.2991435E-4,8.066157E-3,-3.1029177E-3,-1.4602653E-3,-7.094565E-3,-4.0997303E-1,-2.751731E-3,5.6328997E-4,-3.5050097E-3,7.888804E-3,9.835216E-3,3.302795E-3,3.9357564E-1,-3.433667E-1,-4.3963662E-1,-9.604924E-5,3.5617644E-1,-4.3552455E-1,9.7189966E-4,-4.2364272E-1,-4.261025E-1,-7.4128715E-5,-7.5117896E-5,2.6863164E-3,-4.0529206E-1,3.5812888E-1,-4.2631307E-1,4.3786373E-3,3.983593E-1,-3.2073396E-1,-3.0375584E-3,6.763251E-4,-5.3295796E-3,-4.2567116E-1,-1.4316759E-4,-4.0091464E-1,-2.1150365E-4,-4.4515386E-1,2.0547977E-3,-3.9853604E-4,-3.9437225E-1,2.1519358E-3,-3.9702463E-1,-7.890781E-3,3.7782493E-1,-3.8780677E-1,-9.732812E-3,-3.934501E-1,5.5761077E-5,-4.1695604E-1,2.0080344E-3,-3.7195146E-1,-3.571514E-1,-4.89568E-3,-3.5677463E-1,1.4971344E-3,-3.7465024E-1,8.9815346E-4,-3.92961E-1,2.8413756E-2,7.7475263E-3,-3.2574007E-1,-3.3576655E-1,2.2658943E-3,4.0357485E-1,-2.4492835E-1,3.854184E-2,-4.2903894E-1,4.1208984E-3,-3.3474684E-1,-2.7498713E-1,2.8442338E-3,5.440877E-4,-3.5746318E-1,4.3937513E-3,-2.7788326E-1,2.4085578E-4,-2.6417693E-1,-3.5888392E-1,-9.04976E-3,-3.044418E-3,-2.6196516E-1,2.304644E-1,4.0691766E-1,-8.342984E-3,-3.135865E-1,-2.169037E-1,-7.424467E-4,-3.5285524E-1,1.2147192E-2,-2.14108E-1,4.118136E-1,4.105623E-4,-3.138759E-1,3.8930953E-1,-2.7229884E-1],"split_indices":[800,4366,4838,1116,1037,62,0,5304,2691,102,5863,1715,3424,0,0,0,1240,0,0,1524,0,0,3235,347,3556,0,0,0,1508,0,0,4996,511,2380,0,5601,0,2446,0,2000,5573,0,117,0,40,0,0,2222,0,2900,0,4036,0,0,1623,0,1875,0,724,0,5860,2541,0,0,4435,0,0,2053,0,4696,0,0,5428,2133,0,5052,0,4879,0,0,1519,2706,0,0,0,3556,0,0,3644,0,3409,0,0,4174,0,0,0],"split_type":[0,0,0,0,0,0,0,0,0,0,0,0,0,0,0,0,0,0,0,0,0,0,0,0,0,0,0,0,0,0,0,0,0,0,0,0,0,0,0,0,0,0,0,0,0,0,0,0,0,0,0,0,0,0,0,0,0,0,0,0,0,0,0,0,0,0,0,0,0,0,0,0,0,0,0,0,0,0,0,0,0,0,0,0,0,0,0,0,0,0,0,0,0,0,0,0,0],"sum_hessian":[1.0323364E3,4.205001E2,6.1183636E2,1.7966718E2,2.408329E2,5.85329E2,2.6507387E1,2.2482143E1,1.5718504E2,4.7918663E1,1.9291423E2,6.498968E1,5.2033936E2,1.884816E1,3.6339827E0,1.3020845E2,2.6976587E1,4.7940826E0,4.312458E1,1.7154227E2,2.1371965E1,4.334725E1,2.1642422E1,2.3756378E2,2.8277554E2,1.2075234E1,1.4901352E1,1.4728509E1,1.5681377E2,1.8494892E1,3.1475286E0,6.6547615E1,1.7101617E2,2.7263876E2,1.0136785E1,1.4739944E2,9.4143095E0,1.9058912E1,4.74887E1,1.0595068E2,6.506549E1,8.687291E0,2.6395148E2,7.0279794E0,1.4037148E2,1.3879034E1,5.1798773E0,9.733201E1,8.618675E0,3.1310774E1,3.375471E1,2.5627698E2,7.674504E0,4.8031564E0,1.3556831E2,3.304703E0,9.4027306E1,6.5740047E0,2.4736769E1,6.036487E0,2.5024048E2,1.3187251E2,3.6958013E0,2.3212826E0,9.1706024E1,2.3203941E1,1.5328274E0,2.4595795E2,4.282536E0,1.2862361E2,3.2489014E0,1.7772033E0,8.992882E1,2.4188438E2,4.0735555E0,1.2648592E2,2.1376915E0,8.86703E1,1.258517E0,3.8790934E0,2.380053E2,1.24901024E2,1.5848943E0,5.495421E0,8.317488E1,2.3469731E2,3.3079891E0,1.1524682E0,1.2374856E2,2.645882E0,2.3205142E2,1.1375483E0,1.2261101E2,2.2976094E2,2.2904797E0,2.2797594E2,1.7850151E0],"tree_param":{"num_deleted":"0","num_feature":"6144","num_nodes":"97","size_leaf_vector":"1"}},{"base_weights":[-2.920896E-2,8.7744735E-2,-6.466047E-1,1.7058179E-1,-8.418726E-1,-3.7259436E-1,-4.442556E-2,2.3839805E-1,-9.990728E-1,-4.03542E-1,5.679539E-1,6.451026E-1,-9.1960114E-1,-3.6351E-1,2.9202202E-1,3.0822104E-1,-3.8294333E-1,-3.3049357E-1,3.5082254E-1,9.9712616E-1,-3.1994355E-1,-3.5974026E-1,2.8924376E-1,-3.8500595E-1,3.374863E-1,-2.6781875E-1,3.4932455E-1,4.1063592E-1,-6.025754E-1,6.942354E-2,6.4087003E-1,-3.9139768E-1,9.894878E-1,3.759339E-1,-6.991377E-1,7.293034E-1,-7.967078E-1,-1.9140477E-1,3.534931E-1,-3.763203E-1,5.488941E-1,-3.879185E-1,8.4263706E-1,-3.863907E-1,7.904233E-1,-3.987122E-1,3.0822104E-1,6.847639E-1,-3.647712E-1,-2.7097148E-1,3.5318792E-1,8.442116E-1,-3.9572093E-1,7.944425E-1,-3.626942E-1,8.903404E-1,-3.5703224E-1,-3.539241E-1,8.9540106E-1,-3.4302798E-1,9.3414974E-1,9.706336E-1,-3.4783745E-1,-3.352148E-1,9.7219896E-1,-3.2493395E-1,1.0300945E0,-3.5336843E-1,1.0102489E0,-2.9826874E-1,3.2514662E-1,-3.431743E-1,3.1247675E-1],"categories":[],"categories_nodes":[],"categories_segments":[],"categories_sizes":[],"default_left":[0,0,0,0,0,0,0,0,0,0,0,0,0,0,0,0,0,0,0,0,0,0,0,0,0,0,0,0,0,0,0,0,0,0,0,0,0,0,0,0,0,0,0,0,0,0,0,0,0,0,0,0,0,0,0,0,0,0,0,0,0,0,0,0,0,0,0,0,0,0,0,0,0],"id":3,"left_children":[1,3,5,7,9,-1,11,13,15,-1,17,19,21,-1,23,-1,-1,-1,-1,25,-1,-1,-1,-1,27,-1,-1,29,31,33,35,-1,37,39,41,43,45,-1,-1,-1,47,-1,49,-1,51,-1,-1,53,-1,-1,-1,55,-1,57,-1,59,-1,-1,61,-1,63,65,-1,-1,67,-1,69,-1,71,-1,-1,-1,-1],"loss_changes":[6.1760735E1,5.553692E1,4.8781425E1,5.269417E1,4.264177E1,0E0,4.2085934E1,4.9021828E1,2.17929E1,0E0,1.7586159E1,2.4589163E1,1.7328352E1,0E0,4.371939E1,0E0,0E0,0E0,0E0,1.1441505E1,0E0,0E0,0E0,0E0,4.069512E1,0E0,0E0,4.287445E1,4.921035E1,5.237982E1,4.203723E1,0E0,4.9584064E0,4.5470367E1,5.9168198E1,3.8958282E1,2.0179482E1,0E0,0E0,0E0,3.5427025E1,0E0,1.1722578E1,0E0,3.5072662E1,0E0,0E0,2.8917355E1,0E0,0E0,0E0,2.8503937E1,0E0,2.6535294E1,0E0,2.6598648E1,0E0,0E0,2.001413E1,0E0,2.302504E1,1.5576035E1,0E0,0E0,2.3808228E1,0E0,1.3649757E1,0E0,1.9568237E1,0E0,0E0,0E0,0E0],"parents":[2147483647,0,0,1,1,2,2,3,3,4,4,6,6,7,7,8,8,10,10,11,11,12,12,14,14,19,19,24,24,27,27,28,28,29,29,30,30,32,32,33,33,34,34,35,35,36,36,40,40,42,42,44,44,47,47,51,51,53,53,55,55,58,58,60,60,61,61,64,64,66,66,68,68],"right_children":[2,4,6,8,10,-1,12,14,16,-1,18,20,22,-1,24,-1,-1,-1,-1,26,-1,-1,-1,-1,28,-1,-1,30,32,34,36,-1,38,40,42,44,46,-1,-1,-1,48,-1,50,-1,52,-1,-1,54,-1,-1,-1,56,-1,58,-1,60,-1,-1,62,-1,64,66,-1,-1,68,-1,70,-1,72,-1,-1,-1,-1],"split_conditions":[1.1366467E-2,8.449182E-3,-5.9268204E-4,2.4900638E-4,6.8871636E-4,-3.7259436E-1,9.799643E-6,3.9050237E-3,-1.7608663E-2,-4.03542E-1,2.6420117E-4,3.0711493E-3,4.2911135E-3,-3.6351E-1,-5.941675E-4,3.0822104E-1,-3.8294333E-1,-3.3049357E-1,3.5082254E-1,-1.6141833E-3,-3.1994355E-1,-3.5974026E-1,2.8924376E-1,-3.8500595E-1,1.4584245E-2,-2.6781875E-1,3.4932455E-1,3.302795E-3,1.0819044E-2,-4.8384964E-3,6.636196E-3,-3.9139768E-1,-4.002719E-3,2.00761E-3,3.7348946E-3,-2.1755183E-3,5.0724163E-3,-1.9140477E-1,3.534931E-1,-3.763203E-1,-3.2170076E-4,-3.879185E-1,-1.4150402E-3,-3.863907E-1,5.5997525E-3,-3.987122E-1,3.0822104E-1,3.283737E-4,-3.647712E-1,-2.7097148E-1,3.5318792E-1,4.6691843E-3,-3.9572093E-1,1.507654E-3,-3.626942E-1,-9.2816877E-4,-3.5703224E-1,-3.539241E-1,-5.078242E-4,-3.4302798E-1,-1.4227892E-2,-5.25643E-3,-3.4783745E-1,-3.352148E-1,-2.6106022E-2,-3.2493395E-1,-5.0541104E-5,-3.5336843E-1,-2.9632583E-4,-2.9826874E-1,3.2514662E-1,-3.431743E-1,3.1247675E-1],"split_indices":[1184,948,1062,4934,4901,0,1144,2543,332,0,4134,1072,7,0,5783,0,0,0,0,248,0,0,0,0,2640,0,0,3424,1641,343,4940,0,24,832,1728,5160,26,0,0,0,4292,0,1121,0,2340,0,0,5935,0,0,0,3857,0,4395,0,4764,0,0,556,0,4837,4952,0,0,5605,0,1541,0,5893,0,0,0,0],"split_type":[0,0,0,0,0,0,0,0,0,0,0,0,0,0,0,0,0,0,0,0,0,0,0,0,0,0,0,0,0,0,0,0,0,0,0,0,0,0,0,0,0,0,0,0,0,0,0,0,0,0,0,0,0,0,0,0,0,0,0,0,0,0,0,0,0,0,0,0,0,0,0,0,0],"sum_hessian":[8.535465E2,7.1833057E2,1.3521597E2,6.6030786E2,5.8022717E1,6.745777E1,6.7758194E1,6.24874E2,3.543384E1,4.27928E1,1.5229916E1,3.804579E1,2.9712404E1,2.1513388E1,6.033606E2,3.9409683E0,3.1492876E1,3.813169E0,1.1416747E1,3.19019E1,6.1438894E0,2.618952E1,3.5228837E0,1.6160427E1,5.872002E2,2.2416492E0,2.9660252E1,5.453293E2,4.1870876E1,2.2023598E2,3.2509332E2,2.9182304E1,1.2688572E1,1.5781038E2,6.242559E1,3.0671808E2,1.837524E1,1.0717757E0,1.16167965E1,1.4536431E1,1.4327396E2,4.5181896E1,1.7243696E1,8.42946E0,2.9828864E2,1.4434272E1,3.9409683E0,1.336002E2,9.673743E0,2.5003827E0,1.4743314E1,2.9145682E2,6.831824E0,1.268349E2,6.765309E0,2.8554434E2,5.9124613E0,5.650817E0,1.2118408E2,5.491927E0,2.8005243E2,1.17412994E2,3.7710872E0,4.582949E0,2.7546948E2,2.8193333E0,1.1459366E2,4.2692595E0,2.712002E2,2.510203E0,1.1208346E2,3.3799546E0,2.6782025E2],"tree_param":{"num_deleted":"0","num_feature":"6144","num_nodes":"73","size_leaf_vector":"1"}},{"base_weights":[-3.8419377E-2,-3.3941552E-1,1.674385E-1,-8.0185175E-1,7.866648E-3,2.73914E-1,-6.349596E-1,-3.7753946E-1,9.29816E-3,-3.271863E-1,7.992928E-1,5.6935377E-2,6.9305843E-1,-3.7114424E-1,5.7246405E-1,-3.4196228E-1,6.274801E-1,7.035307E-2,-3.7145692E-1,9.7772527E-1,-2.9301792E-1,-8.704035E-1,2.5173387E-1,7.9964674E-1,-3.3152702E-1,3.255477E-1,-3.023217E-1,-3.132784E-1,1.033111E0,-3.6484614E-1,3.5962924E-1,1.0675462E0,-2.2555964E-1,5.7372946E-1,-3.6825135E-1,3.572058E-1,-3.425731E-1,-3.037284E-1,8.8593173E-1,3.465441E-1,-2.154348E-1,6.288172E-1,-3.430666E-1,-1.8770888E-1,1.129563E0,3.1055295E-1,-2.39933E-1,-3.7372902E-1,6.348372E-1,-2.9399925E-1,9.517153E-1,-3.219688E-1,8.2570696E-1,3.486421E-1,1.7454553E-1,7.1165097E-1,-1.0385028E0,7.292454E-1,-3.3712417E-1,-2.812194E-1,1.015164E0,-2.905269E-1,9.4824E-1,-2.7993238E-1,3.1736106E-1,-3.809814E-1,2.548069E-1,-3.185646E-1,8.0934066E-1,1.0541534E0,-2.492941E-1,1.0439012E0,-2.4683024E-1,8.7776506E-1,-3.1233788E-1,1.0868791E0,-2.5030434E-1,-2.0203912E-1,1.105662E0,-3.0584496E-1,9.3611836E-1,1.112755E0,-2.2113675E-1,1.4766853E-1,3.440879E-1,-2.7566046E-1,9.9007297E-1,-1.9522408E-1,1.1368995E0,1.03109E0,-2.437143E-1,1.5017608E-1,1.1567743E0,-2.162032E-1,1.0610148E0,1.5964343E-1,3.530605E-1,-2.0808357E-1,1.0859648E0,1.4408226E-1,3.3905676E-1],"categories":[],"categories_nodes":[],"categories_segments":[],"categories_sizes":[],"default_left":[0,0,0,0,0,0,0,0,0,0,0,0,0,0,0,0,0,0,0,0,0,0,0,0,0,0,0,0,0,0,0,0,0,0,0,0,0,0,0,0,0,0,0,0,0,0,0,0,0,0,0,0,0,0,0,0,0,0,0,0,0,0,0,0,0,0,0,0,0,0,0,0,0,0,0,0,0,0,0,0,0,0,0,0,0,0,0,0,0,0,0,0,0,0,0,0,0,0,0,0,0],"id":4,"left_children":[1,3,5,7,9,11,13,-1,15,17,19,21,23,-1,25,-1,27,29,-1,31,-1,33,35,37,-1,-1,-1,-1,39,-1,41,43,-1,45,-1,47,-1,-1,49,-1,-1,51,-1,-1,53,-1,-1,55,57,-1,59,-1,61,-1,-1,63,65,67,-1,-1,69,-1,71,-1,-1,-1,-1,-1,73,75,-1,77,-1,79,-1,81,-1,-1,83,-1,85,87,-1,-1,-1,-1,89,-1,91,93,-1,-1,95,-1,97,-1,-1,-1,99,-1,-1],"loss_changes":[4.364864E1,4.594696E1,3.5925037E1,4.545764E1,4.384572E1,3.362236E1,3.6571472E1,0E0,3.2815216E1,4.216491E1,1.6539354E1,4.4471767E1,2.5063877E1,0E0,1.49451275E1,0E0,2.1439651E1,3.0892506E1,0E0,7.822727E0,0E0,2.2750671E1,3.0279415E1,1.9609673E1,0E0,0E0,0E0,0E0,6.1008873E0,0E0,2.8065945E1,5.2610283E0,0E0,6.631548E0,0E0,3.8730095E1,0E0,0E0,1.5020981E1,0E0,0E0,2.0310808E1,0E0,0E0,7.676697E-2,0E0,0E0,3.8868156E1,2.3704391E1,0E0,1.4301048E1,0E0,1.2464127E1,0E0,0E0,1.27551565E1,1.5575039E1,1.9713593E1,0E0,0E0,8.666679E0,0E0,9.273296E0,0E0,0E0,0E0,0E0,0E0,1.691394E1,7.484894E0,0E0,5.789364E0,0E0,1.4505623E1,0E0,5.7787247E0,0E0,0E0,6.081047E-1,0E0,1.2847038E1,5.1674805E0,0E0,0E0,0E0,0E0,9.441872E0,0E0,7.228546E-1,6.7528915E0,0E0,0E0,6.171417E-1,0E0,5.687813E0,0E0,0E0,0E0,2.444641E0,0E0,0E0],"parents":[2147483647,0,0,1,1,2,2,3,3,4,4,5,5,6,6,8,8,9,9,10,10,11,11,12,12,14,14,16,16,17,17,19,19,21,21,22,22,23,23,28,28,30,30,31,31,33,33,35,35,38,38,41,41,44,44,47,47,48,48,50,50,52,52,55,55,56,56,57,57,60,60,62,62,68,68,69,69,71,71,73,73,75,75,78,78,80,80,81,81,86,86,88,88,89,89,92,92,94,94,98,98],"right_children":[2,4,6,8,10,12,14,-1,16,18,20,22,24,-1,26,-1,28,30,-1,32,-1,34,36,38,-1,-1,-1,-1,40,-1,42,44,-1,46,-1,48,-1,-1,50,-1,-1,52,-1,-1,54,-1,-1,56,58,-1,60,-1,62,-1,-1,64,66,68,-1,-1,70,-1,72,-1,-1,-1,-1,-1,74,76,-1,78,-1,80,-1,82,-1,-1,84,-1,86,88,-1,-1,-1,-1,90,-1,92,94,-1,-1,96,-1,98,-1,-1,-1,100,-1,-1],"split_conditions":[-1.7723787E-3,8.2991435E-4,3.3215224E-4,5.854448E-4,1.9588845E-4,2.8866895E-3,-2.027098E-3,-3.7753946E-1,-2.4249628E-3,-6.123523E-3,-2.751563E-4,3.7753198E-3,4.8204917E-3,-3.7114424E-1,1.6482772E-3,-3.4196228E-1,4.2638976E-2,-5.4590376E-3,-3.7145692E-1,1.5190753E-4,-2.9301792E-1,-7.4542133E-4,7.480338E-4,4.5460397E-3,-3.3152702E-1,3.255477E-1,-3.023217E-1,-3.132784E-1,-5.7087466E-4,-3.6484614E-1,1.9723938E-3,-3.0776468E-4,-2.2555964E-1,-1.4595942E-2,-3.6825135E-1,-1.5027741E-4,-3.425731E-1,-3.037284E-1,-3.7201897E-3,3.465441E-1,-2.154348E-1,1.2574757E-5,-3.430666E-1,-1.8770888E-1,-1.2732252E-3,3.1055295E-1,-2.39933E-1,5.0528624E-6,5.0406804E-4,-2.9399925E-1,-7.2546946E-3,-3.219688E-1,-3.5245632E-4,3.486421E-1,1.7454553E-1,-9.788309E-3,4.5701323E-4,-2.0079466E-4,-3.3712417E-1,-2.812194E-1,6.263286E-3,-2.905269E-1,4.590489E-3,-2.7993238E-1,3.1736106E-1,-3.809814E-1,2.548069E-1,-3.185646E-1,1.1510356E-2,1.961683E-3,-2.492941E-1,-6.584057E-3,-2.4683024E-1,-1.03096296E-4,-3.1233788E-1,4.146565E-3,-2.5030434E-1,-2.0203912E-1,-1.0018756E-2,-3.0584496E-1,-4.565287E-3,-1.5294288E-3,-2.2113675E-1,1.4766853E-1,3.440879E-1,-2.7566046E-1,1.0797606E-2,-1.9522408E-1,-2.5561615E-3,-6.067533E-4,-2.437143E-1,1.5017608E-1,-6.996311E-4,-2.162032E-1,-4.2602373E-3,1.5964343E-1,3.530605E-1,-2.0808357E-1,-1.0971022E-2,1.4408226E-1,3.3905676E-1],"split_indices":[800,4366,5802,3076,2726,797,1932,0,5000,5445,427,1844,4526,0,4996,0,5048,24,0,55,0,3520,4119,2543,0,0,0,0,5776,0,3148,3082,0,8,0,5151,0,0,2994,0,0,1541,0,0,3508,0,0,1598,5096,0,342,0,2969,0,0,151,3218,3941,0,0,3336,0,4045,0,0,0,0,0,2640,5068,0,868,0,3424,0,5412,0,0,2984,0,4216,2780,0,0,0,0,2540,0,6076,2632,0,0,1452,0,2996,0,0,0,4957,0,0],"split_type":[0,0,0,0,0,0,0,0,0,0,0,0,0,0,0,0,0,0,0,0,0,0,0,0,0,0,0,0,0,0,0,0,0,0,0,0,0,0,0,0,0,0,0,0,0,0,0,0,0,0,0,0,0,0,0,0,0,0,0,0,0,0,0,0,0,0,0,0,0,0,0,0,0,0,0,0,0,0,0,0,0,0,0,0,0,0,0,0,0,0,0,0,0,0,0,0,0,0,0,0,0],"sum_hessian":[7.0251996E2,2.8506375E2,4.1745618E2,1.2170032E2,1.6336343E2,3.691322E2,4.8323963E1,7.7514404E1,4.4185917E1,1.1518575E2,4.817769E1,2.4397133E2,1.2516089E2,3.222668E1,1.6097282E1,1.5160087E1,2.9025831E1,8.083439E1,3.4351357E1,4.4187737E1,3.9899526E0,4.1750362E1,2.0222096E2,1.1868115E2,6.479731E0,1.2390484E1,3.7067986E0,5.3602057E0,2.3665627E1,1.4251065E1,6.658333E1,4.2370148E1,1.8175888E0,8.156888E0,3.3593475E1,1.8868486E2,1.3536106E1,4.9064775E0,1.1377467E2,2.2442104E1,1.2235217E0,5.696398E1,9.619345E0,1.1758815E0,4.1194267E1,6.2900057E0,1.8668827E0,5.184463E1,1.3684023E2,3.4012783E0,1.103734E2,5.4447784E0,5.1519203E1,3.7823044E1,3.371224E0,1.9665745E1,3.2178886E1,1.3042384E2,6.416378E0,3.1390066E0,1.0723439E2,2.8523078E0,4.8666897E1,3.1249819E0,1.6540762E1,2.8956398E1,3.2224884E0,5.0579457E0,1.253659E2,1.0543664E2,1.797755E0,4.656238E1,2.104514E0,1.2140247E2,3.963426E0,1.040579E2,1.3787351E0,1.2725495E0,4.5289833E1,3.1310594E0,1.18271416E2,1.0298683E2,1.0710688E0,3.671567E0,4.1618267E1,2.889756E0,1.1538166E2,1.0404555E0,1.0194638E2,1.13232864E2,2.1487987E0,3.880934E0,9.8065445E1,1.5141352E0,1.1171873E2,3.9129512E0,9.415249E1,1.1905719E0,1.1052815E2,8.328077E0,1.0220007E2],"tree_param":{"num_deleted":"0","num_feature":"6144","num_nodes":"101","size_leaf_vector":"1"}},{"base_weights":[-4.6055328E-2,-3.2346833E-1,1.4184198E-1,-7.5502914E-1,-4.3882364E-3,2.3827761E-1,-5.933522E-1,-3.5446265E-1,-3.1059335E-3,-3.141253E-1,7.257334E-1,-4.9908493E-2,5.3000647E-1,-3.476761E-1,5.1666385E-1,-3.1990504E-1,5.700091E-1,4.764358E-2,-3.468386E-1,-2.6993847E-1,8.972518E-1,-7.805439E-1,2.5933638E-1,-3.103592E-1,6.3047767E-1,-2.7669078E-1,3.0462283E-1,-2.876914E-1,9.564422E-1,-3.4441566E-1,3.2130107E-1,9.9649024E-1,-2.1650599E-1,-3.4533644E-1,6.4004797E-1,4.342002E-1,-3.3561203E-1,7.092453E-1,-3.1913865E-1,3.2535762E-1,-1.9461596E-1,-3.1556216E-1,5.586702E-1,2.4775101E-1,3.2288116E-1,3.0091175E-1,-2.1777724E-1,5.830228E-1,-3.1400496E-1,8.1922805E-1,-2.9566044E-1,-2.899172E-1,7.35222E-1,-1.919101E-1,2.3701163E-1,-2.9854977E-1,6.8190193E-1,-2.7515635E-1,8.7385815E-1,-3.2977146E-1,2.8614348E-1,8.7902325E-1,-2.6133507E-1,-2.9820088E-1,7.542136E-1,-2.5889927E-1,9.218413E-1,-2.243887E-1,9.721209E-1,-2.824874E-1,8.268781E-1,9.593062E-1,-2.6259246E-1,1.0529845E0,2.36878E-1,-2.9161346E-1,9.233925E-1,-2.2272873E-1,9.894419E-1,3.298095E-1,1.3202396E-1,2.4815105E-1,-2.1016689E-1,-3.1475413E-1,2.4004935E-1,-2.6133245E-1,9.8655957E-1,1.0178214E0,-2.1673828E-1,1.0363764E0,-2.2453538E-1,-2.0867065E-1,1.0446333E0,1.0759947E0,2.87555E-1,-2.035731E-1,1.0685285E0,3.3029988E-1,1.4544442E-1,-1.9903147E-1,2.4550168E-1,1.0900435E0,3.6291447E-1,1.4116104E-1,3.311548E-1,-1.9077298E-1,2.5046209E-1],"categories":[],"categories_nodes":[],"categories_segments":[],"categories_sizes":[],"default_left":[0,0,0,0,0,0,0,0,0,0,0,0,0,0,0,0,0,0,0,0,0,0,0,0,0,0,0,0,0,0,0,0,0,0,0,0,0,0,0,0,0,0,0,0,0,0,0,0,0,0,0,0,0,0,0,0,0,0,0,0,0,0,0,0,0,0,0,0,0,0,0,0,0,0,0,0,0,0,0,0,0,0,0,0,0,0,0,0,0,0,0,0,0,0,0,0,0,0,0,0,0,0,0,0,0,0,0],"id":5,"left_children":[1,3,5,7,9,11,13,-1,15,17,19,21,23,-1,25,-1,27,29,-1,-1,31,33,35,-1,37,-1,-1,-1,39,-1,41,43,-1,-1,45,47,-1,49,-1,-1,-1,-1,51,53,-1,-1,-1,55,-1,57,59,-1,61,-1,-1,-1,63,-1,65,-1,-1,67,-1,-1,69,-1,71,-1,73,-1,75,77,-1,79,81,83,85,-1,87,-1,-1,-1,-1,-1,-1,-1,89,91,-1,93,-1,-1,95,97,99,-1,101,-1,-1,-1,-1,103,105,-1,-1,-1,-1],"loss_changes":[2.9330702E1,3.127893E1,2.393823E1,3.0963615E1,2.9991621E1,2.5032625E1,2.5213028E1,0E0,2.251482E1,2.8416725E1,1.18216095E1,3.4216427E1,2.3900146E1,0E0,1.093065E1,0E0,1.5104117E1,2.1993155E1,0E0,0E0,6.5407124E0,2.4436022E1,2.6154552E1,0E0,1.9383713E1,0E0,0E0,0E0,4.7470875E0,0E0,1.8371368E1,1.7979126E0,0E0,0E0,5.6649194E0,2.1601921E1,0E0,1.5051247E1,0E0,0E0,0E0,0E0,1.3411573E1,2.7322023E0,0E0,0E0,0E0,1.4285017E1,0E0,1.2283272E1,1.5057876E1,0E0,1.0662704E1,0E0,0E0,0E0,1.0765251E1,0E0,1.0617859E1,0E0,0E0,6.758976E0,0E0,0E0,1.0611568E1,0E0,8.594322E0,0E0,2.0159035E0,0E0,8.586769E0,6.5449066E0,0E0,4.8373413E-1,3.3825715E0,6.5302715E0,8.926624E0,0E0,6.1647797E0,0E0,0E0,0E0,0E0,0E0,0E0,0E0,6.7583237E0,5.795952E0,0E0,1.6992035E0,0E0,0E0,5.2153015E0,4.1138458E-1,2.9490829E0,0E0,1.2431641E0,0E0,0E0,0E0,0E0,3.722458E-1,2.7432485E0,0E0,0E0,0E0,0E0],"parents":[2147483647,0,0,1,1,2,2,3,3,4,4,5,5,6,6,8,8,9,9,10,10,11,11,12,12,14,14,16,16,17,17,20,20,21,21,22,22,24,24,28,28,30,30,31,31,34,34,35,35,37,37,42,42,43,43,47,47,49,49,50,50,52,52,56,56,58,58,61,61,64,64,66,66,68,68,70,70,71,71,73,73,74,74,75,75,76,76,78,78,86,86,87,87,89,89,92,92,93,93,94,94,96,96,101,101,102,102],"right_children":[2,4,6,8,10,12,14,-1,16,18,20,22,24,-1,26,-1,28,30,-1,-1,32,34,36,-1,38,-1,-1,-1,40,-1,42,44,-1,-1,46,48,-1,50,-1,-1,-1,-1,52,54,-1,-1,-1,56,-1,58,60,-1,62,-1,-1,-1,64,-1,66,-1,-1,68,-1,-1,70,-1,72,-1,74,-1,76,78,-1,80,82,84,86,-1,88,-1,-1,-1,-1,-1,-1,-1,90,92,-1,94,-1,-1,96,98,100,-1,102,-1,-1,-1,-1,104,106,-1,-1,-1,-1],"split_conditions":[-1.7723787E-3,8.2991435E-4,3.3215224E-4,5.854448E-4,1.9588845E-4,3.984283E-3,-2.027098E-3,-3.5446265E-1,-2.4249628E-3,-6.123523E-3,5.4192013E-5,-5.1900903E-3,-3.505007E-3,-3.476761E-1,1.3571873E-3,-3.1990504E-1,4.2638976E-2,-5.8713154E-4,-3.468386E-1,-2.6993847E-1,-3.0842503E-3,2.3622033E-3,9.884156E-4,-3.103592E-1,1.51487E-2,-2.7669078E-1,3.0462283E-1,-2.876914E-1,-5.7087466E-4,-3.4441566E-1,1.2574757E-5,-3.7977435E-3,-2.1650599E-1,-3.4533644E-1,-1.8945895E-5,1.462699E-3,-3.3561203E-1,4.9317745E-4,-3.1913865E-1,3.2535762E-1,-1.9461596E-1,-3.1556216E-1,-2.830259E-6,5.7548643E-3,3.2288116E-1,3.0091175E-1,-2.1777724E-1,-3.3998088E-4,-3.1400496E-1,-4.126492E-4,2.9538004E-2,-2.899172E-1,4.1763284E-3,-1.919101E-1,2.3701163E-1,-2.9854977E-1,5.2465177E-3,-2.7515635E-1,2.026034E-4,-3.2977146E-1,2.8614348E-1,-9.194747E-3,-2.6133507E-1,-2.9820088E-1,8.782656E-4,-2.5889927E-1,3.4001751E-3,-2.243887E-1,2.8015478E-4,-2.824874E-1,-1.4116308E-3,-2.0272017E-2,-2.6259246E-1,1.0906975E-4,-3.0907313E-4,6.3178566E-4,-9.359316E-4,-2.2272873E-1,1.3182431E-2,3.298095E-1,1.3202396E-1,2.4815105E-1,-2.1016689E-1,-3.1475413E-1,2.4004935E-1,-2.6133245E-1,4.998772E-4,-3.1100813E-4,-2.1673828E-1,8.3224324E-4,-2.2453538E-1,-2.0867065E-1,-1.4364684E-2,3.1778277E-3,3.9524864E-3,-2.035731E-1,-1.0065347E-3,3.3029988E-1,1.4544442E-1,-1.9903147E-1,2.4550168E-1,-6.454375E-4,5.063454E-3,1.4116104E-1,3.311548E-1,-1.9077298E-1,2.5046209E-1],"split_indices":[800,4366,5802,3076,2726,2748,1932,0,5000,5445,3227,3483,1159,0,2928,0,5048,776,0,0,1668,4160,3712,0,6028,0,0,0,5776,0,1541,1052,0,0,992,4364,0,5068,0,0,0,0,911,2,0,0,0,2022,0,3941,416,0,4908,0,0,0,5732,0,3297,0,0,4196,0,0,2135,0,3768,0,2042,0,6007,5012,0,6047,2,110,3467,0,2580,0,0,0,0,0,0,0,3604,435,0,730,0,0,4852,5644,2,0,1040,0,0,0,0,3521,0,0,0,0,0],"split_type":[0,0,0,0,0,0,0,0,0,0,0,0,0,0,0,0,0,0,0,0,0,0,0,0,0,0,0,0,0,0,0,0,0,0,0,0,0,0,0,0,0,0,0,0,0,0,0,0,0,0,0,0,0,0,0,0,0,0,0,0,0,0,0,0,0,0,0,0,0,0,0,0,0,0,0,0,0,0,0,0,0,0,0,0,0,0,0,0,0,0,0,0,0,0,0,0,0,0,0,0,0,0,0,0,0,0,0],"sum_hessian":[5.6081744E2,2.2617274E2,3.3464468E2,9.556004E1,1.3061272E2,2.9643686E2,3.8207813E1,6.06093E1,3.4950745E1,9.2107864E1,3.850485E1,1.4954091E2,1.4689597E2,2.5282156E1,1.2925655E1,1.1939653E1,2.301109E1,6.508664E1,2.7021221E1,3.2698162E0,3.523503E1,4.4018005E1,1.05522896E2,8.303112E0,1.3859285E2,3.1083338E0,9.817322E0,4.343557E0,1.8667534E1,1.1526875E1,5.3559765E1,3.35622E1,1.6728331E0,3.5061504E1,8.956501E0,9.424837E1,1.1274529E1,1.329914E2,5.6014557E0,1.7588425E1,1.0791091E0,7.3881435E0,4.617162E1,3.6271086E0,2.993509E1,7.286021E0,1.6704795E0,8.6192665E1,8.0557E0,1.2003846E2,1.2952932E1,4.3263917E0,4.184523E1,1.3075979E0,2.3195107E0,4.5474443E0,8.1645226E1,3.1797957E0,1.16858665E2,7.956242E0,4.9966903E0,3.8822567E1,3.022662E0,2.8498797E0,7.879534E1,2.6849644E0,1.141737E2,1.7205114E0,3.7102055E1,2.746202E0,7.604914E1,1.12298836E2,1.8748683E0,3.3036472E1,4.065584E0,5.880414E0,7.0168724E1,1.5427891E0,1.1075604E2,2.9974516E1,3.061956E0,2.5668747E0,1.4987097E0,3.494591E0,2.385823E0,1.9510573E0,6.821767E1,1.0934873E2,1.4073135E0,6.670506E1,1.5126091E0,1.3004748E0,1.08048256E2,6.2938225E1,3.7668376E0,1.1030573E0,1.069452E2,5.95568E1,3.381422E0,1.2597862E0,2.5070512E0,1.03252106E2,3.6930928E0,3.0156066E0,1.00236496E2,1.0736033E0,2.6194897E0],"tree_param":{"num_deleted":"0","num_feature":"6144","num_nodes":"107","size_leaf_vector":"1"}},{"base_weights":[-5.43042E-2,3.671747E-2,-5.721212E-1,-5.562282E-1,1.2028975E-1,-9.7893184E-1,6.408603E-2,-9.834101E-1,4.9234352E-1,2.2093968E-1,-5.468855E-1,-3.2207534E-1,2.0967558E-1,-2.9544395E-1,6.3196903E-1,2.2204341E-1,-3.3482334E-1,-2.559639E-1,2.7802345E-1,4.2337295E-1,-1.10831544E-1,4.0480387E-1,-3.3814615E-1,9.1485417E-1,-2.3864551E-1,4.8093787E-1,-3.0760384E-1,-7.802448E-1,2.2278075E-1,8.4230804E-1,-2.9019248E-1,3.0155188E-1,9.88862E-2,-2.9765823E-1,5.321673E-1,-1.0211816E0,2.696815E-1,4.3911114E-1,-3.2020253E-1,-1.7714363E-1,3.0148208E-1,6.1454E-1,-4.5859393E-1,-3.4413877E-1,2.134047E-1,-7.048061E-1,6.782431E-1,-2.639312E-1,6.541801E-1,-3.2307056E-1,2.624754E-1,-3.233109E-1,2.2105514E-1,-2.651965E-1,7.9438055E-1,6.907522E-1,-2.6491472E-1,-2.3992634E-1,8.821065E-1,7.4203634E-1,-4.1051966E-1,-2.167901E-1,9.57658E-1,7.74855E-1,-2.4435028E-1,2.1949068E-1,-2.8963503E-1,1.17218755E-1,1.0156882E0,-2.3695706E-1,8.040966E-1,2.1313484E-1,-1.979727E-1,9.470748E-2,1.0514183E0,8.3006865E-1,-2.2794E-1,1.4278494E-1,3.2249495E-1,-2.2183399E-1,8.5540533E-1,2.644285E-1,-2.1799757E-1],"categories":[],"categories_nodes":[],"categories_segments":[],"categories_sizes":[],"default_left":[0,0,0,0,0,0,0,0,0,0,0,0,0,0,0,0,0,0,0,0,0,0,0,0,0,0,0,0,0,0,0,0,0,0,0,0,0,0,0,0,0,0,0,0,0,0,0,0,0,0,0,0,0,0,0,0,0,0,0,0,0,0,0,0,0,0,0,0,0,0,0,0,0,0,0,0,0,0,0,0,0,0,0],"id":6,"left_children":[1,3,5,7,9,11,13,15,17,19,21,-1,-1,-1,23,-1,-1,-1,-1,25,27,29,-1,31,-1,33,-1,35,37,39,-1,-1,-1,-1,41,43,-1,45,-1,-1,-1,47,49,-1,-1,51,53,-1,55,-1,-1,-1,-1,-1,57,59,-1,-1,61,63,65,-1,67,69,-1,-1,-1,71,73,-1,75,-1,-1,-1,77,79,-1,-1,-1,-1,81,-1,-1],"loss_changes":[2.0938267E1,1.8817493E1,1.7250202E1,2.1501648E1,2.2446367E1,7.193104E0,1.6609583E1,8.525661E0,9.119135E0,1.9496773E1,2.4682278E1,0E0,0E0,0E0,8.005002E0,0E0,0E0,0E0,0E0,1.5509663E1,2.4858725E1,1.1231422E1,0E0,4.8828697E-1,0E0,1.3649101E1,0E0,1.5881788E1,2.127434E1,3.783781E0,0E0,0E0,0E0,0E0,1.4047359E1,7.9761696E0,0E0,1.8135715E1,0E0,0E0,0E0,9.825115E0,1.2089474E1,0E0,0E0,7.057752E0,1.0481386E1,0E0,9.194145E0,0E0,0E0,0E0,0E0,0E0,7.7952194E0,8.759514E0,0E0,0E0,6.5755577E0,7.956375E0,5.3363886E0,0E0,2.1622353E0,7.0842056E0,0E0,0E0,0E0,2.3827915E0,7.591553E-1,0E0,6.270813E0,0E0,0E0,0E0,4.5398712E-2,6.083229E0,0E0,0E0,0E0,0E0,6.213051E0,0E0,0E0],"parents":[2147483647,0,0,1,1,2,2,3,3,4,4,5,5,6,6,7,7,8,8,9,9,10,10,14,14,19,19,20,20,21,21,23,23,25,25,27,27,28,28,29,29,34,34,35,35,37,37,41,41,42,42,45,45,46,46,48,48,54,54,55,55,58,58,59,59,60,60,62,62,63,63,67,67,68,68,70,70,74,74,75,75,80,80],"right_children":[2,4,6,8,10,12,14,16,18,20,22,-1,-1,-1,24,-1,-1,-1,-1,26,28,30,-1,32,-1,34,-1,36,38,40,-1,-1,-1,-1,42,44,-1,46,-1,-1,-1,48,50,-1,-1,52,54,-1,56,-1,-1,-1,-1,-1,58,60,-1,-1,62,64,66,-1,68,70,-1,-1,-1,72,74,-1,76,-1,-1,-1,78,80,-1,-1,-1,-1,82,-1,-1],"split_conditions":[1.1366467E-2,-2.2821228E-3,2.1262977E-3,1.9045379E-3,-3.824155E-4,2.5228128E-2,3.0802772E-3,-2.242244E-3,2.2581432E-3,3.2191895E-4,1.6483249E-5,-3.2207534E-1,2.0967558E-1,-2.9544395E-1,-4.1695285E-4,2.2204341E-1,-3.3482334E-1,-2.559639E-1,2.7802345E-1,2.4943743E-4,-3.3011455E-3,2.3244096E-3,-3.3814615E-1,-3.5469448E-3,-2.3864551E-1,-1.0055827E-3,-3.0760384E-1,7.4491766E-3,-4.553909E-3,-2.3421294E-3,-2.9019248E-1,3.0155188E-1,9.88862E-2,-2.9765823E-1,4.1127624E-3,3.592879E-4,2.696815E-1,-1.2728575E-3,-3.2020253E-1,-1.7714363E-1,3.0148208E-1,-3.9458363E-3,5.5163186E-3,-3.4413877E-1,2.134047E-1,7.2767152E-3,4.104532E-3,-2.639312E-1,7.506521E-4,-3.2307056E-1,2.624754E-1,-3.233109E-1,2.2105514E-1,-2.651965E-1,-4.422941E-3,3.7726684E-4,-2.6491472E-1,-2.3992634E-1,-9.794324E-4,3.60319E-4,-4.125888E-3,-2.167901E-1,1.654705E-2,-2.5579287E-2,-2.4435028E-1,2.1949068E-1,-2.8963503E-1,-2.2429728E-4,-3.4015276E-4,-2.3695706E-1,-1.1186257E-3,2.1313484E-1,-1.979727E-1,9.470748E-2,1.1061375E-2,-8.473593E-4,-2.2794E-1,1.4278494E-1,3.2249495E-1,-2.2183399E-1,1.4993005E-2,2.644285E-1,-2.1799757E-1],"split_indices":[1184,4941,508,2856,700,645,1316,297,265,84,2898,0,0,0,650,0,0,0,0,2618,644,493,0,5645,0,4236,0,1291,270,499,0,0,0,0,1436,761,0,786,0,0,0,1697,670,0,0,65,4829,0,3740,0,0,0,0,0,1780,276,0,0,706,5563,388,0,2216,5605,0,0,0,0,5264,0,2667,0,0,0,5500,1296,0,0,0,0,2580,0,0],"split_type":[0,0,0,0,0,0,0,0,0,0,0,0,0,0,0,0,0,0,0,0,0,0,0,0,0,0,0,0,0,0,0,0,0,0,0,0,0,0,0,0,0,0,0,0,0,0,0,0,0,0,0,0,0,0,0,0,0,0,0,0,0,0,0,0,0,0,0,0,0,0,0,0,0,0,0,0,0,0,0,0,0,0,0],"sum_hessian":[4.4279633E2,3.7738824E2,6.540807E1,4.5921238E1,3.31467E2,3.9568222E1,2.5839851E1,3.267271E1,1.3248525E1,2.8859802E2,4.2869E1,3.779617E1,1.7720537E0,8.818184E0,1.7021667E1,2.0079153E0,3.0664797E1,2.9980285E0,1.0250496E1,1.7906424E2,1.0953379E2,1.635227E1,2.651673E1,1.450604E1,2.515628E0,1.7286351E2,6.2007165E0,3.598631E1,7.3547485E1,1.2691614E1,3.6606557E0,1.1945014E1,2.5610256E0,5.1921678E0,1.6767134E2,3.181343E1,4.172876E0,6.355079E1,9.996692E0,1.0255733E0,1.166604E1,1.5515166E2,1.2519696E1,2.9972448E1,1.8409828E0,1.0651358E1,5.2899433E1,3.4617124E0,1.5168994E2,8.685112E0,3.8345838E0,8.663042E0,1.9883157E0,3.2029624E0,4.9696472E1,1.4870282E2,2.9871264E0,2.1688137E0,4.7527657E1,1.4239781E2,6.304999E0,1.7519003E0,4.5775757E1,1.3994926E2,2.448554E0,1.9575505E0,4.3474483E0,3.1516118E0,4.2624146E1,2.0902262E0,1.3785904E2,1.8359308E0,1.3156811E0,2.5476654E0,4.007648E1,1.3606854E2,1.7904977E0,2.410399E0,3.766608E1,1.7138989E0,1.3435464E2,1.3261613E2,1.7385082E0],"tree_param":{"num_deleted":"0","num_feature":"6144","num_nodes":"83","size_leaf_vector":"1"}},{"base_weights":[-6.1090488E-2,-1.2509596E-1,5.974607E-1,-4.209802E-1,7.3443756E-2,-2.4840525E-1,7.8403413E-1,-8.6565256E-1,-5.9716843E-2,2.0106024E-1,-6.569445E-1,-2.0799838E-1,9.034376E-1,-3.273029E-1,1.0075387E-1,-3.126163E-1,1.7608114E-1,-6.722717E-1,2.9761076E-1,-3.2649484E-1,5.327356E-1,9.8367983E-1,1.363665E-1,-2.7176926E-1,7.8090894E-1,-2.9541466E-1,3.9723483E-1,-3.1692132E-1,2.3731194E-1,3.7765047E-1,-7.417765E-1,-2.0557356E-1,2.714211E-1,3.0618343E-1,1.0076948E-1,2.002754E-1,-1.7565075E-1,8.4140174E-2,2.6902395E-1,-2.888268E-1,5.8216953E-1,4.682469E-1,-5.4544806E-1,1.7900346E-1,-2.9229817E-1,6.989186E-1,-2.6125258E-1,5.187791E-1,-2.7830565E-1,-3.0758598E-1,2.4222165E-1,7.918448E-1,-2.2515611E-1,5.6854343E-1,-2.6310536E-1,-2.0382287E-1,8.7305444E-1,-2.5913778E-1,6.110728E-1,-1.8027045E-1,9.365317E-1,6.675806E-1,-4.679938E-1,9.8317E-1,3.5321724E-2,-2.3429137E-1,7.058688E-1,-2.683932E-1,1.8821897E-1,5.607414E-2,3.0802962E-1,-2.3699366E-1,7.425416E-1,7.7392465E-1,-2.2064659E-1,-2.1163546E-1,7.9965127E-1,-1.9708113E-1,2.4740537E-1],"categories":[],"categories_nodes":[],"categories_segments":[],"categories_sizes":[],"default_left":[0,0,0,0,0,0,0,0,0,0,0,0,0,0,0,0,0,0,0,0,0,0,0,0,0,0,0,0,0,0,0,0,0,0,0,0,0,0,0,0,0,0,0,0,0,0,0,0,0,0,0,0,0,0,0,0,0,0,0,0,0,0,0,0,0,0,0,0,0,0,0,0,0,0,0,0,0,0,0],"id":7,"left_children":[1,3,5,7,9,-1,11,13,15,17,19,-1,21,-1,23,-1,25,27,29,-1,31,33,35,-1,37,-1,39,-1,-1,41,43,-1,-1,-1,-1,-1,-1,-1,-1,-1,45,47,49,-1,-1,51,-1,53,-1,-1,-1,55,-1,57,-1,-1,59,-1,61,-1,63,65,67,69,-1,-1,71,-1,-1,-1,-1,-1,73,75,-1,-1,77,-1,-1],"loss_changes":[1.514387E1,1.9220657E1,9.117662E0,2.1044464E1,1.843289E1,0E0,5.6838284E0,1.2913948E1,1.7215677E1,1.4357775E1,1.5686823E1,0E0,1.5253029E0,0E0,8.945956E0,0E0,1.5833244E1,1.0403477E1,1.2915511E1,0E0,4.4734116E0,2.3723412E-1,1.8151296E0,0E0,1.9589853E-1,0E0,1.3447593E1,0E0,0E0,1.2104422E1,4.066518E0,0E0,0E0,0E0,0E0,0E0,0E0,0E0,0E0,0E0,8.365955E0,9.620365E0,9.347696E0,0E0,0E0,6.370167E0,0E0,9.228142E0,0E0,0E0,0E0,5.466196E0,0E0,7.956913E0,0E0,0E0,4.220093E0,0E0,7.5700264E0,0E0,1.3302498E0,6.8470116E0,3.6040654E0,1.0469856E0,0E0,0E0,6.6820793E0,0E0,0E0,0E0,0E0,0E0,5.6238976E0,4.643837E0,0E0,0E0,4.400673E0,0E0,0E0],"parents":[2147483647,0,0,1,1,2,2,3,3,4,4,6,6,7,7,8,8,9,9,10,10,12,12,14,14,16,16,17,17,18,18,20,20,21,21,22,22,24,24,26,26,29,29,30,30,40,40,41,41,42,42,45,45,47,47,51,51,53,53,56,56,58,58,60,60,61,61,62,62,63,63,66,66,72,72,73,73,76,76],"right_children":[2,4,6,8,10,-1,12,14,16,18,20,-1,22,-1,24,-1,26,28,30,-1,32,34,36,-1,38,-1,40,-1,-1,42,44,-1,-1,-1,-1,-1,-1,-1,-1,-1,46,48,50,-1,-1,52,-1,54,-1,-1,-1,56,-1,58,-1,-1,60,-1,62,-1,64,66,68,70,-1,-1,72,-1,-1,-1,-1,-1,74,76,-1,-1,78,-1,-1],"split_conditions":[4.37979E-3,-4.6588614E-4,-6.4569165E-4,-1.6091148E-3,1.0125205E-3,-2.4840525E-1,-3.869979E-3,5.342084E-3,4.018779E-4,1.5135746E-3,9.969981E-3,-2.0799838E-1,3.5212212E-4,-3.273029E-1,2.925502E-3,-3.126163E-1,-3.230689E-3,6.8528033E-3,1.0961951E-2,-3.2649484E-1,-3.0295094E-3,3.6356458E-4,1.6104793E-3,-2.7176926E-1,1.6221771E-4,-2.9541466E-1,5.578901E-5,-3.1692132E-1,2.3731194E-1,-3.824155E-4,-4.736346E-3,-2.0557356E-1,2.714211E-1,3.0618343E-1,1.0076948E-1,2.002754E-1,-1.7565075E-1,8.4140174E-2,2.6902395E-1,-2.888268E-1,8.72019E-3,9.414437E-3,1.19654555E-2,1.7900346E-1,-2.9229817E-1,1.6546886E-3,-2.6125258E-1,3.60319E-4,-2.7830565E-1,-3.0758598E-1,2.4222165E-1,-3.0858384E-4,-2.2515611E-1,-5.320964E-4,-2.6310536E-1,-2.0382287E-1,-4.687946E-3,-2.5913778E-1,8.338236E-4,-1.8027045E-1,1.839025E-3,-7.2513507E-3,1.0385212E-2,-7.934414E-4,3.5321724E-2,-2.3429137E-1,-6.607516E-4,-2.683932E-1,1.8821897E-1,5.607414E-2,3.0802962E-1,-2.3699366E-1,1.3479462E-3,-5.104876E-3,-2.2064659E-1,-2.1163546E-1,-5.877103E-4,-1.9708113E-1,2.4740537E-1],"split_indices":[2929,44,559,3259,2631,0,3842,1480,6138,3343,2849,0,4338,0,1520,0,317,3934,1184,0,837,1003,0,0,569,0,3845,0,0,700,72,0,0,0,0,0,0,0,0,0,4388,4320,332,0,0,21,0,5563,0,0,0,338,0,5698,0,0,3871,0,694,0,2633,2684,10,4087,0,0,4072,0,0,0,0,0,4224,3657,0,0,1476,0,0],"split_type":[0,0,0,0,0,0,0,0,0,0,0,0,0,0,0,0,0,0,0,0,0,0,0,0,0,0,0,0,0,0,0,0,0,0,0,0,0,0,0,0,0,0,0,0,0,0,0,0,0,0,0,0,0,0,0,0,0,0,0,0,0,0,0,0,0,0,0,0,0,0,0,0,0,0,0,0,0,0,0],"sum_hessian":[3.565045E2,3.2566293E2,3.0841576E1,1.3032254E2,1.9534038E2,3.1715949E0,2.7669981E1,5.7791668E1,7.2530876E1,1.6690309E2,2.8437283E1,1.7096866E0,2.5960293E1,4.6758976E1,1.1032693E1,1.3378134E1,5.9152744E1,1.6021385E1,1.5088171E2,2.0932482E1,7.5048013E0,2.3246162E1,2.7141304E0,4.3147807E0,6.717912E0,8.913698E0,5.0239048E1,1.2910368E1,3.111017E0,1.4068472E2,1.0196993E1,1.558856E0,5.9459453E0,2.144782E1,1.7983431E0,1.6068561E0,1.1072743E0,1.905777E0,4.812135E0,5.5103765E0,4.4728672E1,1.2856007E2,1.21246395E1,1.2776461E0,8.919347E0,4.1882416E1,2.8462543E0,1.24675255E2,3.8848288E0,9.128881E0,2.9957576E0,3.978539E1,2.0970263E0,1.209555E2,3.7197514E0,1.6958566E0,3.8089535E1,2.931043E0,1.1802446E2,1.2230756E0,3.686646E1,1.1251375E2,5.510707E0,3.468978E1,2.1766768E0,2.3978817E0,1.1011587E2,4.0978684E0,1.4128387E0,2.0751574E0,3.2614624E1,2.1434996E0,1.0797237E2,1.0619393E2,1.778434E0,1.3635516E0,1.0483038E2,1.3447013E0,1.0348568E2],"tree_param":{"num_deleted":"0","num_feature":"6144","num_nodes":"79","size_leaf_vector":"1"}},{"base_weights":[-7.057893E-2,-3.1545758E-1,9.27911E-2,-6.9729036E-1,-2.8242145E-2,-2.2920437E-1,2.695122E-1,-3.1935197E-1,-2.5194751E-2,-3.022774E-1,6.268872E-1,-7.665547E-1,1.8502104E-1,3.6589265E-1,-7.452934E-1,-2.7801168E-1,4.9172708E-1,3.5494062E-1,-6.513302E-1,7.9019505E-1,-2.0626378E-1,3.250675E-1,-3.1989023E-1,-2.8683075E-1,4.7970298E-1,4.2658308E-1,-2.610388E-1,-2.9836828E-1,1.752961E-1,-2.226046E-1,8.2843E-1,7.2112703E-1,-2.500554E-1,1.0752144E-1,-3.163572E-1,9.074162E-1,5.488301E-3,2.4879014E-1,-2.0851816E-1,-2.538247E-1,6.7707217E-1,-2.707602E-1,4.8022273E-1,2.820518E-1,4.4715434E-2,-1.6703598E-1,8.749614E-1,6.794448E-1,-2.633791E-1,6.743176E-2,2.924938E-1,-1.7361175E-1,1.7405477E-1,8.0616E-1,-2.0921342E-1,5.334559E-1,-2.462916E-1,2.8646848E-1,8.094421E-2,2.6602098E-1,1.4741585E-2,-4.1089512E-2,9.0023905E-1,-5.263839E-1,5.9244287E-1,1.6819754E-1,-1.7840369E-1,2.448847E-2,2.935191E-1,1.4639807E-1,-2.6010388E-1,-2.3485783E-1,6.3827795E-1,6.778169E-1,-2.162914E-1,7.122508E-1,-2.0802583E-1,7.4187344E-1,-1.951457E-1,-1.8307002E-1,7.712348E-1,7.9800195E-1,-1.7322992E-1,-1.6375083E-1,8.2254165E-1,2.7666894E-1,1.439295E-1],"categories":[],"categories_nodes":[],"categories_segments":[],"categories_sizes":[],"default_left":[0,0,0,0,0,0,0,0,0,0,0,0,0,0,0,0,0,0,0,0,0,0,0,0,0,0,0,0,0,0,0,0,0,0,0,0,0,0,0,0,0,0,0,0,0,0,0,0,0,0,0,0,0,0,0,0,0,0,0,0,0,0,0,0,0,0,0,0,0,0,0,0,0,0,0,0,0,0,0,0,0,0,0,0,0,0,0],"id":8,"left_children":[1,3,5,7,9,11,13,-1,15,17,19,21,23,25,27,-1,29,31,33,35,-1,37,-1,-1,39,41,-1,-1,-1,-1,43,45,-1,47,-1,49,51,-1,-1,-1,53,-1,55,-1,-1,-1,57,59,-1,-1,-1,-1,-1,61,-1,63,-1,-1,-1,-1,-1,65,67,69,71,-1,-1,-1,-1,-1,-1,-1,73,75,-1,77,-1,79,-1,-1,81,83,-1,-1,85,-1,-1],"loss_changes":[1.1580885E1,1.2677312E1,9.961356E0,1.2229343E1,1.2238918E1,1.3983805E1,1.1303822E1,0E0,9.109609E0,1.1241907E1,4.862182E0,9.2679825E0,1.2538288E1,8.148132E0,3.9324865E0,0E0,5.7889786E0,8.128422E0,9.812675E0,1.6840057E0,0E0,3.9919813E0,0E0,0E0,8.217737E0,7.526476E0,0E0,0E0,0E0,0E0,6.386013E-1,3.1919074E0,0E0,7.307124E0,0E0,5.173731E-1,1.4747308E0,0E0,0E0,0E0,5.172678E0,0E0,7.1072617E0,0E0,0E0,0E0,3.5517883E-1,1.0144668E0,0E0,0E0,0E0,0E0,0E0,1.9673967E0,0E0,6.132553E0,0E0,0E0,0E0,0E0,0E0,1.458296E0,1.3175774E0,2.3021677E0,6.089056E0,0E0,0E0,0E0,0E0,0E0,0E0,0E0,5.1299133E0,4.480587E0,0E0,3.8273926E0,0E0,3.7086525E0,0E0,0E0,3.358574E0,3.0584335E0,0E0,0E0,2.2265701E0,0E0,0E0],"parents":[2147483647,0,0,1,1,2,2,3,3,4,4,5,5,6,6,8,8,9,9,10,10,11,11,12,12,13,13,14,14,16,16,17,17,18,18,19,19,21,21,24,24,25,25,30,30,31,31,33,33,35,35,36,36,40,40,42,42,46,46,47,47,53,53,55,55,61,61,62,62,63,63,64,64,72,72,73,73,75,75,77,77,80,80,81,81,84,84],"right_children":[2,4,6,8,10,12,14,-1,16,18,20,22,24,26,28,-1,30,32,34,36,-1,38,-1,-1,40,42,-1,-1,-1,-1,44,46,-1,48,-1,50,52,-1,-1,-1,54,-1,56,-1,-1,-1,58,60,-1,-1,-1,-1,-1,62,-1,64,-1,-1,-1,-1,-1,66,68,70,72,-1,-1,-1,-1,-1,-1,-1,74,76,-1,78,-1,80,-1,-1,82,84,-1,-1,86,-1,-1],"split_conditions":[-1.7723787E-3,8.2991435E-4,-1.5027741E-4,5.854448E-4,1.9588845E-4,1.9843811E-4,5.0406804E-4,-3.1935197E-1,-2.4249628E-3,-2.3957284E-3,-2.751563E-4,1.0969476E-5,-1.0380391E-3,1.4233032E-2,5.7837535E-3,-2.7801168E-1,4.2638976E-2,1.964491E-4,-1.6462835E-3,1.7230397E-3,-2.0626378E-1,-6.201198E-4,-3.1989023E-1,-2.8683075E-1,-9.150644E-3,-2.2654072E-3,-2.610388E-1,-2.9836828E-1,1.752961E-1,-2.226046E-1,4.4902386E-3,4.174777E-4,-2.500554E-1,-8.838235E-3,-3.163572E-1,3.5082214E-3,4.7406494E-3,2.4879014E-1,-2.0851816E-1,-2.538247E-1,6.1234585E-3,-2.707602E-1,8.293885E-3,2.820518E-1,4.4715434E-2,-1.6703598E-1,-4.5334233E-4,8.233208E-4,-2.633791E-1,6.743176E-2,2.924938E-1,-1.7361175E-1,1.7405477E-1,-2.838953E-4,-2.0921342E-1,-5.851242E-3,-2.462916E-1,2.8646848E-1,8.094421E-2,2.6602098E-1,1.4741585E-2,-1.5195085E-2,-5.994423E-3,-1.5892167E-2,-2.8044457E-4,1.6819754E-1,-1.7840369E-1,2.448847E-2,2.935191E-1,1.4639807E-1,-2.6010388E-1,-2.3485783E-1,3.9924908E-4,3.4001751E-3,-2.162914E-1,3.7351108E-4,-2.0802583E-1,-5.905744E-3,-1.951457E-1,-1.8307002E-1,2.8287098E-3,-2.0869111E-3,-1.7322992E-1,-1.6375083E-1,-1.8986901E-3,2.7666894E-1,1.439295E-1],"split_indices":[800,4366,5151,3076,2726,4270,5096,0,5000,1612,427,4203,801,2640,6,0,5048,2868,5093,2629,0,1072,0,0,4819,516,0,0,0,0,2612,5140,0,2343,0,3764,8,0,0,0,5217,0,2000,0,0,0,1461,165,0,0,0,0,0,2950,0,2000,0,0,0,0,0,10,1964,1172,1866,0,0,0,0,0,0,0,3218,3768,0,2436,0,3841,0,0,4912,5642,0,0,4790,0,0],"split_type":[0,0,0,0,0,0,0,0,0,0,0,0,0,0,0,0,0,0,0,0,0,0,0,0,0,0,0,0,0,0,0,0,0,0,0,0,0,0,0,0,0,0,0,0,0,0,0,0,0,0,0,0,0,0,0,0,0,0,0,0,0,0,0,0,0,0,0,0,0,0,0,0,0,0,0,0,0,0,0,0,0,0,0,0,0,0,0],"sum_hessian":[2.877482E2,1.14776474E2,1.7297173E2,4.8659428E1,6.611705E1,6.1187603E1,1.1178413E2,3.1089201E1,1.7570225E1,4.699713E1,1.9119917E1,2.6264992E1,3.492261E1,1.0267234E2,9.111789E0,6.114248E0,1.14559765E1,1.6296402E1,3.0700731E1,1.7361696E1,1.7582207E0,5.640135E0,2.0624857E1,6.7067876E0,2.8215822E1,9.849116E1,4.181181E0,7.885465E0,1.2263235E0,2.1980698E0,9.257907E0,1.2758494E1,3.537907E0,1.0906644E1,1.9794086E1,1.4969191E1,2.3925052E0,3.8996584E0,1.7404765E0,3.2302828E0,2.498554E1,3.2067366E0,9.5284424E1,7.620614E0,1.637293E0,1.0893972E0,1.1669097E1,7.097827E0,3.8088176E0,1.7377867E0,1.3231404E1,1.182985E0,1.2095202E0,2.3218348E1,1.7671912E0,9.2106285E1,3.1781342E0,9.797057E0,1.8720405E0,5.0350814E0,2.0627456E0,2.3768003E0,2.0841549E1,4.4382863E0,8.7668E1,1.1327449E0,1.2440555E0,1.9946254E0,1.8846922E1,1.006965E0,3.4313211E0,2.3088877E0,8.5359116E1,8.3433464E1,1.9256523E0,8.1858444E1,1.5750172E0,8.0562805E1,1.2956393E0,1.2917874E0,7.927102E1,7.812869E1,1.1423222E0,1.0201567E0,7.7108536E1,5.842625E1,1.8682287E1],"tree_param":{"num_deleted":"0","num_feature":"6144","num_nodes":"87","size_leaf_vector":"1"}},{"base_weights":[-7.879954E-2,-1.7343561E-1,3.239336E-1,-8.6047456E-2,-9.203855E-1,5.10883E-1,-6.732273E-1,-6.4728725E-1,1.6823351E-2,1.4704117E-1,-3.065332E-1,-3.7561792E-1,6.983074E-1,1.12395324E-1,-2.6771584E-1,-9.1890526E-1,3.8029966E-1,2.4810737E-1,-2.6053876E-1,-2.617268E-1,2.0541312E-1,7.969978E-1,-1.9941853E-1,1.5909092E-1,-3.0550736E-1,2.4387218E-1,-1.9095054E-1,-2.6563588E-1,3.335577E-1,8.1852614E-4,-9.205835E-1,8.7023944E-1,-1.6881368E-1,4.6021605E-1,-4.4373998E-1,3.665426E-1,-6.0167396E-1,-3.0868286E-1,1.50062E-1,-3.0217692E-4,9.2578524E-1,-5.699097E-1,5.479973E-1,-2.873451E-1,1.8198998E-1,-6.755463E-1,6.809009E-1,-3.0103716E-1,3.2352826E-1,4.089597E-2,9.6433324E-1,1.1332975E-1,-2.577278E-1,-2.3371018E-1,6.097999E-1,-2.86796E-1,1.6320434E-1,8.014469E-1,-2.0609884E-1,-2.0903252E-1,2.3862676E-1,2.9633483E-1,8.4531896E-2,-2.0277627E-1,6.607276E-1,9.1043246E-1,-1.0010044E-1,-1.947854E-1,7.090042E-1,9.6050245E-1,4.5646075E-2,-1.8436277E-1,1.603629E-1,-1.8924823E-1,7.518593E-1,8.437321E-2,2.967834E-1,-1.7753424E-1,7.9417765E-1,8.3394927E-1,-1.6973157E-1,8.7869704E-1,-1.0359943E-1,2.7897608E-1,8.453019E-2,1.4731708E-1,-1.7691796E-1],"categories":[],"categories_nodes":[],"categories_segments":[],"categories_sizes":[],"default_left":[0,0,0,0,0,0,0,0,0,0,0,0,0,0,0,0,0,0,0,0,0,0,0,0,0,0,0,0,0,0,0,0,0,0,0,0,0,0,0,0,0,0,0,0,0,0,0,0,0,0,0,0,0,0,0,0,0,0,0,0,0,0,0,0,0,0,0,0,0,0,0,0,0,0,0,0,0,0,0,0,0,0,0,0,0,0,0],"id":9,"left_children":[1,3,5,7,9,11,13,15,17,-1,-1,19,21,-1,-1,23,25,27,29,-1,-1,31,-1,-1,-1,-1,-1,-1,33,35,37,39,-1,41,43,45,47,-1,-1,-1,49,51,53,-1,-1,55,57,-1,59,-1,61,-1,-1,-1,63,-1,-1,65,-1,-1,-1,-1,-1,-1,67,69,71,-1,73,75,-1,-1,-1,-1,77,-1,-1,-1,79,81,-1,83,85,-1,-1,-1,-1],"loss_changes":[8.94603E0,1.2291604E1,8.682409E0,9.870468E0,3.3249454E0,6.6153383E0,2.055222E0,7.7397633E0,9.385195E0,0E0,0E0,4.4551225E0,4.8226757E0,0E0,0E0,3.6005993E0,3.263518E0,8.019262E0,1.1481802E1,0E0,0E0,3.498539E0,0E0,0E0,0E0,0E0,0E0,0E0,7.5759735E0,1.0945856E1,3.421216E0,1.4073372E0,0E0,6.1788235E0,6.521058E0,1.0585882E1,7.299996E0,0E0,0E0,0E0,6.999817E-1,1.8549764E0,5.419855E0,0E0,0E0,3.1417754E0,4.548439E0,0E0,3.6538215E0,0E0,1.3596344E-1,0E0,0E0,0E0,4.2555084E0,0E0,0E0,2.3257532E0,0E0,0E0,0E0,0E0,0E0,0E0,4.031006E0,6.2796974E-1,1.4234575E0,0E0,3.6283436E0,9.1934204E-2,0E0,0E0,0E0,0E0,3.5225105E0,0E0,0E0,0E0,3.3099098E0,2.2468224E0,0E0,1.2408295E0,1.2248629E0,0E0,0E0,0E0,0E0],"parents":[2147483647,0,0,1,1,2,2,3,3,4,4,5,5,6,6,7,7,8,8,11,11,12,12,15,15,16,16,17,17,18,18,21,21,28,28,29,29,30,30,31,31,33,33,34,34,35,35,36,36,40,40,41,41,42,42,45,45,46,46,48,48,50,50,54,54,57,57,64,64,65,65,66,66,68,68,69,69,74,74,78,78,79,79,81,81,82,82],"right_children":[2,4,6,8,10,12,14,16,18,-1,-1,20,22,-1,-1,24,26,28,30,-1,-1,32,-1,-1,-1,-1,-1,-1,34,36,38,40,-1,42,44,46,48,-1,-1,-1,50,52,54,-1,-1,56,58,-1,60,-1,62,-1,-1,-1,64,-1,-1,66,-1,-1,-1,-1,-1,-1,68,70,72,-1,74,76,-1,-1,-1,-1,78,-1,-1,-1,80,82,-1,84,86,-1,-1,-1,-1],"split_conditions":[1.9684923E-3,5.723043E-3,-1.7971186E-3,3.6269873E-3,-1.22842435E-2,-1.226959E-2,-4.722672E-3,-1.4345617E-3,-1.1380615E-3,1.4704117E-1,-3.065332E-1,2.440182E-2,5.0509134E-3,1.12395324E-1,-2.6771584E-1,-3.4272547E-3,-7.497346E-5,-9.4945375E-5,3.882676E-5,-2.617268E-1,2.0541312E-1,2.887314E-3,-1.9941853E-1,1.5909092E-1,-3.0550736E-1,2.4387218E-1,-1.9095054E-1,-2.6563588E-1,1.2942376E-3,1.4457139E-4,4.8557878E-4,-1.8924357E-2,-1.6881368E-1,-5.844044E-5,-7.8887595E-3,-2.4592326E-4,5.302167E-4,-3.0868286E-1,1.50062E-1,-3.0217692E-4,-3.456835E-3,-8.173478E-3,-9.480388E-3,-2.873451E-1,1.8198998E-1,8.500101E-3,-8.270427E-5,-3.0103716E-1,-2.8817474E-3,4.089597E-2,-3.0392513E-4,1.1332975E-1,-2.577278E-1,-2.3371018E-1,-1.0658289E-2,-2.86796E-1,1.6320434E-1,6.7840456E-3,-2.0609884E-1,-2.0903252E-1,2.3862676E-1,2.9633483E-1,8.4531896E-2,-2.0277627E-1,-3.7201897E-3,-7.3643425E-4,5.029778E-3,-1.947854E-1,-2.4295915E-3,-4.6617636E-3,4.5646075E-2,-1.8436277E-1,1.603629E-1,-1.8924823E-1,-5.433888E-3,8.437321E-2,2.967834E-1,-1.7753424E-1,5.6360516E-4,-9.982559E-4,-1.6973157E-1,2.1127759E-2,-1.4014217E-2,2.7897608E-1,8.453019E-2,1.4731708E-1,-1.7691796E-1],"split_indices":[298,1404,4793,901,3894,4281,3919,1636,4381,0,0,5520,4770,0,0,3592,888,2906,1407,0,0,3193,0,0,0,0,0,0,6074,5162,455,4722,0,4271,4457,3879,4660,0,0,0,2892,2757,5820,0,0,135,2086,0,2605,0,2193,0,0,0,4183,0,0,4843,0,0,0,0,0,0,2994,3206,0,0,2656,3871,0,0,0,0,2372,0,0,0,6126,3272,0,5704,5176,0,0,0,0],"split_type":[0,0,0,0,0,0,0,0,0,0,0,0,0,0,0,0,0,0,0,0,0,0,0,0,0,0,0,0,0,0,0,0,0,0,0,0,0,0,0,0,0,0,0,0,0,0,0,0,0,0,0,0,0,0,0,0,0,0,0,0,0,0,0,0,0,0,0,0,0,0,0,0,0,0,0,0,0,0,0,0,0,0,0,0,0,0,0],"sum_hessian":[2.3224927E2,1.8851947E2,4.372981E1,1.6977242E2,1.8747044E1,3.723634E1,6.493468E0,2.5477999E1,1.4429442E2,1.0000906E0,1.7746952E1,6.3233504E0,3.0912989E1,1.0004511E0,5.4930167E0,2.0235098E1,5.2428994E0,7.874052E1,6.55539E1,4.426554E0,1.8967962E0,2.9213097E1,1.6998925E0,1.0212579E0,1.921384E1,3.8187165E0,1.4241829E0,4.8632884E0,7.387723E1,4.7674885E1,1.7879019E1,2.8061527E1,1.1515707E0,6.3876648E1,1.0000583E1,2.9910364E1,1.7764523E1,1.686832E1,1.0106992E0,1.7406683E0,2.6320858E1,4.5844975E0,5.929215E1,6.7735624E0,3.2270207E0,6.6654873E0,2.3244877E1,1.2326827E1,5.4376955E0,1.4365516E0,2.4884306E1,1.0002563E0,3.5842412E0,2.122054E0,5.7170097E1,5.595023E0,1.0704641E0,2.1742886E1,1.5019907E0,1.5689185E0,3.8687768E0,2.3625477E1,1.2588295E0,1.7106571E0,5.545944E1,1.9389132E1,2.3537543E0,1.5286776E0,5.393076E1,1.793798E1,1.4511513E0,1.3174785E0,1.0362757E0,1.2462958E0,5.2684464E1,1.1668847E0,1.6771095E1,1.2121972E0,5.1472267E1,5.038553E1,1.0867412E0,4.8150166E1,2.2353618E0,4.3831127E1,4.31904E0,1.0008851E0,1.2344766E0],"tree_param":{"num_deleted":"0","num_feature":"6144","num_nodes":"87","size_leaf_vector":"1"}}]},"name":"gbtree"},"learner_model_param":{"base_score":"5E-1","boost_from_average":"1","num_class":"0","num_feature":"6144","num_target":"1"},"objective":{"name":"binary:logistic","reg_loss_param":{"scale_pos_weight":"22.6964264"}}},"version":[2,0,3]}