{"learner":{"attributes":{},"feature_names":[],"feature_types":[],"gradient_booster":{"model":{"gbtree_model_param":{"num_parallel_tree":"1","num_trees":"10"},"iteration_indptr":[0,1,2,3,4,5,6,7,8,9,10],"tree_info":[0,0,0,0,0,0,0,0,0,0],"trees":[{"base_weights":[-6.200938E-8,-5.951602E-1,3.5514966E-1,-1.1164562E0,3.7323725E-1,4.9056163E-1,-5.8651686E-1,-2.7787262E-1,-5.9605914E-1,-1.4502767E0,1.1092701E0,8.0071E-1,-3.780592E-1,4.5341313E-1,-5.876289E-1,5.1657104E-1,-5.8588237E-1,-5.555556E-1,1.4703892E0,-5.733334E-1,9.129828E-1,-1.2721126E0,6.0296565E-1,1.1686797E0,-5.771429E-1,-5.2000004E-1,1.6934524E0,1.0935642E0,-6.453504E-1,9.261844E-1,-5.924765E-1,-5.657143E-1,1.1437652E0,-5.4E-1,1.5361376E0,-4.666667E-1,1.8258665E0,1.222575E0,-1.0420431E0,-5.836735E-1,1.7083874E0,-5.172414E-1,5.5460334E-1,1.5709227E0,-5.4285717E-1,1.7666733E0,-4.9565217E-1,-4.0000004E-1,1.9058836E0,-5.466667E-1,1.2970014E0,-5.724138E-1,5.1657104E-1,5.6934905E-1,-3E-1,1.8312042E0,-4.9565217E-1,1.9005105E0,-4.2857146E-1,5.9043837E-1,-3.6E-1,-5.4285717E-1,1.3691187E0,5.810778E-1,-3.818182E-1,-3.3333337E-1,5.9131813E-1,1.4203076E0,-5.2000004E-1,-5.172414E-1,1.4710163E0,-5.1111114E-1,1.5190146E0,1.5683591E0,-5.1111114E-1,1.6079525E0,-4.909091E-1,1.6461616E0,-4.8571432E-1,5.0486094E-1,-4.8000002E-1],"categories":[],"categories_nodes":[],"categories_segments":[],"categories_sizes":[],"default_left":[0,0,0,0,0,0,0,0,0,0,0,0,0,0,0,0,0,0,0,0,0,0,0,0,0,0,0,0,0,0,0,0,0,0,0,0,0,0,0,0,0,0,0,0,0,0,0,0,0,0,0,0,0,0,0,0,0,0,0,0,0,0,0,0,0,0,0,0,0,0,0,0,0,0,0,0,0,0,0,0,0],"id":0,"left_children":[1,3,5,7,9,11,-1,13,-1,15,17,19,21,23,-1,-1,-1,-1,25,-1,27,29,31,33,-1,-1,35,37,39,41,-1,-1,43,-1,45,-1,47,49,51,-1,53,-1,-1,55,-1,57,-1,-1,59,-1,61,-1,-1,-1,-1,63,-1,65,-1,-1,-1,-1,67,-1,-1,-1,-1,69,-1,-1,71,-1,73,75,-1,77,-1,79,-1,-1,-1],"loss_changes":[2.7002637E2,2.4143225E2,2.5124548E2,2.2616449E2,2.2684836E2,2.0412448E2,0E0,1.9677425E2,0E0,8.100382E1,1.3117601E2,1.715838E2,1.759591E2,1.924479E2,0E0,0E0,0E0,0E0,7.9848495E1,0E0,1.5163223E2,1.6378236E2,1.3124994E2,9.724399E1,0E0,0E0,4.634619E1,1.3379865E2,1.7570131E2,6.693885E1,0E0,0E0,1.03029305E2,0E0,5.996315E1,0E0,2.7220093E1,1.0526013E2,7.0166435E1,0E0,1.2454662E1,0E0,0E0,6.1680084E1,0E0,3.387274E1,0E0,0E0,2.0848602E1,0E0,1.019068E2,0E0,0E0,0E0,0E0,2.3850082E1,0E0,1.7139221E1,0E0,0E0,0E0,0E0,7.143555E1,0E0,0E0,0E0,0E0,7.075134E1,0E0,0E0,6.6826355E1,0E0,6.879602E1,5.4662354E1,0E0,5.267151E1,0E0,5.0513306E1,0E0,0E0,0E0],"parents":[2147483647,0,0,1,1,2,2,3,3,4,4,5,5,7,7,9,9,10,10,11,11,12,12,13,13,18,18,20,20,21,21,22,22,23,23,26,26,27,27,28,28,29,29,32,32,34,34,36,36,37,37,38,38,40,40,43,43,45,45,48,48,50,50,55,55,57,57,62,62,67,67,70,70,72,72,73,73,75,75,77,77],"right_children":[2,4,6,8,10,12,-1,14,-1,16,18,20,22,24,-1,-1,-1,-1,26,-1,28,30,32,34,-1,-1,36,38,40,42,-1,-1,44,-1,46,-1,48,50,52,-1,54,-1,-1,56,-1,58,-1,-1,60,-1,62,-1,-1,-1,-1,64,-1,66,-1,-1,-1,-1,68,-1,-1,-1,-1,70,-1,-1,72,-1,74,76,-1,78,-1,80,-1,-1,-1],"split_conditions":[-2.2664324E-3,-4.7267783E-3,5.1045264E-3,-1.7860818E-4,6.5486133E-3,3.2303582E-3,-5.8651686E-1,1.1278923E-4,-5.9605914E-1,-3.689019E-3,-4.8920093E-3,-3.6631902E-3,-2.2403484E-3,5.198775E-4,-5.876289E-1,5.1657104E-1,-5.8588237E-1,-5.555556E-1,-1.9108377E-3,-5.733334E-1,5.5445987E-3,-1.7783808E-4,1.9369082E-4,-3.373887E-4,-5.771429E-1,-5.2000004E-1,-7.6127984E-4,2.0402647E-4,1.3159917E-3,1.1004523E-3,-5.924765E-1,-5.657143E-1,-4.5729935E-4,-5.4E-1,2.4124552E-3,-4.666667E-1,9.0338447E-4,-2.7054138E-3,5.089919E-3,-5.836735E-1,-9.8334276E-5,-5.172414E-1,5.5460334E-1,3.458477E-4,-5.4285717E-1,1.4105832E-4,-4.9565217E-1,-4.0000004E-1,1.5421634E-2,-5.466667E-1,-6.0333044E-4,-5.724138E-1,5.1657104E-1,5.6934905E-1,-3E-1,-3.5559168E-4,-4.9565217E-1,-1.2901169E-4,-4.2857146E-1,5.9043837E-1,-3.6E-1,-5.4285717E-1,1.2586318E-2,5.810778E-1,-3.818182E-1,-3.3333337E-1,5.9131813E-1,-1.6102677E-3,-5.2000004E-1,-5.172414E-1,-3.1527683E-2,-5.1111114E-1,1.6673002E-4,1.4907428E-2,-5.1111114E-1,1.929907E-2,-4.909091E-1,4.2692455E-4,-4.8571432E-1,5.0486094E-1,-4.8000002E-1],"split_indices":[499,5445,2128,4970,1025,5009,0,4201,0,119,27,5326,2827,4781,0,0,0,0,1345,0,3536,3233,2121,3910,0,0,1084,5570,5070,2960,0,0,1658,0,2191,0,584,248,106,0,3,0,0,4482,0,2279,0,0,3904,0,2249,0,0,0,0,5425,0,2946,0,0,0,0,3547,0,0,0,0,3010,0,0,2664,0,5457,336,0,6032,0,1634,0,0,0],"split_type":[0,0,0,0,0,0,0,0,0,0,0,0,0,0,0,0,0,0,0,0,0,0,0,0,0,0,0,0,0,0,0,0,0,0,0,0,0,0,0,0,0,0,0,0,0,0,0,0,0,0,0,0,0,0,0,0,0,0,0,0,0,0,0,0,0,0,0,0,0,0,0,0,0,0,0,0,0,0,0,0,0],"sum_hessian":[1.2755E3,4.764272E2,7.990728E2,3.0960922E2,1.6681796E2,7.555728E2,4.35E1,1.5835922E2,1.5125E2,4.7691746E1,1.19126205E2,5.568301E2,1.987427E2,1.1085922E2,4.75E1,6.191747E0,4.15E1,1.25E1,1.06626205E2,2.15E1,5.353301E2,1.0382524E2,9.491747E1,8.560922E1,2.525E1,6.5E0,1.00126205E2,4.8000482E2,5.532524E1,2.5075241E1,7.875E1,1.65E1,7.841747E1,9E0,7.660922E1,3.5E0,9.6626205E1,4.5306308E2,2.6941748E1,3.575E1,1.9575241E1,6.25E0,1.8825241E1,6.891747E1,9.5E0,7.185922E1,4.75E0,2E0,9.4626205E1,1.025E1,4.4281308E2,2.075E1,6.191747E0,1.8575241E1,1E0,6.416747E1,4.75E0,6.935922E1,2.5E0,9.3126205E1,1.5E0,9.5E0,4.3331308E2,6.2417473E1,1.75E0,1.25E0,6.810922E1,4.2681308E2,6.5E0,6.25E0,4.2056308E2,5.75E0,4.1481308E2,4.0906308E2,5.75E0,4.0456308E2,4.5E0,4.0031308E2,4.25E0,3.9631308E2,4E0],"tree_param":{"num_deleted":"0","num_feature":"6144","num_nodes":"81","size_leaf_vector":"1"}},{"base_weights":[-1.1092808E-2,-4.6864107E-1,2.5858405E-1,-7.9365605E-1,4.5577243E-1,3.6144036E-1,-4.5548102E-1,1.533176E-1,-1.2359633E0,-4.4331536E-1,8.3420175E-1,4.4819248E-1,-4.7012103E-1,-4.5195693E-1,7.3651445E-1,5.530942E-1,-1.464569E0,1.155903E0,-4.291122E-1,-4.8350883E-1,5.2449864E-1,-4.2774352E-1,1.1054293E0,4.4029367E-1,-4.1444588E-1,-4.662715E-1,3.964518E-1,-3.9451006E-1,1.3360424E0,5.937141E-1,-4.7826E-1,1.3360084E0,-3.9762738E-1,-3.4082702E-1,1.432258E0,6.561367E-1,-4.7524354E-1,1.4482994E0,-3.27326E-1,-3.0247825E-1,4.5149258E-1,-4.745276E-1,7.1660346E-1,4.557821E-1,-2.697208E-1,8.113848E-1,-6.623005E-1,8.6344355E-1,-4.379372E-1,4.3657175E-1,-4.7922987E-1,-4.7710177E-1,9.095392E-1,-7.641455E-1,9.775276E-1,4.1046914E-1,-4.8996598E-1,1.0275011E0,-4.7873342E-1,1.0641928E0,-4.499135E-1,1.0983149E0,-4.4931576E-1,3.3960372E-1,-4.2565212E-1],"categories":[],"categories_nodes":[],"categories_segments":[],"categories_sizes":[],"default_left":[0,0,0,0,0,0,0,0,0,0,0,0,0,0,0,0,0,0,0,0,0,0,0,0,0,0,0,0,0,0,0,0,0,0,0,0,0,0,0,0,0,0,0,0,0,0,0,0,0,0,0,0,0,0,0,0,0,0,0,0,0,0,0,0,0],"id":1,"left_children":[1,3,5,7,9,11,-1,13,15,-1,17,19,-1,-1,21,23,25,27,-1,-1,29,-1,31,-1,-1,-1,-1,-1,33,35,-1,37,-1,-1,39,41,-1,43,-1,-1,-1,-1,45,-1,-1,47,49,51,-1,-1,-1,-1,53,55,57,-1,-1,59,-1,61,-1,63,-1,-1,-1],"loss_changes":[1.4612022E2,1.3229843E2,1.3672331E2,1.364281E2,8.527987E1,1.18672966E2,0E0,1.022137E2,9.1532166E1,0E0,7.210404E1,1.070309E2,0E0,0E0,6.3766396E1,4.7778526E1,5.126004E1,3.969326E1,0E0,0E0,9.65867E1,0E0,3.941507E1,0E0,0E0,0E0,0E0,0E0,2.0639908E1,8.699597E1,0E0,1.8434387E1,0E0,0E0,1.5250061E1,8.44039E1,0E0,1.1284752E1,0E0,0E0,0E0,0E0,7.893643E1,0E0,0E0,6.767685E1,7.981199E1,6.363086E1,0E0,0E0,0E0,0E0,6.2225403E1,4.2359093E1,6.846146E1,0E0,0E0,4.8917847E1,0E0,4.566974E1,0E0,4.3811096E1,0E0,0E0,0E0],"parents":[2147483647,0,0,1,1,2,2,3,3,4,4,5,5,7,7,8,8,10,10,11,11,14,14,15,15,16,16,17,17,20,20,22,22,28,28,29,29,31,31,34,34,35,35,37,37,42,42,45,45,46,46,47,47,52,52,53,53,54,54,57,57,59,59,61,61],"right_children":[2,4,6,8,10,12,-1,14,16,-1,18,20,-1,-1,22,24,26,28,-1,-1,30,-1,32,-1,-1,-1,-1,-1,34,36,-1,38,-1,-1,40,42,-1,44,-1,-1,-1,-1,46,-1,-1,48,50,52,-1,-1,-1,-1,54,56,58,-1,-1,60,-1,62,-1,64,-1,-1,-1],"split_conditions":[-2.2664324E-3,1.83027E-4,5.1045264E-3,-1.4210922E-3,1.2068712E-3,3.021956E-3,-4.5548102E-1,2.7400157E-3,-1.4954159E-3,-4.4331536E-1,3.3897203E-3,9.477214E-3,-4.7012103E-1,-4.5195693E-1,-1.417008E-3,1.7825585E-4,1.6401963E-2,3.9408595E-5,-4.291122E-1,-4.8350883E-1,2.8651028E-3,-4.2774352E-1,3.017191E-3,4.4029367E-1,-4.1444588E-1,-4.662715E-1,3.964518E-1,-3.9451006E-1,1.5292058E-4,4.6868767E-3,-4.7826E-1,1.5803355E-4,-3.9762738E-1,-3.4082702E-1,-1.2446973E-4,-3.9544445E-4,-4.7524354E-1,4.0294202E-5,-3.27326E-1,-3.0247825E-1,4.5149258E-1,-4.745276E-1,6.9905766E-3,4.557821E-1,-2.697208E-1,9.690609E-3,-6.8242513E-3,-3.8811932E-3,-4.379372E-1,4.3657175E-1,-4.7922987E-1,-4.7710177E-1,-3.3356864E-3,-1.9288441E-2,1.9422302E-3,4.1046914E-1,-4.8996598E-1,9.390754E-3,-4.7873342E-1,3.5315222E-4,-4.499135E-1,-3.5476526E-3,-4.4931576E-1,3.3960372E-1,-4.2565212E-1],"split_indices":[499,2484,2128,108,5664,1503,0,2953,788,0,1180,2293,0,0,5645,5978,157,2905,0,0,3748,0,797,0,0,0,0,0,5162,5696,0,443,0,0,2851,1376,0,976,0,0,0,0,1784,0,0,5009,278,5436,0,0,0,0,1180,8,4516,0,0,4729,0,3958,0,1762,0,0,0],"split_type":[0,0,0,0,0,0,0,0,0,0,0,0,0,0,0,0,0,0,0,0,0,0,0,0,0,0,0,0,0,0,0,0,0,0,0,0,0,0,0,0,0,0,0,0,0,0,0,0,0,0,0,0,0,0,0,0,0,0,0,0,0,0,0,0,0],"sum_hessian":[1.1822306E3,4.381329E2,7.440977E2,3.2426566E2,1.1386726E2,7.041342E2,3.9963463E1,1.03444916E2,2.2082074E2,1.8163013E1,9.5704254E1,6.7455756E2,2.9576704E1,2.6484365E1,7.6960556E1,2.485864E1,1.959621E2,8.422849E1,1.1475764E1,2.3376844E1,6.5118066E2,1.079905E1,6.61615E1,1.7043077E1,7.8155637E0,1.902801E2,5.6819825E0,5.2952013E0,7.893329E1,6.3127734E2,1.9903343E1,6.0840828E1,5.320673E0,2.5521204E0,7.6381165E1,6.143669E2,1.6910477E1,5.8535908E1,2.3049207E0,1.8377439E0,7.454343E1,1.550125E1,5.988656E2,5.7160404E1,1.3755037E0,5.6073413E2,3.813147E1,5.487752E2,1.1958927E1,1.1510527E1,2.6620941E1,9.501224E0,5.39274E2,2.0651537E1,5.1862244E2,5.8133774E0,1.483816E1,5.0933197E2,9.290488E0,5.0261362E2,6.718355E0,4.9657108E2,6.042536E0,4.9055423E2,6.0168476E0],"tree_param":{"num_deleted":"0","num_feature":"6144","num_nodes":"65","size_leaf_vector":"1"}},{"base_weights":[-2.1434315E-2,-1.9742201E-1,4.98976E-1,-9.6946716E-1,-1.3035689E-2,-4.2036358E-1,6.683262E-1,-1.3277006E0,4.3239424E-1,9.169767E-2,-4.431537E-1,-4.1140446E-1,8.0027384E-1,-4.3457976E-1,3.5075012E-1,-3.992937E-1,3.709734E-1,2.7142707E-1,-8.376173E-1,-3.8529542E-1,8.993063E-1,-4.5243777E-2,7.864581E-1,1.0830096E0,-1.2425233E0,-4.043032E-1,9.915809E-1,2.2851497E-1,-1.1955997E0,9.174297E-1,-3.990554E-1,3.875308E-1,-2.3310305E-1,3.354492E-1,-4.228021E-1,1.0600144E0,-3.6469224E-1,-4.3554914E-1,4.2815787E-1,-4.3517575E-1,3.598305E-1,-3.6851817E-1,1.029082E0,1.1236167E0,-3.5124758E-1,6.3180125E-1,-4.2476717E-1,-4.0110573E-1,1.1065202E0,-3.6750948E-1,1.1781723E0,-4.0349618E-1,7.750007E-1,-4.1389352E-1,1.1739033E0,1.2221129E0,-3.3079886E-1,-4.1129246E-1,8.9370304E-1,-3.889785E-1,1.2391024E0,-3.1424367E-1,1.2571148E0,-3.873815E-1,9.9828696E-1,-2.955663E-1,1.2797962E0,-2.9811448E-1,1.287177E0,-3.7791672E-1,1.076678E0,-2.7796063E-1,1.3098687E0,1.3173611E0,-2.7506086E-1,-4.119606E-1,1.1352648E0,-3.0132115E-1,1.3331301E0,1.339829E0,-2.6759014E-1,-3.4610826E-1,1.1979371E0,1.3519853E0,-2.2012982E-1,-2.2305955E-1,1.3574446E0,3.7109128E-1,-3.651469E-1,4.1127083E-1,2.395948E-1,4.13859E-1,2.0528392E-1],"categories":[],"categories_nodes":[],"categories_segments":[],"categories_sizes":[],"default_left":[0,0,0,0,0,0,0,0,0,0,0,0,0,0,0,0,0,0,0,0,0,0,0,0,0,0,0,0,0,0,0,0,0,0,0,0,0,0,0,0,0,0,0,0,0,0,0,0,0,0,0,0,0,0,0,0,0,0,0,0,0,0,0,0,0,0,0,0,0,0,0,0,0,0,0,0,0,0,0,0,0,0,0,0,0,0,0,0,0,0,0,0,0],"id":2,"left_children":[1,3,5,7,9,-1,11,13,15,17,-1,-1,19,-1,-1,-1,-1,21,23,-1,25,27,29,31,33,-1,35,37,39,41,-1,-1,-1,-1,-1,43,-1,-1,45,-1,-1,-1,47,49,-1,51,-1,-1,53,-1,55,-1,57,-1,59,61,-1,-1,63,-1,65,-1,67,-1,69,-1,71,-1,73,-1,75,-1,77,79,-1,-1,81,-1,83,85,-1,-1,87,89,-1,-1,91,-1,-1,-1,-1,-1,-1],"loss_changes":[9.493219E1,1.1024183E2,8.523339E1,7.5551636E1,9.6160774E1,0E0,6.601106E1,3.7663727E1,4.5806866E1,9.799454E1,0E0,0E0,4.8053345E1,0E0,0E0,0E0,0E0,8.0154434E1,7.530577E1,0E0,4.6424286E1,9.6369606E1,5.3086594E1,7.6409645E0,3.2690666E1,0E0,3.2926666E1,8.359204E1,3.766057E1,4.3619003E1,0E0,0E0,0E0,0E0,0E0,3.0216888E1,0E0,0E0,8.419964E1,0E0,0E0,0E0,3.236859E1,2.6884796E1,0E0,5.7788795E1,0E0,0E0,2.905841E1,0E0,2.0846558E1,0E0,4.900232E1,0E0,2.7379623E1,1.6518127E1,0E0,0E0,4.204042E1,0E0,1.5417984E1,0E0,1.4061249E1,0E0,3.1580475E1,0E0,1.1433441E1,0E0,1.3638489E1,0E0,2.5321945E1,0E0,9.541687E0,1.0365173E1,0E0,0E0,2.4656326E1,0E0,6.88797E0,7.735504E0,0E0,0E0,1.6438736E1,4.781189E-1,0E0,0E0,1.7632141E0,0E0,0E0,0E0,0E0,0E0,0E0],"parents":[2147483647,0,0,1,1,2,2,3,3,4,4,6,6,7,7,8,8,9,9,12,12,17,17,18,18,20,20,21,21,22,22,23,23,24,24,26,26,27,27,28,28,29,29,35,35,38,38,42,42,43,43,45,45,48,48,50,50,52,52,54,54,55,55,58,58,60,60,62,62,64,64,66,66,68,68,70,70,72,72,73,73,76,76,78,78,79,79,82,82,83,83,86,86],"right_children":[2,4,6,8,10,-1,12,14,16,18,-1,-1,20,-1,-1,-1,-1,22,24,-1,26,28,30,32,34,-1,36,38,40,42,-1,-1,-1,-1,-1,44,-1,-1,46,-1,-1,-1,48,50,-1,52,-1,-1,54,-1,56,-1,58,-1,60,62,-1,-1,64,-1,66,-1,68,-1,70,-1,72,-1,74,-1,76,-1,78,80,-1,-1,82,-1,84,86,-1,-1,88,90,-1,-1,92,-1,-1,-1,-1,-1,-1],"split_conditions":[1.6096064E-3,-9.683919E-4,1.4358294E-3,1.824881E-2,2.878266E-4,-4.2036358E-1,-1.7171726E-4,3.937173E-4,-8.9171977E-4,4.4366386E-4,-4.431537E-1,-4.1140446E-1,-1.340742E-3,-4.3457976E-1,3.5075012E-1,-3.992937E-1,3.709734E-1,-2.7876353E-4,-6.6595613E-3,-3.8529542E-1,-9.687844E-3,-4.4470285E-3,2.3766993E-2,-1.5682529E-3,-1.4254455E-2,-4.043032E-1,-8.0349855E-3,-2.3358133E-4,3.5827195E-3,-1.817879E-3,-3.990554E-1,3.875308E-1,-2.3310305E-1,3.354492E-1,-4.228021E-1,3.1607756E-3,-3.6469224E-1,-4.3554914E-1,1.8453898E-3,-4.3517575E-1,3.598305E-1,-3.6851817E-1,-1.5892768E-2,-9.099973E-3,-3.5124758E-1,-3.1395457E-4,-4.2476717E-1,-4.0110573E-1,-6.50791E-3,-3.6750948E-1,4.106955E-3,-4.0349618E-1,-4.3242233E-4,-4.1389352E-1,-4.581347E-3,-6.5428256E-3,-3.3079886E-1,-4.1129246E-1,-3.748646E-5,-3.889785E-1,-4.038894E-4,-3.1424367E-1,-2.8354586E-3,-3.873815E-1,-1.2417535E-3,-2.955663E-1,-2.2274496E-3,-2.9811448E-1,-2.3656625E-3,-3.7791672E-1,1.1857838E-2,-2.7796063E-1,-1.8698502E-2,6.769092E-3,-2.7506086E-1,-4.119606E-1,-1.8610759E-3,-3.0132115E-1,1.4640691E-2,-2.8606204E-3,-2.6759014E-1,-3.4610826E-1,1.6422338E-3,1.1367527E-3,-2.2012982E-1,-2.2305955E-1,2.50948E-5,3.7109128E-1,-3.651469E-1,4.1127083E-1,2.395948E-1,4.13859E-1,2.0528392E-1],"split_indices":[853,4198,3132,3296,611,0,2395,1161,5488,627,0,0,4967,0,0,0,0,1105,1228,0,204,2833,2160,78,156,0,4722,6072,377,3429,0,0,0,0,0,2301,0,0,4677,0,0,0,1068,5021,0,2032,0,0,2332,0,4684,0,3618,0,690,3581,0,0,5234,0,4898,0,5932,0,5747,0,5064,0,3096,0,3694,0,148,2056,0,0,2708,0,4128,1500,0,0,2740,88,0,0,5285,0,0,0,0,0,0],"split_type":[0,0,0,0,0,0,0,0,0,0,0,0,0,0,0,0,0,0,0,0,0,0,0,0,0,0,0,0,0,0,0,0,0,0,0,0,0,0,0,0,0,0,0,0,0,0,0,0,0,0,0,0,0,0,0,0,0,0,0,0,0,0,0,0,0,0,0,0,0,0,0,0,0,0,0,0,0,0,0,0,0,0,0,0,0,0,0,0,0,0,0,0,0],"sum_hessian":[1.0344626E3,7.735059E2,2.6095667E2,1.4830005E2,6.252059E2,2.0758837E1,2.4019783E2,1.18158554E2,3.0141495E1,5.843439E2,4.086202E1,1.4023681E1,2.2617415E2,1.1310199E2,5.0565677E0,9.235435E0,2.090606E1,4.9023953E2,9.410433E1,9.71472E0,2.1645943E2,3.0414548E2,1.8609407E2,1.6093218E1,7.8011116E1,8.001816E0,2.0845761E2,2.4632663E2,5.781883E1,1.7578365E2,1.0310411E1,1.4743937E1,1.3492807E0,4.7723875E0,7.323872E1,2.0269301E2,5.7646065E0,2.5492273E1,2.2083437E2,5.261187E1,5.206957E0,8.199377E0,1.6758427E2,1.9755688E2,5.1361203E0,1.9946434E2,2.137002E1,4.7954454E0,1.6278883E2,3.9977312E0,1.9355916E2,1.2906389E1,1.8655795E2,3.7817812E0,1.5900705E2,1.903561E2,3.203057E0,9.225416E0,1.7733253E2,3.602838E0,1.554042E2,2.4517713E0,1.8790433E2,7.5820074E0,1.6975053E2,2.3750262E0,1.5302919E2,2.0540934E0,1.8585023E2,5.18986E0,1.6456067E2,1.6568999E0,1.5137228E2,1.8373628E2,2.1139455E0,3.3193405E0,1.6124133E2,1.0866123E0,1.5028568E2,1.8227618E2,1.4601043E0,3.8332398E0,1.5740808E2,1.4926984E2,1.0158293E0,1.1827852E0,1.810934E2,1.5538452E2,2.0235739E0,1.4290668E2,6.363161E0,1.743248E2,6.7686048E0],"tree_param":{"num_deleted":"0","num_feature":"6144","num_nodes":"93","size_leaf_vector":"1"}},{"base_weights":[-3.0066151E-2,2.9769439E-1,-2.641542E-1,5.029979E-1,-7.4854195E-1,-7.5378066E-1,5.0353794E-3,6.064797E-1,-3.7463284E-1,7.807374E-1,-3.844286E-1,-1.8543473E-2,-1.2577883E0,1.7064913E-1,-3.9127237E-1,6.980261E-1,-3.569095E-1,-2.752725E-1,3.5195506E-1,6.09176E-1,-3.8602576E-1,-4.052273E-1,2.9245648E-1,-3.8642052E-1,3.3019134E-1,7.65531E-1,-3.5736173E-1,-3.4580308E-1,9.010643E-1,-3.7489963E-1,4.701747E-1,8.2868075E-1,-3.46101E-1,1.130456E0,-3.4137964E-1,5.721578E-1,-3.69123E-1,8.787673E-1,-3.6626297E-1,4.4710204E-1,3.6616224E-1,6.626692E-1,-3.5492274E-1,9.3017316E-1,-3.1739426E-1,2.952439E-1,-2.655824E-1,-3.6576998E-1,7.4996436E-1,-3.383974E-1,9.784784E-1,-3.6640206E-1,8.2212424E-1,-3.266337E-1,1.0183561E0,8.8673115E-1,-3.4986067E-1,-3.2506582E-1,1.0498142E0,-3.5314238E-1,9.438529E-1,-2.9159063E-1,1.0792636E0,-3.3549204E-1,9.9473256E-1,1.1255685E0,-1.2894115E-1,1.0391085E0,-3.3434218E-1,-2.615855E-1,1.1500058E0,-3.342625E-1,2.9639262E-1,-3.0782416E-1,1.082018E0,-2.562128E-1,3.510229E-1,3.3593237E-1,-3.0624738E-1],"categories":[],"categories_nodes":[],"categories_segments":[],"categories_sizes":[],"default_left":[0,0,0,0,0,0,0,0,0,0,0,0,0,0,0,0,0,0,0,0,0,0,0,0,0,0,0,0,0,0,0,0,0,0,0,0,0,0,0,0,0,0,0,0,0,0,0,0,0,0,0,0,0,0,0,0,0,0,0,0,0,0,0,0,0,0,0,0,0,0,0,0,0,0,0,0,0,0,0],"id":3,"left_children":[1,3,5,7,9,11,13,15,-1,17,-1,19,21,23,-1,25,-1,-1,-1,27,-1,-1,-1,-1,29,31,-1,-1,33,-1,35,37,-1,39,-1,41,-1,43,-1,45,-1,47,-1,49,-1,-1,-1,-1,51,-1,53,-1,55,-1,57,59,-1,-1,61,-1,63,-1,65,-1,67,69,71,73,-1,-1,75,-1,-1,-1,77,-1,-1,-1,-1],"loss_changes":[6.577875E1,7.711057E1,6.5913765E1,5.5002182E1,4.908479E1,6.571681E1,7.0403496E1,4.7401314E1,0E0,1.1652913E1,0E0,5.9030254E1,2.3160858E1,6.7497795E1,0E0,3.536035E1,0E0,0E0,0E0,2.6556774E1,0E0,0E0,0E0,0E0,5.8216858E1,3.263759E1,0E0,0E0,2.145932E1,0E0,4.2345024E1,2.7112381E1,0E0,1.8717346E0,0E0,3.6878937E1,0E0,2.5694016E1,0E0,5.273229E0,0E0,3.6514023E1,0E0,2.519371E1,0E0,0E0,0E0,0E0,3.0551003E1,0E0,2.066986E1,0E0,2.6851334E1,0E0,1.6564575E1,2.4125748E1,0E0,0E0,1.4765686E1,0E0,2.110176E1,0E0,1.2875275E1,0E0,1.8610138E1,1.170517E1,1.1330765E1,1.733879E1,0E0,0E0,9.728668E0,0E0,0E0,0E0,1.5425858E1,0E0,0E0,0E0,0E0],"parents":[2147483647,0,0,1,1,2,2,3,3,4,4,5,5,6,6,7,7,9,9,11,11,12,12,13,13,15,15,19,19,24,24,25,25,28,28,30,30,31,31,33,33,35,35,37,37,39,39,41,41,43,43,48,48,50,50,52,52,54,54,55,55,58,58,60,60,62,62,64,64,65,65,66,66,67,67,70,70,74,74],"right_children":[2,4,6,8,10,12,14,16,-1,18,-1,20,22,24,-1,26,-1,-1,-1,28,-1,-1,-1,-1,30,32,-1,-1,34,-1,36,38,-1,40,-1,42,-1,44,-1,46,-1,48,-1,50,-1,-1,-1,-1,52,-1,54,-1,56,-1,58,60,-1,-1,62,-1,64,-1,66,-1,68,70,72,74,-1,-1,76,-1,-1,-1,78,-1,-1,-1,-1],"split_conditions":[-1.2076032E-2,5.4242085E-3,-2.8144005E-3,4.57904E-4,-1.3131053E-2,4.3863815E-4,-4.3811405E-4,9.284345E-3,-3.7463284E-1,6.6613713E-3,-3.844286E-1,5.475187E-3,1.8898092E-2,-7.9433183E-4,-3.9127237E-1,-2.9934294E-5,-3.569095E-1,-2.752725E-1,3.5195506E-1,-4.6904916E-3,-3.8602576E-1,-4.052273E-1,2.9245648E-1,-3.8642052E-1,-3.974139E-3,5.1459024E-4,-3.5736173E-1,-3.4580308E-1,-3.172001E-4,-3.7489963E-1,5.6065614E-3,1.8679231E-2,-3.46101E-1,-2.613586E-3,-3.4137964E-1,2.2511405E-3,-3.69123E-1,2.5461386E-3,-3.6626297E-1,-2.5384847E-4,3.6616224E-1,-2.4272883E-4,-3.5492274E-1,-3.8521888E-4,-3.1739426E-1,2.952439E-1,-2.655824E-1,-3.6576998E-1,-1.2867609E-3,-3.383974E-1,-1.1661793E-2,-3.6640206E-1,1.4036039E-3,-3.266337E-1,-1.942941E-2,-7.150276E-4,-3.4986067E-1,-3.2506582E-1,-1.1872031E-3,-3.5314238E-1,9.4911834E-4,-2.9159063E-1,7.0491843E-3,-3.3549204E-1,1.8924786E-4,-5.493192E-3,9.1612805E-3,-1.8279621E-3,-3.3434218E-1,-2.615855E-1,-9.413913E-3,-3.342625E-1,2.9639262E-1,-3.0782416E-1,3.7762665E-3,-2.562128E-1,3.510229E-1,3.3593237E-1,-3.0624738E-1],"split_indices":[1156,2313,2332,4583,4857,2309,1997,5644,0,1053,0,1694,1014,553,0,4705,0,0,0,5386,0,0,0,0,2505,3603,0,0,3686,0,1920,6077,0,1988,0,665,0,3993,0,3,0,5586,0,5538,0,0,0,0,5568,0,644,0,5932,0,1900,2198,0,0,3349,0,849,0,5280,0,2725,1750,40,544,0,0,381,0,0,0,5332,0,0,0,0],"split_type":[0,0,0,0,0,0,0,0,0,0,0,0,0,0,0,0,0,0,0,0,0,0,0,0,0,0,0,0,0,0,0,0,0,0,0,0,0,0,0,0,0,0,0,0,0,0,0,0,0,0,0,0,0,0,0,0,0,0,0,0,0,0,0,0,0,0,0,0,0,0,0,0,0,0,0,0,0,0,0],"sum_hessian":[8.553084E2,3.5624164E2,4.9906674E2,2.9823755E2,5.8004074E1,1.7640503E2,3.226617E2,2.8221988E2,1.6017672E1,1.4868708E1,4.3135365E1,7.216656E1,1.0423847E2,2.8720242E2,3.545931E1,2.6911517E2,1.3104696E1,2.5397654E0,1.2328942E1,4.862067E1,2.354589E1,1.00450615E2,3.7878585E0,2.761756E1,2.5958487E2,2.6040533E2,8.709859E0,6.491088E0,4.212958E1,2.0483229E1,2.3910162E2,2.5265997E2,7.745355E0,3.8269733E1,3.8598478E0,2.2620009E2,1.2901536E1,2.4719044E2,5.469531E0,5.1519375E0,3.3117794E1,2.1569966E2,1.0500429E1,2.4130534E2,5.8850937E0,3.8581743E0,1.2937632E0,8.987215E0,2.0671245E2,5.021014E0,2.3628433E2,6.7371697E0,1.9997528E2,3.9739168E0,2.3231042E2,1.9421854E2,5.756735E0,2.9324393E0,2.2937798E2,4.7025504E0,1.8951599E2,2.833659E0,2.2654433E2,4.058177E0,1.8545781E2,2.1824826E2,8.2960615E0,1.8213322E2,3.324589E0,2.218593E0,2.1602966E2,4.4090896E0,3.8869715E0,3.2408645E0,1.7889236E2,1.7300501E0,2.1429962E2,1.7619624E2,2.6961124E0],"tree_param":{"num_deleted":"0","num_feature":"6144","num_nodes":"79","size_leaf_vector":"1"}},{"base_weights":[-4.046878E-2,-5.220751E-1,9.0979874E-2,-1.0464362E0,6.2463686E-2,5.157634E-1,-1.1312014E-1,-3.765795E-1,6.8286693E-1,4.8337287E-1,-3.5093677E-1,-3.4173638E-1,6.256942E-1,3.384002E-2,-3.635617E-1,-2.2133975E-1,3.117572E-1,-3.5052857E-1,8.5709524E-1,-4.6633393E-1,7.8350526E-1,-3.630654E-1,1.289277E-1,-2.8713825E-1,1.0221112E0,-3.4295905E-1,2.6639634E-1,8.5044146E-1,-3.0962652E-1,-6.987986E-1,2.6640344E-1,1.1094593E0,-2.2016594E-1,-3.079537E-1,9.129766E-1,-3.6815995E-1,6.2166363E-1,3.9606953E-1,-6.8143904E-1,3.466924E-1,1.6460635E-1,9.671761E-1,-2.8745326E-1,3.2124683E-1,-2.6114488E-1,-3.5985613E-1,4.98004E-1,-3.4962413E-1,2.8275514E-1,1.0117553E0,-2.6030374E-1,5.753363E-1,-3.5718343E-1,1.0492402E0,-2.5747627E-1,6.478048E-1,-3.4184474E-1,1.083883E0,-2.4373485E-1,-3.28552E-1,7.0721745E-1,1.109589E0,-2.1651532E-1,-3.1916207E-1,7.579918E-1,-1.8512155E-1,1.1288882E0,8.0878437E-1,-2.9276937E-1,1.152191E0,3.8247398E-1,8.566825E-1,-3.280546E-1,3.5074046E-1,1.7150722E-1,-1.9941114E-1,2.6306927E-1,-3.0950126E-1,8.9807886E-1,2.7911627E-1,-2.9220226E-1],"categories":[],"categories_nodes":[],"categories_segments":[],"categories_sizes":[],"default_left":[0,0,0,0,0,0,0,0,0,0,0,0,0,0,0,0,0,0,0,0,0,0,0,0,0,0,0,0,0,0,0,0,0,0,0,0,0,0,0,0,0,0,0,0,0,0,0,0,0,0,0,0,0,0,0,0,0,0,0,0,0,0,0,0,0,0,0,0,0,0,0,0,0,0,0,0,0,0,0,0,0],"id":4,"left_children":[1,3,5,7,9,11,13,-1,15,17,-1,-1,19,21,-1,-1,-1,-1,23,25,27,-1,29,-1,31,-1,-1,33,-1,35,37,39,-1,-1,41,-1,43,45,47,-1,-1,49,-1,-1,-1,-1,51,-1,-1,53,-1,55,-1,57,-1,59,-1,61,-1,-1,63,65,-1,-1,67,-1,69,71,-1,73,75,77,-1,-1,-1,-1,-1,-1,79,-1,-1],"loss_changes":[4.417246E1,4.5918343E1,4.760439E1,2.93553E1,3.7745102E1,3.3124493E1,5.9987103E1,0E0,5.3988338E0,3.442266E1,0E0,0E0,2.9267487E1,3.9006542E1,0E0,0E0,0E0,0E0,1.4368568E1,2.100153E1,1.8731178E1,0E0,3.5007236E1,0E0,7.176838E0,0E0,0E0,1.7631714E1,0E0,3.136622E1,3.261115E1,3.9959717E-1,0E0,0E0,1.4939819E1,0E0,9.778347E0,3.8349102E1,2.6275711E1,0E0,0E0,1.1902664E1,0E0,0E0,0E0,0E0,2.9267216E1,0E0,0E0,1.0156662E1,0E0,2.6831009E1,0E0,9.25856E0,0E0,2.1702187E1,0E0,6.7399445E0,0E0,0E0,1.8435356E1,4.913849E0,0E0,0E0,1.7624413E1,0E0,1.7424011E0,1.7908646E1,0E0,5.2386475E-1,3.32522E0,1.5173264E1,0E0,0E0,0E0,0E0,0E0,0E0,1.1725479E1,0E0,0E0],"parents":[2147483647,0,0,1,1,2,2,3,3,4,4,5,5,6,6,8,8,9,9,12,12,13,13,18,18,19,19,20,20,22,22,24,24,27,27,29,29,30,30,31,31,34,34,36,36,37,37,38,38,41,41,46,46,49,49,51,51,53,53,55,55,57,57,60,60,61,61,64,64,66,66,67,67,69,69,70,70,71,71,78,78],"right_children":[2,4,6,8,10,12,14,-1,16,18,-1,-1,20,22,-1,-1,-1,-1,24,26,28,-1,30,-1,32,-1,-1,34,-1,36,38,40,-1,-1,42,-1,44,46,48,-1,-1,50,-1,-1,-1,-1,52,-1,-1,54,-1,56,-1,58,-1,60,-1,62,-1,-1,64,66,-1,-1,68,-1,70,72,-1,74,76,78,-1,-1,-1,-1,-1,-1,80,-1,-1],"split_conditions":[-3.977895E-3,-6.960388E-5,-9.046746E-3,2.0484539E-2,1.8531035E-3,-9.993778E-3,1.7935145E-4,-3.765795E-1,5.4262154E-4,3.1939938E-3,-3.5093677E-1,-3.4173638E-1,-3.3286554E-4,-6.4502177E-3,-3.635617E-1,-2.2133975E-1,3.117572E-1,-3.5052857E-1,-1.2946327E-3,8.04653E-4,4.614871E-3,-3.630654E-1,-1.4006803E-3,-2.8713825E-1,1.9651647E-3,-3.4295905E-1,2.6639634E-1,-7.771028E-4,-3.0962652E-1,1.3979804E-4,2.0845488E-4,3.76997E-4,-2.2016594E-1,-3.079537E-1,2.465392E-3,-3.6815995E-1,1.32199E-4,-4.1479588E-4,2.26215E-2,3.466924E-1,1.6460635E-1,2.2219191E-3,-2.8745326E-1,3.2124683E-1,-2.6114488E-1,-3.5985613E-1,-5.599521E-3,-3.4962413E-1,2.8275514E-1,1.1688517E-2,-2.6030374E-1,4.017251E-4,-3.5718343E-1,8.41417E-3,-2.5747627E-1,-4.038894E-4,-3.4184474E-1,-4.202054E-4,-2.4373485E-1,-3.28552E-1,-4.3110405E-3,-6.9443234E-3,-2.1651532E-1,-3.1916207E-1,4.128017E-4,-1.8512155E-1,-4.0547587E-3,4.022033E-3,-2.9276937E-1,6.553423E-3,2.741695E-3,-5.877448E-4,-3.280546E-1,3.5074046E-1,1.7150722E-1,-1.9941114E-1,2.6306927E-1,-3.0950126E-1,2.336471E-3,2.7911627E-1,-2.9220226E-1],"split_indices":[2548,2753,541,3468,1916,1120,4031,0,17,4036,0,0,687,4359,0,0,0,0,4448,1283,641,0,1808,0,5125,0,0,5174,0,549,1620,290,0,0,4545,0,1611,2398,4432,0,0,3192,0,0,0,0,856,0,0,5924,0,548,0,4041,0,4898,0,1277,0,0,1614,5616,0,0,2819,0,3518,600,0,1,13,2428,0,0,0,0,0,0,3104,0,0],"split_type":[0,0,0,0,0,0,0,0,0,0,0,0,0,0,0,0,0,0,0,0,0,0,0,0,0,0,0,0,0,0,0,0,0,0,0,0,0,0,0,0,0,0,0,0,0,0,0,0,0,0,0,0,0,0,0,0,0,0,0,0,0,0,0,0,0,0,0,0,0,0,0,0,0,0,0,0,0,0,0,0,0],"sum_hessian":[6.960052E2,1.485973E2,5.474079E2,7.7914154E1,7.068316E1,1.7716205E2,3.7024585E2,6.976369E1,8.150462E0,5.313962E1,1.754354E1,1.0452301E1,1.6670975E2,3.2742175E2,4.2824078E1,1.4196634E0,6.7307987E0,9.412261E0,4.372736E1,2.080277E1,1.4590698E2,2.2416264E1,3.050055E2,3.2454894E0,4.0481873E1,1.3974489E1,6.828281E0,1.4123174E2,4.675255E0,4.286102E1,2.6214447E2,3.8914352E1,1.5675174E0,4.0567245E0,1.37175E2,3.0661875E1,1.2199144E1,2.3111041E2,3.103407E1,3.4973335E1,3.9410174E0,1.3378299E2,3.3920145E0,9.593664E0,2.60548E0,1.3231345E1,2.1787907E2,2.412627E1,6.9077983E0,1.3104767E2,2.7353215E0,2.0896838E2,8.910691E0,1.289027E2,2.1449761E0,2.010924E2,7.8759656E0,1.2695802E2,1.9446703E0,6.0539975E0,1.9503842E2,1.2555598E2,1.4020407E0,4.8795323E0,1.9015889E2,1.0454837E0,1.245105E2,1.8526526E2,4.8936195E0,1.2021384E2,4.296661E0,1.8125119E2,4.0140734E0,1.1581925E2,4.3945813E0,1.2675716E0,3.0290892E0,3.3749785E0,1.778762E2,1.7535297E2,2.5232413E0],"tree_param":{"num_deleted":"0","num_feature":"6144","num_nodes":"81","size_leaf_vector":"1"}},{"base_weights":[-4.9630895E-2,-1.8751302E-1,3.6812577E-1,2.3114337E-1,-3.914545E-1,-3.2358935E-1,5.0186145E-1,4.1769338E-1,-3.3910257E-1,-9.7255635E-1,-1.696254E-1,6.380809E-1,-6.843486E-1,5.644536E-1,-3.1914765E-1,3.78472E-1,-3.660912E-1,-9.90712E-1,-4.025024E-3,-2.9653984E-1,7.269602E-1,2.4305163E-1,-3.2750922E-1,-3.065679E-1,6.8256E-1,-2.7581763E-1,2.8848177E-1,-3.5130864E-1,2.510341E-1,1.556095E-1,-3.3532822E-1,7.9495156E-1,-2.884889E-1,-3.2132748E-1,7.780669E-1,2.6935807E-1,-3.2718188E-1,-2.6963493E-1,8.531339E-1,8.522917E-1,-2.8887898E-1,-3.2179454E-1,3.7239856E-1,-2.646049E-1,9.1323936E-1,-2.4860533E-1,9.044959E-1,4.754244E-1,-3.0789793E-1,9.6258986E-1,-2.4879408E-1,-2.4960813E-1,9.5040816E-1,5.751548E-1,-3.3207938E-1,-2.3364717E-1,1.0066613E0,-2.3034717E-1,9.8793507E-1,6.5945387E-1,-3.1410027E-1,1.0367987E0,-2.1073574E-1,1.0192596E0,-2.0097508E-1,-4.9115077E-1,7.683593E-1,2.6713133E-1,1.065031E0,1.0441169E0,-1.7695469E-1,-3.2046673E-1,2.4946634E-1,-2.6052973E-1,8.2185227E-1,2.3954727E-1,-1.9691007E-1,1.0856102E0,1.139264E-1,1.0774667E0,2.1258585E-1,8.7518317E-1,-2.704349E-1,1.1072963E0,1.3254802E-1,1.0972712E0,1.3180687E-1,-2.2469999E-1,2.3793109E-1,9.201179E-1,-2.514144E-1,3.36801E-1,1.6594347E-1,3.3332598E-1,1.6240363E-1,-2.3661144E-1,2.8672397E-1],"categories":[],"categories_nodes":[],"categories_segments":[],"categories_sizes":[],"default_left":[0,0,0,0,0,0,0,0,0,0,0,0,0,0,0,0,0,0,0,0,0,0,0,0,0,0,0,0,0,0,0,0,0,0,0,0,0,0,0,0,0,0,0,0,0,0,0,0,0,0,0,0,0,0,0,0,0,0,0,0,0,0,0,0,0,0,0,0,0,0,0,0,0,0,0,0,0,0,0,0,0,0,0,0,0,0,0,0,0,0,0,0,0,0,0,0,0],"id":5,"left_children":[1,3,5,7,9,-1,11,13,-1,15,17,19,21,23,-1,25,-1,27,29,-1,31,-1,-1,-1,33,-1,-1,-1,-1,35,-1,37,-1,-1,39,41,-1,-1,43,45,-1,-1,47,-1,49,-1,51,53,-1,55,-1,-1,57,59,-1,-1,61,-1,63,65,-1,67,-1,69,-1,71,73,75,77,79,-1,-1,-1,-1,81,-1,-1,83,-1,85,87,89,-1,91,-1,93,-1,-1,-1,95,-1,-1,-1,-1,-1,-1,-1],"loss_changes":[3.259495E1,3.6395744E1,2.7718313E1,3.6008133E1,3.67405E1,0E0,2.1322952E1,2.7514427E1,0E0,2.686602E1,2.833444E1,1.7555046E1,9.2839985E0,2.1921326E1,0E0,1.0713383E1,0E0,1.2505085E1,3.118745E1,0E0,1.350877E1,0E0,0E0,0E0,1.8591862E1,0E0,0E0,0E0,0E0,2.204581E1,0E0,1.133625E1,0E0,0E0,1.3889587E1,1.9954506E1,0E0,0E0,1.1673325E1,9.307999E0,0E0,0E0,1.9520428E1,0E0,9.501778E0,0E0,8.370338E0,2.0157072E1,0E0,8.373024E0,0E0,0E0,6.760765E0,1.6692581E1,0E0,0E0,5.718384E0,0E0,5.436325E0,1.4393398E1,0E0,1.792923E0,0E0,4.2250214E0,0E0,8.736199E0,9.69458E0,2.8390677E0,8.8355255E-1,2.2451935E0,0E0,0E0,0E0,0E0,9.964699E0,0E0,0E0,7.4871826E-1,0E0,5.988617E-1,3.2099469E0,8.26545E0,0E0,1.0412598E-1,0E0,3.0555725E-2,0E0,0E0,0E0,6.558296E0,0E0,0E0,0E0,0E0,0E0,0E0,0E0],"parents":[2147483647,0,0,1,1,2,2,3,3,4,4,6,6,7,7,9,9,10,10,11,11,12,12,13,13,15,15,17,17,18,18,20,20,24,24,29,29,31,31,34,34,35,35,38,38,39,39,42,42,44,44,46,46,47,47,49,49,52,52,53,53,56,56,58,58,59,59,61,61,63,63,65,65,66,66,67,67,68,68,69,69,74,74,77,77,79,79,80,80,81,81,83,83,85,85,89,89],"right_children":[2,4,6,8,10,-1,12,14,-1,16,18,20,22,24,-1,26,-1,28,30,-1,32,-1,-1,-1,34,-1,-1,-1,-1,36,-1,38,-1,-1,40,42,-1,-1,44,46,-1,-1,48,-1,50,-1,52,54,-1,56,-1,-1,58,60,-1,-1,62,-1,64,66,-1,68,-1,70,-1,72,74,76,78,80,-1,-1,-1,-1,82,-1,-1,84,-1,86,88,90,-1,92,-1,94,-1,-1,-1,96,-1,-1,-1,-1,-1,-1,-1],"split_conditions":[1.6096064E-3,-1.4312981E-3,1.4358294E-3,1.3290466E-3,1.2386837E-2,-3.2358935E-1,3.7564633E-3,2.0971401E-4,-3.3910257E-1,-2.1800403E-3,-1.2233409E-3,-1.9647011E-4,-3.4398746E-3,3.3267723E-5,-3.1914765E-1,1.9965149E-3,-3.660912E-1,7.3312446E-3,1.9570305E-3,-2.9653984E-1,-1.6247069E-3,2.4305163E-1,-3.2750922E-1,-3.065679E-1,-3.393223E-3,-2.7581763E-1,2.8848177E-1,-3.5130864E-1,2.510341E-1,-4.138763E-6,-3.3532822E-1,-1.7171726E-4,-2.884889E-1,-3.2132748E-1,3.4611707E-4,-1.7141558E-3,-3.2718188E-1,-2.6963493E-1,-1.340742E-3,-1.313377E-4,-2.8887898E-1,-3.2179454E-1,1.4479387E-4,-2.646049E-1,-8.0349855E-3,-2.4860533E-1,-2.217686E-3,1.3565614E-3,-3.0789793E-1,-8.4426E-3,-2.4879408E-1,-2.4960813E-1,-5.000749E-4,-1.4476841E-3,-3.3207938E-1,-2.3364717E-1,-6.085847E-4,-2.3034717E-1,-3.763454E-4,-7.7234996E-3,-3.1410027E-1,-1.5008506E-4,-2.1073574E-1,7.0629423E-3,-2.0097508E-1,5.2111787E-3,-9.390338E-3,-3.593238E-4,2.0528268E-3,5.558434E-3,-1.7695469E-1,-3.2046673E-1,2.4946634E-1,-2.6052973E-1,9.061158E-3,2.3954727E-1,-1.9691007E-1,1.7442152E-2,1.139264E-1,2.5532235E-4,4.958297E-3,3.4174435E-3,-2.704349E-1,4.893414E-3,1.3254802E-1,4.518674E-3,1.3180687E-1,-2.2469999E-1,2.3793109E-1,-2.1035042E-4,-2.514144E-1,3.36801E-1,1.6594347E-1,3.3332598E-1,1.6240363E-1,-2.3661144E-1,2.8672397E-1],"split_indices":[853,336,3132,5296,3828,0,5181,3494,0,5720,3631,5323,69,5094,0,4832,0,104,5828,0,740,0,0,0,152,0,0,0,0,5069,0,2395,0,0,4142,1020,0,0,4967,2210,0,0,3795,0,4722,0,2316,3862,0,3892,0,0,3520,5327,0,0,5813,0,1068,644,0,3042,0,6012,0,6,5229,3,4713,1663,0,0,0,0,4440,0,0,5685,0,663,1,1909,0,536,0,1212,0,0,0,3665,0,0,0,0,0,0,0],"split_type":[0,0,0,0,0,0,0,0,0,0,0,0,0,0,0,0,0,0,0,0,0,0,0,0,0,0,0,0,0,0,0,0,0,0,0,0,0,0,0,0,0,0,0,0,0,0,0,0,0,0,0,0,0,0,0,0,0,0,0,0,0,0,0,0,0,0,0,0,0,0,0,0,0,0,0,0,0,0,0,0,0,0,0,0,0,0,0,0,0,0,0,0,0,0,0,0,0],"sum_hessian":[5.636746E2,4.2421277E2,1.3946187E2,1.389137E2,2.8529907E2,1.1202922E1,1.2825894E2,1.2278322E2,1.6130484E1,7.788578E1,2.074133E2,1.1546187E2,1.2797073E1,1.1227972E2,1.05035E1,1.1987476E1,6.589831E1,3.397492E1,1.7343839E2,5.457877E0,1.1000399E2,2.5291162E0,1.0267958E1,7.249929E0,1.05029785E2,3.5375078E0,8.449968E0,3.1250666E1,2.7242544E0,1.5244792E2,2.0990461E1,1.0625484E2,3.74915E0,4.8970833E0,1.00132706E2,1.4041534E2,1.2032576E1,3.0489762E0,1.03205864E2,9.652784E1,3.6048636E0,9.341467E0,1.3107388E2,2.997526E0,1.00208336E2,2.4594536E0,9.406838E1,1.2269652E2,8.377355E0,9.788379E1,2.3245485E0,1.9819939E0,9.2086395E1,1.1602066E2,6.6758604E0,2.0045717E0,9.587922E1,1.5522746E0,9.053412E1,1.1085338E2,5.16728E0,9.460439E1,1.2748226E0,8.923328E1,1.3008416E0,9.281618E0,1.0157176E2,3.7175868E0,9.088681E1,8.8221565E1,1.0117123E0,6.59621E0,2.6854079E0,2.7323415E0,9.8839424E1,2.4457319E0,1.2718548E0,8.766986E1,3.2169495E0,8.453538E1,3.686187E0,9.634984E1,2.4895833E0,8.411636E1,3.5534923E0,8.12928E1,3.2425725E0,1.2783933E0,2.4077938E0,9.4338455E1,2.011383E0,8.084753E1,3.2688394E0,7.834716E1,2.9456413E0,1.4950684E0,9.284338E1],"tree_param":{"num_deleted":"0","num_feature":"6144","num_nodes":"97","size_leaf_vector":"1"}},{"base_weights":[-5.9412166E-2,2.1237873E-1,-2.5012633E-1,3.733254E-1,-6.2492913E-1,-6.4250684E-1,-1.0427898E-2,4.7924146E-1,-7.4808925E-1,6.389831E-1,-3.2402685E-1,-1.4456989E-1,-3.4067875E-1,1.23979576E-1,-3.2390866E-1,-3.0663496E-1,5.6526E-1,-3.1524304E-1,2.1786676E-1,-1.9098641E-1,2.864121E-1,3.6718377E-1,-9.165382E-1,-3.188304E-1,2.5209355E-1,-2.1614209E-1,7.039635E-1,-2.973054E-1,7.109613E-1,-3.3308008E-1,2.1075054E-1,3.6302358E-1,-3.1109145E-1,7.775901E-1,-3.353292E-1,7.576598E-1,-2.6236266E-1,-2.80754E-1,9.217097E-1,4.5156458E-1,-2.978424E-1,2.980852E-1,-1.8025844E-1,8.116978E-1,-2.5668088E-1,3.031825E-1,5.499196E-2,5.267769E-1,-2.8820845E-1,-2.4255727E-1,8.577586E-1,-2.8069913E-1,5.909905E-1,-2.355223E-1,8.9735156E-1,-2.9142398E-1,6.5794057E-1,9.339699E-1,-2.2225434E-1,-2.7857712E-1,7.154942E-1,-2.0012924E-1,9.6188587E-1,7.708207E-1,-2.6504782E-1,9.956456E-1,7.440345E-2,-2.511582E-1,8.1804067E-1,1.1058846E-1,1.0230567E0,2.2472966E-1,-2.1767838E-1,8.576279E-1,-2.365704E-1,-1.9581763E-1,2.0892118E-1,4.5522222E-1,1.0566584E0,-2.249978E-1,8.9530224E-1,-2.210605E-1,2.7426586E-1,1.3654125E-1,3.208298E-1,2.7872387E-1,-2.0355666E-1],"categories":[],"categories_nodes":[],"categories_segments":[],"categories_sizes":[],"default_left":[0,0,0,0,0,0,0,0,0,0,0,0,0,0,0,0,0,0,0,0,0,0,0,0,0,0,0,0,0,0,0,0,0,0,0,0,0,0,0,0,0,0,0,0,0,0,0,0,0,0,0,0,0,0,0,0,0,0,0,0,0,0,0,0,0,0,0,0,0,0,0,0,0,0,0,0,0,0,0,0,0,0,0,0,0,0,0],"id":6,"left_children":[1,3,5,7,9,11,13,15,17,19,-1,21,-1,23,-1,-1,25,-1,-1,-1,-1,27,29,-1,31,33,35,-1,37,-1,-1,39,-1,41,-1,43,-1,-1,45,47,-1,-1,-1,49,-1,-1,-1,51,-1,-1,53,-1,55,-1,57,-1,59,61,-1,-1,63,-1,65,67,-1,69,71,-1,73,75,77,-1,-1,79,-1,-1,-1,81,83,-1,85,-1,-1,-1,-1,-1,-1],"loss_changes":[2.3437935E1,2.537592E1,2.4971355E1,1.9020115E1,1.8210049E1,2.4559235E1,2.3973595E1,1.9196148E1,6.98875E0,4.1082854E0,0E0,2.0582129E1,0E0,2.2808195E1,0E0,0E0,1.50005E1,0E0,0E0,0E0,0E0,1.5427259E1,7.2775173E0,0E0,1.9626068E1,2.0058405E1,1.0544018E1,0E0,9.797647E0,0E0,0E0,1.5417021E1,0E0,3.806518E0,0E0,1.0570129E1,0E0,0E0,1.3460541E0,1.3011742E1,0E0,0E0,0E0,8.911888E0,0E0,0E0,0E0,1.1110847E1,0E0,0E0,7.7009735E0,0E0,1.1968811E1,0E0,7.0206604E0,0E0,1.0202427E1,5.273697E0,0E0,0E0,9.648403E0,0E0,2.9900284E0,8.1647E0,0E0,2.2750702E0,3.1497507E0,0E0,6.7950287E0,2.2782714E0,1.3385162E0,0E0,0E0,6.387085E0,0E0,0E0,0E0,4.5501595E0,1.9927216E-1,0E0,5.5564423E0,0E0,0E0,0E0,0E0,0E0,0E0],"parents":[2147483647,0,0,1,1,2,2,3,3,4,4,5,5,6,6,7,7,8,8,9,9,11,11,13,13,16,16,21,21,22,22,24,24,25,25,26,26,28,28,31,31,33,33,35,35,38,38,39,39,43,43,47,47,50,50,52,52,54,54,56,56,57,57,60,60,62,62,63,63,65,65,66,66,68,68,69,69,70,70,73,73,77,77,78,78,80,80],"right_children":[2,4,6,8,10,12,14,16,18,20,-1,22,-1,24,-1,-1,26,-1,-1,-1,-1,28,30,-1,32,34,36,-1,38,-1,-1,40,-1,42,-1,44,-1,-1,46,48,-1,-1,-1,50,-1,-1,-1,52,-1,-1,54,-1,56,-1,58,-1,60,62,-1,-1,64,-1,66,68,-1,70,72,-1,74,76,78,-1,-1,80,-1,-1,-1,82,84,-1,86,-1,-1,-1,-1,-1,-1],"split_conditions":[-1.2076032E-2,5.4242085E-3,-2.4657252E-3,5.9504854E-4,-1.3131053E-2,-3.172001E-4,-4.3811405E-4,-2.596861E-3,2.7142111E-3,6.6613713E-3,-3.2402685E-1,5.5229124E-3,-3.4067875E-1,-7.9433183E-4,-3.2390866E-1,-3.0663496E-1,-8.771385E-3,-3.1524304E-1,2.1786676E-1,-1.9098641E-1,2.864121E-1,-4.7117653E-3,6.1272155E-3,-3.188304E-1,2.1363082E-3,-2.5441605E-3,8.7086007E-4,-2.973054E-1,4.0441233E-4,-3.3308008E-1,2.1075054E-1,5.6065614E-3,-3.1109145E-1,7.8499565E-5,-3.353292E-1,2.3588322E-3,-2.6236266E-1,-2.80754E-1,-1.5419076E-2,2.2511405E-3,-2.978424E-1,2.980852E-1,-1.8025844E-1,-9.854378E-3,-2.5668088E-1,3.031825E-1,5.499196E-2,-2.4272883E-4,-2.8820845E-1,-2.4255727E-1,3.0100066E-4,-2.8069913E-1,-1.0494055E-2,-2.355223E-1,2.456095E-3,-2.9142398E-1,-6.0833705E-4,-2.997831E-4,-2.2225434E-1,-2.7857712E-1,1.4036039E-3,-2.0012924E-1,2.678807E-4,-7.3023494E-3,-2.6504782E-1,-2.609037E-3,-4.6013246E-4,-2.511582E-1,1.8924786E-4,1.30486E-3,1.0026033E-2,2.2472966E-1,-2.1767838E-1,9.1384863E-4,-2.365704E-1,-1.9581763E-1,2.0892118E-1,8.081882E-4,-3.5457753E-3,-2.249978E-1,3.7762665E-3,-2.210605E-1,2.7426586E-1,1.3654125E-1,3.208298E-1,2.7872387E-1,-2.0355666E-1],"split_indices":[1156,2313,2332,363,4857,3686,1997,5064,36,1053,0,1694,0,553,0,0,2800,0,0,0,0,5386,0,0,5282,1228,5959,0,4507,0,0,1920,0,3852,0,3993,0,0,1071,665,0,0,0,644,0,0,0,5586,0,0,3349,0,1156,0,552,0,2864,4687,0,0,5932,0,5570,1757,0,248,7,0,2725,32,324,0,0,849,0,0,0,16,5884,0,5332,0,0,0,0,0,0],"split_type":[0,0,0,0,0,0,0,0,0,0,0,0,0,0,0,0,0,0,0,0,0,0,0,0,0,0,0,0,0,0,0,0,0,0,0,0,0,0,0,0,0,0,0,0,0,0,0,0,0,0,0,0,0,0,0,0,0,0,0,0,0,0,0,0,0,0,0,0,0,0,0,0,0,0,0,0,0,0,0,0,0,0,0,0,0,0,0],"sum_hessian":[4.501449E2,1.855706E2,2.6457428E2,1.561162E2,2.9454403E1,9.96952E1,1.6487909E2,1.4316693E2,1.2949269E1,7.6917367E0,2.1762667E1,5.0247185E1,4.9448013E1,1.4725333E2,1.7625765E1,7.168376E0,1.3599855E2,1.0981656E1,1.9676132E0,1.3244075E0,6.367329E0,3.0531548E1,1.9715637E1,1.3636841E1,1.3361649E2,2.0417265E1,1.1558129E2,5.7866855E0,2.4744864E1,1.7889307E1,1.8263288E0,1.23690704E2,9.9257765E0,9.777954E0,1.0639312E1,1.122818E2,3.299493E0,2.41707E0,2.2327793E1,1.1673444E2,6.9562593E0,8.694547E0,1.0834076E0,1.0912344E2,3.1583517E0,1.959951E1,2.7282834E0,1.1142719E2,5.30725E0,2.5588992E0,1.06564545E2,4.11599E0,1.073112E2,2.0647113E0,1.0449983E2,3.854306E0,1.034569E2,1.0263553E2,1.8643107E0,3.091864E0,1.00365036E2,1.3664887E0,1.01269035E2,9.750906E1,2.8559747E0,9.744054E1,3.828503E0,2.3044488E0,9.520461E1,3.0784202E0,9.4362114E1,2.1114178E0,1.7170852E0,9.337013E1,1.8344774E0,1.2871088E0,1.7913114E0,6.084684E0,8.827743E1,1.7050645E0,9.166507E1,1.5232277E0,4.5614567E0,2.5974193E0,8.568001E1,9.014015E1,1.5249151E0],"tree_param":{"num_deleted":"0","num_feature":"6144","num_nodes":"87","size_leaf_vector":"1"}},{"base_weights":[-6.991978E-2,-1.9566189E-1,3.1594115E-1,1.8032797E-1,-3.7620026E-1,4.9239248E-1,-5.8258146E-1,3.4738135E-1,-3.0585098E-1,-5.64975E-1,1.786724E-1,5.8972967E-1,-2.6857302E-1,-3.0829942E-1,2.2985911E-1,-7.1448493E-1,5.152073E-1,-3.3534348E-1,-3.1618357E-1,4.72505E-1,-3.0949363E-1,-2.5840682E-1,6.7601E-1,-3.0885476E-1,2.0205459E-1,6.388725E-1,-2.7428955E-1,2.0749675E-1,-5.9664595E-1,6.6475224E-1,-2.7197912E-1,7.486506E-1,-2.4283172E-1,7.175548E-1,-2.4510095E-1,5.079308E-1,-2.8951958E-1,1.4537483E-1,-9.335513E-1,8.083898E-1,-2.4691458E-1,-2.2433856E-1,8.121856E-1,-2.4374352E-1,7.8874195E-1,-2.625601E-1,7.5329745E-1,6.218098E-1,-2.9291704E-1,-3.2677558E-1,1.8482901E-1,9.107328E-1,-2.1119203E-1,-2.0462584E-1,8.629643E-1,-2.1410477E-1,8.503615E-1,9.100751E-1,-2.1994306E-1,-2.356552E-1,8.989396E-1,9.7677034E-1,2.2555819E-1,-1.8922524E-1,9.059396E-1,-1.8902235E-1,8.937577E-1,6.404343E-2,2.9695252E-1,2.9170114E-1,9.2696995E-2,3.0873936E-1,9.420589E-2,2.1425138E-1,-1.6845001E-1,2.3955256E-2,9.50779E-1,-1.7318907E-1,9.3234503E-1,-1.9517776E-1,1.93999E-1,9.910504E-1,1.3993423E-1,9.6773124E-1,1.7555895E-1,1.0249537E0,6.128182E-2,2.0232339E-1,-1.7546439E-1,1.0023087E0,6.26252E-2,2.0080346E-1,-1.677505E-1,1.1890683E-1,3.131215E-1,1.0229182E0,1.0839936E-1,3.1229937E-1,1.2345567E-1],"categories":[],"categories_nodes":[],"categories_segments":[],"categories_sizes":[],"default_left":[0,0,0,0,0,0,0,0,0,0,0,0,0,0,0,0,0,0,0,0,0,0,0,0,0,0,0,0,0,0,0,0,0,0,0,0,0,0,0,0,0,0,0,0,0,0,0,0,0,0,0,0,0,0,0,0,0,0,0,0,0,0,0,0,0,0,0,0,0,0,0,0,0,0,0,0,0,0,0,0,0,0,0,0,0,0,0,0,0,0,0,0,0,0,0,0,0,0,0],"id":7,"left_children":[1,3,5,7,9,11,13,15,-1,17,19,21,-1,-1,-1,23,25,-1,27,29,-1,-1,31,-1,-1,33,-1,35,37,39,-1,41,-1,43,-1,45,-1,47,49,51,-1,-1,53,-1,55,-1,57,59,-1,-1,-1,61,-1,-1,63,-1,65,67,-1,-1,69,71,73,-1,75,-1,77,-1,-1,-1,-1,-1,-1,-1,-1,79,81,-1,83,-1,-1,85,87,89,91,93,-1,-1,-1,95,-1,-1,-1,-1,-1,97,-1,-1,-1],"loss_changes":[1.7460764E1,1.8468998E1,1.4321239E1,1.8115791E1,1.9318298E1,1.0594818E1,9.785017E0,1.43629875E1,0E0,1.850806E1,1.7320393E1,9.377464E0,0E0,0E0,0E0,5.563062E0,1.2674845E1,0E0,1.421881E1,1.088227E1,0E0,0E0,7.821167E0,0E0,0E0,7.8645325E0,0E0,1.2542572E1,1.5823841E1,8.060681E0,0E0,6.7178154E0,0E0,7.2643814E0,0E0,1.0124384E1,0E0,1.1542508E1,1.1117043E1,5.6038685E0,0E0,0E0,5.302906E0,0E0,6.033451E0,0E0,6.312648E0,6.5455575E0,0E0,0E0,0E0,1.1582298E0,0E0,0E0,4.4570236E0,0E0,4.2098618E0,1.0311279E0,0E0,0E0,2.6140594E-1,6.307392E-1,1.9310259E0,0E0,2.320343E0,0E0,3.6920357E0,0E0,0E0,0E0,0E0,0E0,0E0,0E0,0E0,2.0556355E0,1.7015457E0,0E0,1.290184E0,0E0,0E0,1.2183609E0,1.8785421E0,1.1518936E0,1.701065E0,1.8927765E-1,0E0,0E0,0E0,2.8220367E-1,0E0,0E0,0E0,0E0,0E0,9.4005585E-2,0E0,0E0,0E0],"parents":[2147483647,0,0,1,1,2,2,3,3,4,4,5,5,6,6,7,7,9,9,10,10,11,11,15,15,16,16,18,18,19,19,22,22,25,25,27,27,28,28,29,29,31,31,33,33,35,35,37,37,38,38,39,39,42,42,44,44,46,46,47,47,51,51,54,54,56,56,57,57,60,60,61,61,62,62,64,64,66,66,75,75,76,76,78,78,81,81,82,82,83,83,84,84,85,85,89,89,95,95],"right_children":[2,4,6,8,10,12,14,16,-1,18,20,22,-1,-1,-1,24,26,-1,28,30,-1,-1,32,-1,-1,34,-1,36,38,40,-1,42,-1,44,-1,46,-1,48,50,52,-1,-1,54,-1,56,-1,58,60,-1,-1,-1,62,-1,-1,64,-1,66,68,-1,-1,70,72,74,-1,76,-1,78,-1,-1,-1,-1,-1,-1,-1,-1,80,82,-1,84,-1,-1,86,88,90,92,94,-1,-1,-1,96,-1,-1,-1,-1,-1,98,-1,-1,-1],"split_conditions":[1.6096064E-3,-1.4312981E-3,2.5946894E-4,1.3290466E-3,5.9301325E-4,3.894023E-3,6.550195E-3,-6.933462E-5,-3.0585098E-1,3.483325E-3,-2.5770147E-5,-1.7171726E-4,-2.6857302E-1,-3.0829942E-1,2.2985911E-1,3.6132499E-3,5.4464694E-3,-3.3534348E-1,-3.1334958E-3,-6.6116466E-3,-3.0949363E-1,-2.5840682E-1,4.5106738E-4,-3.0885476E-1,2.0205459E-1,3.3047278E-3,-2.7428955E-1,4.2746819E-4,-1.8786137E-4,4.651652E-4,-2.7197912E-1,-5.2515925E-3,-2.4283172E-1,-2.4504616E-4,-2.4510095E-1,-9.51177E-3,-2.8951958E-1,1.193709E-4,5.647621E-3,1.1369347E-2,-2.4691458E-1,-2.2433856E-1,-3.0576182E-3,-2.4374352E-1,-4.5797494E-4,-2.625601E-1,5.1810633E-4,-2.9103746E-4,-2.9291704E-1,-3.2677558E-1,1.8482901E-1,1.241936E-3,-2.1119203E-1,-2.0462584E-1,-3.799951E-3,-2.1410477E-1,-4.7883247E-3,-7.090177E-4,-2.1994306E-1,-2.356552E-1,-3.2386044E-4,3.5925359E-3,2.3333142E-4,-1.8922524E-1,-2.001204E-4,-1.8902235E-1,-2.6158486E-3,6.404343E-2,2.9695252E-1,2.9170114E-1,9.2696995E-2,3.0873936E-1,9.420589E-2,2.1425138E-1,-1.6845001E-1,4.549251E-3,1.673341E-3,-1.7318907E-1,3.0393223E-4,-1.9517776E-1,1.93999E-1,-1.6355321E-3,-9.9248056E-5,5.091505E-3,-2.4118646E-4,-1.3195806E-2,6.128182E-2,2.0232339E-1,-1.7546439E-1,1.1166914E-3,6.26252E-2,2.0080346E-1,-1.677505E-1,1.1890683E-1,3.131215E-1,5.8662746E-4,1.0839936E-1,3.1229937E-1,1.2345567E-1],"split_indices":[853,336,5532,5296,2319,3613,492,70,0,3887,3049,2395,0,0,0,74,1493,0,2312,2334,0,0,2660,0,0,4696,0,3288,2552,5195,0,4728,0,5586,0,4936,0,654,1544,3593,0,0,4813,0,2303,0,870,3081,0,0,0,4415,0,0,4964,0,3765,3192,0,0,1992,5011,0,0,131,0,5641,0,0,0,0,0,0,0,0,4,1290,0,2247,0,0,4748,3,4525,1,600,0,0,0,308,0,0,0,0,0,1280,0,0,0],"split_type":[0,0,0,0,0,0,0,0,0,0,0,0,0,0,0,0,0,0,0,0,0,0,0,0,0,0,0,0,0,0,0,0,0,0,0,0,0,0,0,0,0,0,0,0,0,0,0,0,0,0,0,0,0,0,0,0,0,0,0,0,0,0,0,0,0,0,0,0,0,0,0,0,0,0,0,0,0,0,0,0,0,0,0,0,0,0,0,0,0,0,0,0,0,0,0,0,0,0,0],"sum_hessian":[3.5760086E2,2.7008127E2,8.7519585E1,8.761504E1,1.8246623E2,7.353151E1,1.3988074E1,7.753084E1,1.0084203E1,1.3613362E2,4.633261E1,6.924898E1,4.282533E0,1.0696436E1,3.2916384E0,1.0136705E1,6.7394135E1,4.1166054E1,9.496757E1,3.7772152E1,8.56046E0,3.3822448E0,6.586673E1,8.472091E0,1.6646147E0,6.2537186E1,4.8569517E0,3.3212757E1,6.1754814E1,3.3605515E1,4.166638E0,6.3268806E1,2.597924E0,5.981181E1,2.7253766E0,2.6889853E1,6.322904E0,1.9461073E1,4.2293743E1,3.1063215E1,2.542298E0,2.1381836E0,6.1130623E1,2.1961625E0,5.7615646E1,3.6647513E0,2.32251E1,1.397241E1,5.4886627E0,3.870224E1,3.591501E0,2.9466969E1,1.5962479E0,1.6004814E0,5.953014E1,1.8530099E0,5.5762634E1,2.1359974E1,1.8651264E0,1.9969546E0,1.1975455E1,2.6488419E1,2.9785495E0,1.2823327E0,5.824781E1,1.2030234E0,5.4559612E1,2.5723212E0,1.8787653E1,1.0073953E1,1.9015025E0,2.4036583E1,2.4518359E0,1.8948289E0,1.0837207E0,2.8922393E0,5.5355568E1,1.0377296E0,5.352188E1,1.3668363E0,1.5254031E0,5.252464E1,2.8309295E0,5.0864784E1,2.6571004E0,5.0064568E1,2.4600716E0,1.6694341E0,1.1614954E0,4.8341835E1,2.5229456E0,1.642332E0,1.0147684E0,2.0939443E0,4.7970623E1,4.6258595E1,2.0832422E0,4.424751E1,2.0110855E0],"tree_param":{"num_deleted":"0","num_feature":"6144","num_nodes":"99","size_leaf_vector":"1"}},{"base_weights":[-7.586702E-2,2.5150228E-1,-2.1574903E-1,3.6013773E-1,-2.8098106E-1,1.6866358E-1,-4.1759658E-1,-2.68952E-1,4.539706E-1,3.2916886E-1,-2.9528332E-1,-1.5757526E-1,-8.055115E-1,5.355816E-1,-2.5608718E-1,-2.7077517E-1,4.5732987E-1,3.0703582E-2,-3.0812305E-1,-9.627208E-1,3.9828095E-1,6.053369E-1,-2.435485E-1,-2.6165456E-1,5.5789614E-1,2.0518346E-1,-3.0047974E-1,1.4193615E-1,-3.2291865E-1,-1.9902505E-1,2.5302243E-1,7.071144E-1,-2.6068693E-1,-2.3903947E-1,6.3799244E-1,3.9706787E-1,-7.1628934E-1,-2.054686E-1,2.2587152E-1,-2.1169771E-1,7.62834E-1,2.207377E-1,-2.637304E-1,-2.2411588E-1,7.1110225E-1,-2.7779773E-1,5.454333E-1,-2.8968856E-1,1.7744668E-1,-2.038E-1,8.154582E-1,7.84032E-1,-2.125073E-1,8.186526E-1,-8.4868684E-2,-1.7232509E-1,8.53E-1,-1.8644954E-1,8.369176E-1,8.854783E-1,-1.6880819E-1,-2.7852523E-1,5.467018E-1,8.9404505E-1,-3.8561217E-2,-7.7782914E-2,8.955545E-1,9.487199E-1,1.5179643E-1,-1.8934011E-1,2.547647E-1,2.7205886E-2,9.261556E-1,1.6971329E-1,-1.7944397E-1,1.7333859E-1,-1.9139692E-1,9.359446E-1,2.7242064E-2,9.8517734E-1,6.614409E-2,-1.672858E-1,1.9545369E-1,9.542275E-1,4.665706E-2,9.766708E-1,4.8549827E-2,1.1672009E-1,3.0342785E-1,9.775485E-1,7.150159E-2,3.003544E-1,8.685574E-2,9.0563506E-2,9.9779564E-1,3.0391368E-1,1.0929422E-1],"categories":[],"categories_nodes":[],"categories_segments":[],"categories_sizes":[],"default_left":[0,0,0,0,0,0,0,0,0,0,0,0,0,0,0,0,0,0,0,0,0,0,0,0,0,0,0,0,0,0,0,0,0,0,0,0,0,0,0,0,0,0,0,0,0,0,0,0,0,0,0,0,0,0,0,0,0,0,0,0,0,0,0,0,0,0,0,0,0,0,0,0,0,0,0,0,0,0,0,0,0,0,0,0,0,0,0,0,0,0,0,0,0,0,0,0,0],"id":8,"left_children":[1,3,5,7,-1,9,11,-1,13,15,-1,17,19,21,-1,-1,23,25,-1,27,29,31,-1,-1,33,35,-1,37,-1,-1,-1,39,41,-1,43,45,47,-1,-1,-1,49,-1,-1,-1,51,-1,53,-1,-1,-1,55,57,-1,59,61,-1,63,-1,65,67,-1,-1,69,71,73,75,77,79,81,-1,-1,-1,83,-1,-1,-1,-1,85,-1,87,-1,-1,-1,89,-1,91,-1,-1,-1,93,-1,-1,-1,-1,95,-1,-1],"loss_changes":[1.3053624E1,1.1365729E1,1.55444975E1,9.723309E0,0E0,1.316193E1,1.309182E1,0E0,8.373584E0,1.0144388E1,0E0,1.3079676E1,1.02903595E1,7.11199E0,0E0,0E0,8.040878E0,1.2180996E1,0E0,6.0037727E0,3.751503E0,6.137911E0,0E0,0E0,6.2740116E0,1.0487531E1,0E0,3.1581793E0,0E0,0E0,0E0,5.3174534E0,5.4744163E0,0E0,5.667742E0,1.0006349E1,3.9304028E0,0E0,0E0,0E0,5.023178E0,0E0,0E0,0E0,5.5963E0,0E0,7.672842E0,0E0,0E0,0E0,3.478222E0,3.9981403E0,0E0,3.3500938E0,8.103252E0,0E0,2.089817E0,0E0,2.5110912E0,1.2413445E0,0E0,0E0,3.665237E0,1.3021812E0,1.4983995E0,1.7136452E0,1.3080254E0,5.075264E-1,1.6252913E0,0E0,0E0,0E0,9.670296E-1,0E0,0E0,0E0,0E0,1.1251183E0,0E0,8.735657E-3,0E0,0E0,0E0,5.9433365E-1,0E0,3.5803986E-1,0E0,0E0,0E0,3.5092163E-1,0E0,0E0,0E0,0E0,7.3848724E-2,0E0,0E0],"parents":[2147483647,0,0,1,1,2,2,3,3,5,5,6,6,8,8,9,9,11,11,12,12,13,13,16,16,17,17,19,19,20,20,21,21,24,24,25,25,27,27,31,31,32,32,34,34,35,35,36,36,40,40,44,44,46,46,50,50,51,51,53,53,54,54,56,56,58,58,59,59,62,62,63,63,64,64,65,65,66,66,67,67,68,68,72,72,77,77,79,79,83,83,85,85,89,89,94,94],"right_children":[2,4,6,8,-1,10,12,-1,14,16,-1,18,20,22,-1,-1,24,26,-1,28,30,32,-1,-1,34,36,-1,38,-1,-1,-1,40,42,-1,44,46,48,-1,-1,-1,50,-1,-1,-1,52,-1,54,-1,-1,-1,56,58,-1,60,62,-1,64,-1,66,68,-1,-1,70,72,74,76,78,80,82,-1,-1,-1,84,-1,-1,-1,-1,86,-1,88,-1,-1,-1,90,-1,92,-1,-1,-1,94,-1,-1,-1,-1,96,-1,-1],"split_conditions":[-9.046746E-3,2.2219191E-3,-1.4312981E-3,-9.993778E-3,-2.8098106E-1,-7.706635E-4,5.6072474E-3,-2.68952E-1,1.1688517E-2,1.6879129E-4,-2.9528332E-1,3.3717387E-4,5.16253E-3,5.9114106E-4,-2.5608718E-1,-2.7077517E-1,-3.5746077E-3,6.335583E-3,-3.0812305E-1,-5.1544025E-4,8.884243E-3,4.786956E-3,-2.435485E-1,-2.6165456E-1,2.4982277E-4,1.6995122E-3,-3.0047974E-1,4.0935124E-3,-3.2291865E-1,-1.9902505E-1,2.5302243E-1,-5.901817E-3,-1.6659252E-2,-2.3903947E-1,-3.0895646E-4,2.5310859E-3,3.9199004E-3,-2.054686E-1,2.2587152E-1,-2.1169771E-1,1.0748152E-3,2.207377E-1,-2.637304E-1,-2.2411588E-1,8.521482E-5,-2.7779773E-1,5.1017543E-3,-2.8968856E-1,1.7744668E-1,-2.038E-1,-1.737359E-2,-7.876594E-4,-2.125073E-1,1.5191411E-3,-1.5976017E-4,-1.7232509E-1,1.497281E-2,-1.8644954E-1,-2.4575455E-4,-3.530596E-5,-1.6880819E-1,-2.7852523E-1,-1.6189009E-3,-4.587985E-3,7.578054E-4,-3.593238E-4,3.1992013E-3,1.2453375E-4,3.3781244E-3,-1.8934011E-1,2.547647E-1,2.7205886E-2,1.1736435E-2,1.6971329E-1,-1.7944397E-1,1.7333859E-1,-1.9139692E-1,9.825375E-4,2.7242064E-2,-6.71345E-3,6.614409E-2,-1.672858E-1,1.9545369E-1,4.351125E-3,4.665706E-2,-2.5085965E-4,4.8549827E-2,1.1672009E-1,3.0342785E-1,-1.0194368E-2,7.150159E-2,3.003544E-1,8.685574E-2,9.0563506E-2,-2.1235854E-4,3.0391368E-1,1.0929422E-1],"split_indices":[541,3192,336,1120,0,1361,1692,0,5924,4650,0,3114,6093,514,0,0,152,1972,0,2890,4928,1618,0,0,5620,3343,0,2260,0,0,0,1781,2873,0,5845,951,12,0,0,0,2133,0,0,0,2742,0,1713,0,0,0,4516,1092,0,4145,4687,0,6077,0,2670,1769,0,0,5327,3969,4,3,4540,2706,4,0,0,0,2177,0,0,0,0,5296,0,4904,0,0,0,1297,0,1989,0,0,0,197,0,0,0,0,1241,0,0],"split_type":[0,0,0,0,0,0,0,0,0,0,0,0,0,0,0,0,0,0,0,0,0,0,0,0,0,0,0,0,0,0,0,0,0,0,0,0,0,0,0,0,0,0,0,0,0,0,0,0,0,0,0,0,0,0,0,0,0,0,0,0,0,0,0,0,0,0,0,0,0,0,0,0,0,0,0,0,0,0,0,0,0,0,0,0,0,0,0,0,0,0,0,0,0,0,0,0,0],"sum_hessian":[2.8287177E2,8.444503E1,1.9842673E2,7.800909E1,6.435945E0,6.8374306E1,1.3005243E2,4.825808E0,7.318328E1,6.064604E1,7.728267E0,7.870337E1,5.1349056E1,6.943974E1,3.7435393E0,5.14594E0,5.55001E1,6.54876E1,1.3215769E1,4.5594852E1,5.754204E0,6.654543E1,2.894312E0,3.3633294E0,5.2136772E1,5.670462E1,8.782983E0,4.230966E0,4.1363884E1,1.5549666E0,4.199237E0,5.9711464E1,6.8339653E0,2.4109871E0,4.9725784E1,4.740273E1,9.301891E0,1.746461E0,2.4845052E0,1.8230647E0,5.78884E1,2.544344E0,4.2896214E0,2.030989E0,4.7694794E1,4.251182E0,4.3151546E1,8.0321245E0,1.2697668E0,1.618701E0,5.62697E1,4.5789837E1,1.9049591E0,2.9894321E1,1.3257223E1,1.1038054E0,5.5165894E1,1.2705642E0,4.451927E1,2.8857262E1,1.0370606E0,5.474828E0,7.7823954E0,5.2735317E1,2.4305766E0,2.6623104E0,4.185696E1,2.6297394E1,2.5598676E0,1.3683678E0,6.4140277E0,2.1738183E0,5.0561497E1,1.1633636E0,1.2672129E0,1.2122669E0,1.4500434E0,3.9701332E1,2.1556294E0,2.470765E1,1.5897436E0,1.0100662E0,1.5498015E0,4.8554558E1,2.0069408E0,3.7468445E1,2.2328887E0,1.7093984E0,2.2998251E1,4.6668762E1,1.8857965E0,3.5736725E1,1.7317195E0,1.8206692E0,4.484809E1,4.3208748E1,1.6393447E0],"tree_param":{"num_deleted":"0","num_feature":"6144","num_nodes":"97","size_leaf_vector":"1"}},{"base_weights":[-8.286295E-2,1.7687753E-1,-2.626326E-1,-6.553409E-1,3.0479318E-1,-5.955803E-1,-5.8803067E-2,1.9748501E-1,-2.9220682E-1,-5.203035E-1,4.163297E-1,-1.492727E-1,-3.095129E-1,5.520243E-2,-2.8594938E-1,-2.808237E-1,2.0901094E-1,4.973704E-1,-2.5479257E-1,-6.866847E-1,3.8387048E-1,2.5192952E-1,-5.651972E-1,-5.353839E-1,5.85685E-1,1.9216402E-1,-2.967939E-1,6.87355E-1,-2.3594978E-1,-6.7759836E-1,3.9281312E-1,-3.0229816E-1,4.4998655E-1,-2.565635E-1,1.5047573E-1,-2.3143314E-1,6.5406764E-1,8.5833865E-1,-5.4165743E-2,1.5748861E-1,-2.778064E-1,5.153465E-1,-2.5957903E-1,2.4435864E-1,-1.763207E-1,7.0633924E-1,-2.0288338E-1,8.308989E-2,2.7255055E-1,-1.6617875E-1,1.4860775E-1,5.9878665E-1,-2.3481514E-1,7.560081E-1,-1.9530214E-1,-2.067686E-1,6.700419E-1,-1.8225306E-1,7.940292E-1,-1.9512683E-1,7.340363E-1,8.359456E-1,-5.318258E-2,7.8562164E-1,-1.780915E-1,5.90253E-3,8.6903274E-1,1.7398453E-1,-1.864119E-1,-9.345661E-2,8.417374E-1,1.6200247E-1,-1.6394824E-1,-8.390609E-3,9.006786E-1,-1.8046248E-1,1.5878738E-1,8.905841E-1,-1.5020412E-2,3.653172E-2,9.3409073E-1,9.278228E-1,2.6799163E-2,9.545561E-1,3.681118E-2,9.563204E-1,5.566949E-2,6.478125E-2,2.9199815E-1,2.9421484E-1,7.685225E-2],"categories":[],"categories_nodes":[],"categories_segments":[],"categories_sizes":[],"default_left":[0,0,0,0,0,0,0,0,0,0,0,0,0,0,0,0,0,0,0,0,0,0,0,0,0,0,0,0,0,0,0,0,0,0,0,0,0,0,0,0,0,0,0,0,0,0,0,0,0,0,0,0,0,0,0,0,0,0,0,0,0,0,0,0,0,0,0,0,0,0,0,0,0,0,0,0,0,0,0,0,0,0,0,0,0,0,0,0,0,0,0],"id":9,"left_children":[1,3,5,7,9,11,13,-1,-1,15,17,19,-1,21,-1,-1,-1,23,-1,25,27,29,31,33,35,-1,-1,37,-1,39,41,-1,43,-1,-1,-1,45,47,49,-1,-1,51,-1,-1,-1,53,-1,-1,-1,-1,-1,55,-1,57,-1,-1,59,-1,61,-1,63,65,67,69,-1,71,73,-1,-1,75,77,-1,-1,-1,79,-1,-1,81,-1,-1,83,85,-1,87,-1,89,-1,-1,-1,-1,-1],"loss_changes":[1.0598219E1,1.0102959E1,9.055518E0,5.962499E0,7.700093E0,9.725445E0,8.637385E0,0E0,0E0,5.7769127E0,7.826725E0,7.785889E0,0E0,9.371986E0,0E0,0E0,0E0,6.5590363E0,0E0,6.029302E0,5.4496293E0,7.8756084E0,8.7698555E0,2.3912601E0,6.4030914E0,0E0,0E0,1.5056472E0,0E0,2.880504E0,8.322125E0,0E0,2.866264E0,0E0,0E0,0E0,4.7231255E0,2.284813E-2,1.1249603E0,0E0,0E0,5.579256E0,0E0,0E0,0E0,4.485462E0,0E0,0E0,0E0,0E0,0E0,4.5827503E0,0E0,3.4687004E0,0E0,0E0,4.1156387E0,0E0,2.049984E0,0E0,3.3109837E0,1.4743958E0,1.6563537E0,2.0721512E0,0E0,1.201457E0,1.4956055E0,0E0,0E0,1.3704227E0,1.7036972E0,0E0,0E0,0E0,1.1891937E0,0E0,0E0,9.9609184E-1,0E0,0E0,6.77536E-1,5.5122757E-1,0E0,4.349556E-1,0E0,3.113098E-1,0E0,0E0,0E0,0E0,0E0],"parents":[2147483647,0,0,1,1,2,2,3,3,4,4,5,5,6,6,9,9,10,10,11,11,13,13,17,17,19,19,20,20,21,21,22,22,23,23,24,24,27,27,29,29,30,30,32,32,36,36,37,37,38,38,41,41,45,45,51,51,53,53,56,56,58,58,60,60,61,61,62,62,63,63,65,65,66,66,69,69,70,70,74,74,77,77,80,80,81,81,83,83,85,85],"right_children":[2,4,6,8,10,12,14,-1,-1,16,18,20,-1,22,-1,-1,-1,24,-1,26,28,30,32,34,36,-1,-1,38,-1,40,42,-1,44,-1,-1,-1,46,48,50,-1,-1,52,-1,-1,-1,54,-1,-1,-1,-1,-1,56,-1,58,-1,-1,60,-1,62,-1,64,66,68,70,-1,72,74,-1,-1,76,78,-1,-1,-1,80,-1,-1,82,-1,-1,84,86,-1,88,-1,90,-1,-1,-1,-1,-1],"split_conditions":[-1.2076032E-2,-1.2785217E-2,-2.4657252E-3,-5.949114E-3,-8.65082E-3,-3.172001E-4,-4.3811405E-4,1.9748501E-1,-2.9220682E-1,1.0103688E-2,1.753425E-2,-1.0114891E-2,-3.095129E-1,-1.3547328E-3,-2.8594938E-1,-2.808237E-1,2.0901094E-1,-1.0181249E-2,-2.5479257E-1,-4.5802185E-4,-3.5771835E-4,-6.5308023E-4,8.787804E-3,5.358165E-4,-6.936054E-5,1.9216402E-1,-2.967939E-1,4.8121752E-4,-2.3594978E-1,-9.519756E-3,1.212533E-3,-3.0229816E-1,2.5113076E-3,-2.565635E-1,1.5047573E-1,-2.3143314E-1,3.983505E-4,9.5011696E-4,5.7555097E-3,1.5748861E-1,-2.778064E-1,1.2058539E-3,-2.5957903E-1,2.4435864E-1,-1.763207E-1,1.2399276E-2,-2.0288338E-1,8.308989E-2,2.7255055E-1,-1.6617875E-1,1.4860775E-1,-3.5077955E-3,-2.3481514E-1,-2.4807674E-3,-1.9530214E-1,-2.067686E-1,-2.4272883E-4,-1.8225306E-1,2.678807E-4,-1.9512683E-1,6.78109E-4,-3.5457753E-3,-4.6013246E-4,-8.145835E-3,-1.780915E-1,-3.4127634E-3,-2.5897548E-3,1.7398453E-1,-1.864119E-1,3.2993369E-3,7.9126994E-4,1.6200247E-1,-1.6394824E-1,-8.390609E-3,-6.099482E-4,-1.8046248E-1,1.5878738E-1,1.3689947E-4,-1.5020412E-2,3.653172E-2,4.4717663E-4,5.5256537E-3,2.6799163E-2,-2.4836888E-3,3.681118E-2,1.6601845E-4,5.566949E-2,6.478125E-2,2.9199815E-1,2.9421484E-1,7.685225E-2],"split_indices":[1156,2024,2332,5632,644,3686,1997,0,0,706,516,4458,0,3257,0,0,0,2800,0,2645,1671,4737,4390,3228,5221,0,0,1402,0,95,1912,0,6041,0,0,0,2819,4415,0,0,0,6132,0,0,0,3547,0,0,0,0,0,144,0,1324,0,0,5586,0,5570,0,6064,5884,7,5229,0,16,5220,0,0,3,638,0,0,0,1440,0,0,4707,0,0,5246,1920,0,5064,0,1218,0,0,0,0,0],"split_type":[0,0,0,0,0,0,0,0,0,0,0,0,0,0,0,0,0,0,0,0,0,0,0,0,0,0,0,0,0,0,0,0,0,0,0,0,0,0,0,0,0,0,0,0,0,0,0,0,0,0,0,0,0,0,0,0,0,0,0,0,0,0,0,0,0,0,0,0,0,0,0,0,0,0,0,0,0,0,0,0,0,0,0,0,0,0,0,0,0,0,0],"sum_hessian":[2.249795E2,9.202833E1,1.3295119E2,1.1711319E1,8.031701E1,4.975552E1,8.319566E1,2.078399E0,9.63292E0,9.12792E0,7.118909E1,2.5254208E1,2.4501312E1,7.4621796E1,8.573866E0,6.9756193E0,2.152301E0,6.747555E1,3.7135394E0,1.24333315E1,1.2820877E1,5.710718E1,1.7514612E1,4.9167433E0,6.2558804E1,2.10126E0,1.0332071E1,1.0508625E1,2.3122523E0,7.0148263E0,5.0092354E1,1.22032795E1,5.311333E0,3.8917165E0,1.0250267E0,2.507784E0,6.0051018E1,8.411516E0,2.0971088E0,1.0104214E0,6.004405E0,4.6184475E1,3.9078798E0,4.0897293E0,1.221604E0,5.8232037E1,1.8189824E0,1.1861209E0,7.225395E0,1.0940837E0,1.0030252E0,4.3901196E1,2.2832804E0,5.660378E1,1.6282558E0,1.846739E0,4.2054455E1,1.1292208E0,5.547456E1,1.5203212E0,4.0534134E1,5.287198E1,2.6025827E0,3.9411133E1,1.1230024E0,2.07196E0,5.080002E1,1.2211591E0,1.3814236E0,2.3249133E0,3.708622E1,1.0648226E0,1.0071375E0,1.7350887E0,4.906493E1,1.299079E0,1.0258344E0,3.5161682E1,1.924536E0,2.2091713E0,4.685576E1,3.3449154E1,1.7125307E0,4.553089E1,1.3248638E0,3.1934687E1,1.5144647E0,1.4383218E0,4.409257E1,3.0472193E1,1.462495E0],"tree_param":{"num_deleted":"0","num_feature":"6144","num_nodes":"91","size_leaf_vector":"1"}}]},"name":"gbtree"},"learner_model_param":{"base_score":"5E-1","boost_from_average":"1","num_class":"0","num_feature":"6144","num_target":"1"},"objective":{"name":"binary:logistic","reg_loss_param":{"scale_pos_weight":"24.7669888"}}},"version":[2,0,3]}